{"in_shape": [null, null, 2], "layers": [{"type": "time-distributed-dense", "shape": [null, null, 8], "weights": [[[-0.37944650650024414, -0.4201286733150482, 0.26523277163505554, 0.33857354521751404, 0.5163534879684448, 0.4639029800891876, 0.3077918291091919, -0.0313192680478096], [-0.2955411672592163, 0.6970484852790833, 0.42438727617263794, 0.46696776151657104, -0.3230455815792084, 0.47775623202323914, -0.3422020673751831, -0.5452356934547424]], [-0.14149312674999237, -0.3829059898853302, -0.025614868849515915, -0.0599798858165741, -0.07845162600278854, -0.14904488623142242, -0.00024088937789201736, 0.07970492541790009]]}, {"type": "gru", "shape": [null, null, 16], "weights": [[[-0.010550732724368572, 0.2971189618110657, -0.09062561392784119, 0.23081928491592407, -0.5509494543075562, -0.21344734728336334, -0.5317292809486389, 0.17981156706809998, -0.018620073795318604, 0.2697945833206177, -0.42497822642326355, 0.09343065321445465, -0.052313439548015594, -0.2128162533044815, -0.11674507707357407, -0.03808777034282684, -0.25458595156669617, 0.1343315690755844, -0.04360586404800415, 0.16589070856571198, 0.11896505206823349, 0.1338089108467102, -0.057285744696855545, -0.04161946102976799, 0.11500029265880585, -0.2663871943950653, -0.002064257860183716, -0.16079187393188477, 0.4827442169189453, 0.209570050239563, -0.4199064075946808, -0.4017883539199829, -0.10470622032880783, 0.04670320451259613, -0.06553568691015244, 0.13960076868534088, -0.02943875826895237, 0.2801717221736908, -0.08558451384305954, 0.44868171215057373, -0.10391995310783386, -0.022801175713539124, -0.3107978403568268, 0.15133211016654968, -0.26962313055992126, -0.07978285104036331, -0.1830621361732483, -0.37427279353141785], [0.3930085003376007, 0.679293155670166, 0.013168388977646828, 0.12327919155359268, 0.31290361285209656, 0.08999817073345184, 0.0015657005133107305, 0.13020308315753937, 0.4691331386566162, 0.054928604513406754, 0.48758766055107117, -0.3490619957447052, 0.09672479331493378, 0.4838959872722626, 0.39395713806152344, 0.28855669498443604, 0.31216683983802795, -0.08081352710723877, -0.3266792893409729, 0.09858855605125427, 0.4074106812477112, -0.08708152174949646, 0.13166850805282593, 0.015590815804898739, -0.5574802160263062, -0.20922498404979706, -0.2828482985496521, -0.04007153958082199, 0.2522221505641937, 0.16655319929122925, -0.09013953804969788, 0.1968245655298233, 0.12054477632045746, -0.37153396010398865, -0.40422162413597107, 0.39645516872406006, -0.3305755853652954, -0.09099393337965012, 0.2598714232444763, 0.4767609238624573, 0.1439265012741089, -0.32512524724006653, -0.07157128304243088, 0.16169384121894836, -0.2282068282365799, 0.03419628366827965, 0.2406424880027771, -0.13597677648067474], [0.11447412520647049, 0.40535029768943787, 0.2876170873641968, 0.062217727303504944, 0.6306682825088501, 0.43809741735458374, 0.34030723571777344, -0.321942538022995, 0.2783339023590088, 0.38346219062805176, 0.5973269939422607, -0.3036922812461853, 0.138851597905159, 0.22836191952228546, -0.1456156224012375, 0.46651145815849304, 0.2695640027523041, 0.4330320358276367, 0.11974980682134628, -0.04208886995911598, 0.35687243938446045, 0.036170583218336105, 0.37665578722953796, 0.05730673298239708, -0.5462474822998047, 0.05112699791789055, -0.1285853087902069, 0.2182726114988327, -0.3848020136356354, -0.2393721491098404, 0.11845819652080536, 0.14613160490989685, -0.08427341282367706, -0.08715612441301346, 0.02491682581603527, 0.09779174625873566, -0.17835944890975952, 0.07701539248228073, -0.14024539291858673, -0.24831537902355194, 0.38208481669425964, 0.1429157555103302, 0.2847095727920532, 0.0050583491101861, 0.29952433705329895, -0.22932222485542297, 0.15266922116279602, 0.0021582357585430145], [0.4542895555496216, 0.5250099897384644, -0.21535137295722961, 0.266577810049057, 0.40143826603889465, 0.20821334421634674, 0.31823378801345825, -0.17386563122272491, 0.32880881428718567, 0.328939825296402, 0.644588053226471, -0.4122181534767151, 0.16604572534561157, 0.16695711016654968, 0.4144428074359894, 0.6880119442939758, 0.08190694451332092, 0.6189545392990112, -0.33520063757896423, 0.115134596824646, -0.07644446194171906, -0.2320849597454071, 0.10109041631221771, 0.5211678743362427, -0.29303938150405884, -0.19809508323669434, 0.1742181032896042, 0.0420725978910923, 0.1929774284362793, 0.2829524874687195, 0.13175265491008759, -0.08472628146409988, -0.22816337645053864, -0.43952056765556335, 0.15325549244880676, -0.18063341081142426, 0.04099505767226219, 0.0064019691199064255, -0.13868048787117004, -0.16170138120651245, 0.29477375745773315, 0.23552148044109344, -0.24816900491714478, -0.14528106153011322, -0.06589865684509277, 0.07237622141838074, -0.2947610914707184, -0.12138256430625916], [0.0536661371588707, -0.2782502770423889, 0.27529376745224, 0.07871585339307785, -0.25451716780662537, -0.22996565699577332, -0.34556522965431213, -0.5134332776069641, -0.18026502430438995, -0.5505125522613525, -0.2907966077327728, 0.18609042465686798, -0.025369377806782722, -0.7391561269760132, -0.4938772916793823, -0.04273204877972603, -0.06994844973087311, -0.08659087866544724, 0.1771029382944107, 0.32851555943489075, -0.24639655649662018, -0.2111896276473999, -0.10922112315893173, -0.06366067379713058, 0.011925632134079933, -0.16833479702472687, 0.29478052258491516, 0.18363116681575775, 0.37031593918800354, 0.08803749829530716, 0.1700347363948822, -0.2827601134777069, -0.003580841002985835, -0.4538278579711914, 0.08152342587709427, -0.2039843648672104, -0.15816377103328705, 0.38687053322792053, -0.18782679736614227, -0.04686008766293526, -0.030334385111927986, 0.2126287817955017, -0.22289060056209564, -0.08348309993743896, -0.009970567189157009, 0.18310806155204773, -0.035100989043712616, 0.050401680171489716], [0.2943616211414337, 0.19048674404621124, -0.03998119384050369, 0.1452142745256424, 0.3001696765422821, -0.024904321879148483, -0.03307940810918808, -0.46238255500793457, -0.003855448681861162, 0.24009087681770325, 0.4211902618408203, 0.1708330512046814, 0.3786633312702179, 0.5360918045043945, -0.027022987604141235, 0.615128219127655, 0.3881530165672302, 0.606006920337677, -0.09171728789806366, 0.016575166955590248, 0.030225230380892754, 0.0010679643601179123, 0.5274215340614319, -0.09437856823205948, -0.11139755696058273, 0.2306547611951828, 0.12206972390413284, 0.00484801921993494, -0.3398738503456116, -0.07667777687311172, 0.04463907703757286, 0.19631394743919373, 0.0767589882016182, -0.45249322056770325, 0.3325738310813904, -0.1931658387184143, -0.028479579836130142, -0.20474869012832642, 0.19638897478580475, 0.2849664092063904, 0.2612229585647583, 0.0662551298737526, 0.05011378228664398, -0.29517099261283875, 0.012389018200337887, -0.33466216921806335, -0.03718055039644241, -0.06893666088581085], [-0.37504246830940247, -0.6379143595695496, -0.20597772300243378, -0.040883902460336685, -0.13274076581001282, -0.7892376184463501, -0.041526924818754196, 0.06403719633817673, -0.15951329469680786, -0.5029586553573608, -0.5024086236953735, 0.4152221083641052, -0.48245859146118164, -0.36182016134262085, -0.2988475263118744, -0.4238384962081909, -0.308016836643219, -0.2671982944011688, 0.5923386812210083, 0.3402682840824127, -0.11174319684505463, 0.2870952785015106, -0.6587961912155151, -0.15600432455539703, 0.04857466742396355, 0.2573285698890686, 0.45663926005363464, 0.055107228457927704, 0.26896730065345764, -0.14684154093265533, -0.04507335275411606, -0.30125147104263306, 0.16398665308952332, -0.18897311389446259, 0.34044426679611206, -0.46458446979522705, 0.09655565023422241, 0.0526035912334919, -0.15966181457042694, -0.21040654182434082, 0.1547728031873703, 0.04288637265563011, -0.23081104457378387, -0.449966162443161, 0.07750990241765976, -0.098941370844841, -0.03625845909118652, -0.03965767100453377], [-0.008886286057531834, -0.03788277879357338, 0.18889647722244263, 0.09617570042610168, -0.16850928962230682, -0.747731626033783, -0.5920146703720093, -0.20932969450950623, -0.34796300530433655, -0.23984935879707336, -0.5547280311584473, 0.03529093787074089, -0.14307820796966553, -0.35986438393592834, -0.23289649188518524, -0.42971765995025635, 0.07799343764781952, -0.6139256358146667, -0.08599693328142166, 0.26836875081062317, 0.1004544049501419, 0.1355390101671219, -0.03629887476563454, -0.06106817349791527, 0.3433230221271515, 0.07789027690887451, 0.33406034111976624, 0.1159813404083252, 0.023152757436037064, 0.21492081880569458, 0.3145151734352112, -0.026778511703014374, 0.3021451234817505, -0.014192902483046055, -0.19662190973758698, 0.2535518705844879, 0.25390633940696716, -0.05689495429396629, 0.12537311017513275, -0.27967315912246704, -0.0986805334687233, 0.2980858385562897, -0.17559848725795746, 0.2020113617181778, 0.05596776679158211, -0.05838058888912201, 0.26705241203308105, 0.04547234624624252]], [[-0.3987227976322174, -0.7854642271995544, -0.21482917666435242, -0.04000013694167137, -0.5841311812400818, -0.41147109866142273, -0.27619311213493347, 0.29287585616111755, -0.13281194865703583, -0.30518272519111633, -0.3589601218700409, 0.24830207228660583, -0.20525647699832916, -0.6836519241333008, -0.09820733964443207, -0.5220746994018555, -0.2613036334514618, -0.42653268575668335, 0.2619105279445648, 0.20183807611465454, 0.08478866517543793, 0.204034224152565, -0.21935397386550903, -0.2727668285369873, 0.5939615368843079, -0.12742042541503906, -0.2015620917081833, 0.15163816511631012, 0.11456277966499329, 0.2918776273727417, -0.027783209457993507, -0.13357333838939667, 0.4879675805568695, 0.5554069876670837, -0.013630622997879982, 0.015367054380476475, -0.07188042253255844, 0.08554361015558243, 0.0025470107793807983, -0.48843929171562195, 0.05568721145391464, -0.3503812253475189, -0.05860403925180435, 0.08854292333126068, 0.10569452494382858, -0.15410520136356354, 0.24887055158615112, 0.007832037284970284], [-0.15511561930179596, -0.5045853853225708, -0.056632041931152344, 0.36673974990844727, -0.25308850407600403, -0.29279258847236633, -0.36894547939300537, 0.30996790528297424, -0.14172841608524323, -0.3760855495929718, -0.3385187089443207, 0.4429991841316223, 0.13513869047164917, -0.4546431005001068, -0.2516476511955261, -0.32504329085350037, -0.5116181373596191, -0.2583879828453064, 0.33386364579200745, -0.0772622674703598, -0.3259071111679077, 0.02652880735695362, -0.31207147240638733, -0.17902585864067078, 0.1445423662662506, 0.118462473154068, -0.4877749979496002, -0.5898314714431763, -0.25774070620536804, -0.5007113814353943, -0.25577694177627563, -0.44223061203956604, 0.33282002806663513, 0.4806738793849945, 0.14571057260036469, 0.19505174458026886, 0.16874642670154572, 0.03358794376254082, 0.2517872154712677, -0.1284792423248291, 0.36578693985939026, 0.10589931905269623, 0.3482398986816406, -0.11405963450670242, 0.39586031436920166, -0.4808471202850342, -0.24524277448654175, 0.05244392529129982], [-0.2387494146823883, -0.5223206877708435, -0.20202387869358063, -0.4469519853591919, 0.07600707560777664, -0.12076140195131302, -0.15758226811885834, -0.20525336265563965, -0.12776315212249756, -0.17625023424625397, 0.3788219690322876, -0.45917561650276184, -0.07200977951288223, -0.06893773376941681, -0.22552427649497986, 0.27078771591186523, 0.322407603263855, -0.28542226552963257, -0.13413208723068237, 0.0584053210914135, 0.0406402125954628, -0.10135390609502792, 0.03350305184721947, 0.16595463454723358, 0.012372319586575031, 0.6360675692558289, 0.24378615617752075, 0.2850728929042816, -0.07689414918422699, -0.07918324321508408, 0.40817394852638245, -0.1531723439693451, 0.26233726739883423, 0.06946052610874176, -0.20506325364112854, 0.2899642884731293, 0.24445542693138123, -0.04001554101705551, -0.1402430534362793, -0.018152035772800446, 0.017598716542124748, 0.24437065422534943, 0.12272810935974121, 0.23865638673305511, -0.3722832202911377, 0.2765260636806488, 0.2338847517967224, 0.4125545024871826], [0.517798900604248, -0.1269885003566742, -0.5484091639518738, -0.5493495464324951, 0.21044878661632538, 0.357408732175827, -0.18432752788066864, -0.2122846394777298, 0.10442715138196945, 0.08388133347034454, 0.013693039305508137, 0.03424086794257164, 0.054083067923784256, 0.0885177031159401, 0.07351861894130707, -0.19337734580039978, 0.19793997704982758, 0.0862659364938736, 0.37532100081443787, -0.3067588806152344, 0.15906856954097748, 0.1232270896434784, 0.3464534282684326, 0.26333969831466675, 0.1002579778432846, -0.35013994574546814, -0.222776398062706, -0.09548256546258926, -0.19406816363334656, 0.14565055072307587, -0.13269548118114471, 0.13197936117649078, -0.057853419333696365, 0.041699718683958054, 0.2877601683139801, -0.07392986118793488, 0.08345700800418854, 0.07974778860807419, 0.2997712790966034, -0.11049047857522964, -0.0289198849350214, -0.003458523890003562, 0.0889187753200531, -0.23346957564353943, 0.43474408984184265, -0.27266937494277954, -0.020691363140940666, -0.16148421168327332], [-0.03572304919362068, -0.577647864818573, 0.512471079826355, 0.4222473204135895, -0.2834812104701996, -0.4817843437194824, -0.22186647355556488, 0.031092491000890732, -0.08737785369157791, -0.06362222135066986, -0.5702697038650513, 0.23221415281295776, -0.007191340904682875, -0.7683547735214233, 0.16799239814281464, -0.2496223896741867, -0.4244876205921173, -0.4789922535419464, 0.03190198168158531, 0.07071686536073685, -0.3323096036911011, 0.2730572819709778, -0.34543585777282715, -0.5627410411834717, 0.5349401235580444, 0.4515417218208313, -0.13251382112503052, -0.12950031459331512, -0.06738130748271942, -0.47161972522735596, 0.13801050186157227, -0.6083433032035828, -0.08234311640262604, -0.10112543404102325, -0.026906786486506462, 0.06154681742191315, 0.43375635147094727, -0.09202323853969574, -0.30208349227905273, -0.06587865948677063, 0.34423038363456726, -0.32301050424575806, 0.03434063121676445, -0.13384999334812164, -0.05403520539402962, -0.08015798777341843, 0.06657563894987106, 0.6957586407661438], [-0.29838016629219055, -0.2418999969959259, -0.1806536614894867, -0.12493092566728592, -0.11565402895212173, -0.35889890789985657, -0.4286274015903473, -0.35602813959121704, -0.3290499150753021, -0.4356434941291809, -0.6134627461433411, -0.19724032282829285, -0.157126322388649, -0.838741660118103, -0.15801426768302917, -0.0597052238881588, -0.04648533836007118, 0.41802358627319336, 0.08010532706975937, 0.2838762402534485, -0.3042718470096588, 0.3524056375026703, -0.1482834815979004, -0.1866583228111267, 0.40654313564300537, -0.11880737543106079, 0.5254548788070679, 0.15545403957366943, 0.1598450243473053, -0.037052448838949203, 0.12691837549209595, 0.012542042881250381, -0.28485995531082153, -0.4392235577106476, -0.3144684135913849, 0.33813801407814026, 0.4331780672073364, 0.36637091636657715, -0.33794131875038147, 0.16568274796009064, 0.6844336986541748, 0.2802528142929077, -0.23868457973003387, 0.3141281306743622, -0.29628685116767883, 0.23484908044338226, 0.37101268768310547, 0.40406107902526855], [-0.21406333148479462, -0.055569060146808624, 0.052390046417713165, -0.22061489522457123, 0.7204263806343079, -0.05288685858249664, 0.04219137504696846, -0.01257051806896925, -0.06155497580766678, -0.0262756384909153, -0.028665605932474136, 0.30869829654693604, -0.09184809774160385, 0.21814630925655365, 0.12384910881519318, -0.04462943226099014, 0.2112804502248764, 0.3282240033149719, -0.03677516430616379, 0.20225593447685242, -0.0013192303013056517, 0.25356218218803406, 0.19963471591472626, 0.03928723931312561, -0.12747929990291595, -0.6795239448547363, -0.1907278299331665, -0.35300543904304504, 0.25300949811935425, -0.059389397501945496, 0.03365486115217209, 0.26986047625541687, -0.11163119971752167, 0.02203379012644291, 0.13824310898780823, -0.10552304238080978, 0.20531634986400604, 0.21701370179653168, 0.4132198095321655, -0.1313859224319458, -0.1318824142217636, -0.08235815912485123, 0.39968937635421753, -0.030457753688097, 0.23572923243045807, -0.525226354598999, 0.12595143914222717, -0.2829122841358185], [0.31089311838150024, 0.3723815977573395, 0.4840467572212219, 0.3156185746192932, 0.1132264956831932, 0.05260747671127319, 0.3588963747024536, 0.12234871834516525, 0.4152626395225525, 0.4534197449684143, 0.3784210979938507, 0.20864710211753845, 0.31992000341415405, 0.5660279989242554, -0.1378464549779892, 0.15630686283111572, 0.00860514771193266, 0.2545708119869232, -0.027968265116214752, 0.08549841493368149, 0.05062080919742584, 0.014845892786979675, -0.25231337547302246, -0.3134598135948181, -0.608582615852356, -0.6012982726097107, 0.04916570708155632, -0.2643044590950012, -0.4734738767147064, 0.1413680613040924, -0.2462996244430542, 0.11665303260087967, -0.0476766973733902, -0.5153234004974365, 0.2753600776195526, -0.22770865261554718, 0.20148152112960815, 0.10176920145750046, -0.08551604300737381, -0.009030422195792198, -0.019897665828466415, 0.15706086158752441, -0.06287667900323868, -0.1295011043548584, -0.005444835871458054, -0.23762246966362, -0.4469281733036041, -0.042840830981731415], [0.42627662420272827, 0.4918953776359558, -0.07794424146413803, 0.26593443751335144, 0.29670417308807373, 0.6664261221885681, 0.46470823884010315, -0.0538325235247612, 0.45768842101097107, 0.5671796798706055, 0.33117181062698364, -0.1280054897069931, 0.02317619137465954, 0.6120911240577698, 0.26174455881118774, 0.5488154888153076, 0.31317612528800964, 0.24236959218978882, -0.06307315826416016, -0.05700015276670456, 0.09904990345239639, -0.23058491945266724, 0.49086037278175354, -0.051462750881910324, -0.5640416145324707, 0.14698149263858795, 0.056791771203279495, 0.13141591846942902, 0.04188861697912216, 0.1661919355392456, -0.024698298424482346, 0.2756124436855316, -0.5682198405265808, -0.4367671608924866, -0.24608884751796722, 0.18362590670585632, -0.22689981758594513, -0.4320637583732605, -0.21967153251171112, 0.21673554182052612, 0.10342687368392944, 0.37187013030052185, 0.22636719048023224, 0.22426490485668182, -0.5320730805397034, 0.6227386593818665, 0.03921538218855858, 0.21676567196846008], [-0.23742884397506714, -0.3662583529949188, 0.40891194343566895, 0.4605504274368286, -0.4047700762748718, -0.2745401859283447, -0.3025212585926056, 0.0366617888212204, -0.24044260382652283, -0.0562613271176815, -0.14151981472969055, -0.35618671774864197, -0.34737616777420044, -0.43580567836761475, -0.10945942997932434, -0.27246490120887756, -0.048972051590681076, -0.12408522516489029, 0.3372182846069336, 0.2879462242126465, 0.015398763120174408, -0.08561743050813675, -0.09837412089109421, -0.05961580201983452, 0.05584773048758507, 0.5713518857955933, -0.03376607596874237, 0.2916131317615509, 0.004542559385299683, -0.2667531669139862, 0.1732073277235031, -0.3641604483127594, -0.2046816051006317, -0.11767347902059555, -0.09288189560174942, 0.24239756166934967, 0.2778673768043518, -0.185310497879982, -0.7034750580787659, 0.5017063021659851, -0.2761470675468445, 0.2204945683479309, -0.14836890995502472, 0.5994464755058289, -0.31942445039749146, 0.40001457929611206, 0.009072399698197842, 0.3050656318664551], [0.14953890442848206, 0.07855517417192459, 0.1585816740989685, 0.2864835560321808, 0.4209795296192169, 0.5598946809768677, 0.04081433266401291, -0.31620651483535767, 0.5840663909912109, 0.6109717488288879, 0.3653791844844818, -0.01527534332126379, 0.7432225346565247, 0.5043290257453918, 0.23400521278381348, 0.3442276418209076, -0.2934155762195587, 0.019586674869060516, -0.22025103867053986, 0.014371111989021301, -0.4633823037147522, -0.44636794924736023, 0.24943742156028748, -0.05904257297515869, -0.2580700218677521, -0.03495434671640396, 0.07787863910198212, 0.3664799630641937, -0.41003289818763733, -0.6139336824417114, -0.24524608254432678, 0.008902319706976414, -0.5515424609184265, -0.2081710249185562, 0.043169859796762466, 0.23775865137577057, 0.21281035244464874, 0.3418460488319397, -0.3569701611995697, 0.11556275188922882, 0.050678662955760956, 0.517812192440033, 0.20425556600093842, 0.11458898335695267, -0.09514589607715607, 0.25537624955177307, 0.19413265585899353, 0.16555669903755188], [-0.2114635556936264, -0.13696523010730743, -0.5630569458007812, -0.40548861026763916, -0.09453879296779633, -0.1726677119731903, -0.16640134155750275, -0.44339677691459656, -0.23748426139354706, -0.5542504191398621, 0.031116051599383354, -0.268057256937027, -0.477541446685791, -0.2429395616054535, -0.14410875737667084, -0.576143741607666, 0.0814119428396225, 0.09826697409152985, 0.17903071641921997, 0.19972647726535797, 0.08296330273151398, 0.4475792348384857, 0.2232767939567566, 0.28632277250289917, 0.25799620151519775, -0.04922870174050331, 0.3251199722290039, 0.06709841638803482, 0.29426053166389465, 0.2278652936220169, 0.4717959761619568, 0.4033898115158081, -0.16760268807411194, -0.22062261402606964, 0.4099489152431488, -0.10353964567184448, -0.3309102952480316, 0.06183500587940216, 0.08824926614761353, -0.31755414605140686, 0.03654326871037483, 0.1329306662082672, 0.20967377722263336, -0.0015283129177987576, 0.01276343036442995, -0.035178717225790024, -0.15039950609207153, 0.008853602223098278], [-0.07030617445707321, -0.423285573720932, -0.14516234397888184, -0.12019751965999603, -0.02276049181818962, 0.12525270879268646, -0.21145570278167725, -0.35356950759887695, -0.0883258804678917, 0.268462598323822, -0.13834908604621887, -0.09349338710308075, -0.12179823964834213, -0.004451749846339226, -0.20028166472911835, 0.052343569695949554, -0.17104975879192352, 0.39536356925964355, -0.5496127605438232, 0.3813893795013428, -0.4237712025642395, 0.041345663368701935, -0.11305718123912811, -0.2598592936992645, -0.1059134379029274, -0.2756652534008026, -0.05003559589385986, 0.07860526442527771, 0.08990016579627991, -0.1421860307455063, 0.42425405979156494, 0.0852108746767044, -0.35446885228157043, -0.06955311447381973, -0.05698639154434204, 0.1945934295654297, 0.3314017355442047, 0.11038433015346527, -0.03408851847052574, 0.3687761723995209, 0.27734506130218506, 0.03396005928516388, 0.028460713103413582, 0.11221801489591599, 0.021240035071969032, -0.347039133310318, 0.17044931650161743, 0.25989803671836853], [0.08618725836277008, 0.3585900664329529, -0.1775229275226593, -0.43459904193878174, 0.2230687141418457, 0.3184492290019989, 0.003817978547886014, 0.21054203808307648, 0.27012425661087036, 0.23437075316905975, 0.3596968352794647, -0.440364807844162, -0.1418037712574005, 0.03296547010540962, 0.44238314032554626, 0.03865116089582443, 0.2267351895570755, -0.2895146906375885, -0.31417298316955566, 0.045769110321998596, 0.4830823838710785, -0.10661575198173523, 0.03932444378733635, 0.1944492757320404, -0.13031375408172607, 0.12101129442453384, -0.18811888992786407, -0.29052257537841797, -0.24580420553684235, 0.22980523109436035, -0.05458866059780121, -0.0072753238491714, 0.2932029366493225, 0.14847460389137268, 0.4249001145362854, 0.12295004725456238, -0.4455534517765045, -0.3479565680027008, 0.018929367884993553, -0.38912108540534973, -0.10078224539756775, -0.3599534034729004, -0.15246310830116272, -0.26095306873321533, -0.08568835258483887, 0.20357760787010193, -0.6327202916145325, -0.339184433221817], [-0.45259079337120056, -0.1457650065422058, -0.47613921761512756, -0.04477005451917648, -0.19579127430915833, -0.2291727215051651, -0.2476179003715515, -0.42398518323898315, -0.42104968428611755, -0.16057126224040985, -0.6528432369232178, -0.269145667552948, -0.23082150518894196, -0.4556788504123688, -0.3248021900653839, 0.1346486508846283, 0.26538270711898804, 0.020020144060254097, 0.14193761348724365, -0.01846214570105076, 0.4254586398601532, 0.47074609994888306, 0.15975090861320496, -0.15745925903320312, 0.5387348532676697, 0.23629187047481537, 0.4854699671268463, 0.21257925033569336, 0.5638816952705383, 0.22309094667434692, 0.5823674201965332, 0.006461166311055422, 0.08211708068847656, 0.17121943831443787, 0.17417263984680176, 0.11597155034542084, 0.0992613211274147, -0.10925232619047165, -0.11867871880531311, -0.41417041420936584, -0.02582470141351223, 0.0386115126311779, -0.0825791209936142, 0.4721214771270752, -0.019513795152306557, -0.20391738414764404, 0.03694413602352142, 0.17672458291053772], [-0.3233584761619568, -0.6710154414176941, 0.15802699327468872, 0.27424857020378113, -0.21627630293369293, -0.15165835618972778, -0.6602139472961426, 0.2593167722225189, -0.23478776216506958, -0.2787560224533081, -0.3353555500507355, 0.16801048815250397, -0.17811842262744904, -0.6588760614395142, 0.24491038918495178, -0.31946131587028503, -0.2324930727481842, -0.20391400158405304, 0.2525103688240051, 0.13390764594078064, 0.14208650588989258, -0.29837509989738464, -0.48921090364456177, -0.40659499168395996, 0.8198527097702026, 0.5707815885543823, 0.19621025025844574, -0.00010079398634843528, 0.027405280619859695, -0.3992338180541992, -0.2817519009113312, -0.32609471678733826, 0.12317915260791779, 0.15079644322395325, -0.08068076521158218, -0.13531599938869476, -0.16649910807609558, -0.38891837000846863, -0.07955575734376907, -0.03441224992275238, -0.10820230096578598, -0.18759632110595703, -0.30866074562072754, -0.20008009672164917, -0.467633455991745, 0.21656613051891327, -0.09779053926467896, 0.4429604113101959]], [[-0.08772718906402588, -0.4048502743244171, -0.2704974412918091, -0.21163004636764526, 0.022732499986886978, 0.14818209409713745, -0.014334737323224545, -0.13558907806873322, 0.1285618394613266, -0.0038394760340452194, -0.023266399279236794, -0.24536815285682678, -0.3211851418018341, -0.11931784451007843, -0.020204097032546997, -0.19129736721515656, 0.10852158069610596, 0.23578014969825745, 0.17890316247940063, 0.15886975824832916, 0.2780470550060272, 0.21824201941490173, 0.18074755370616913, 0.3110271692276001, 0.36293789744377136, 0.2957761287689209, 0.2647201418876648, 0.24861180782318115, 0.2895798683166504, 0.29035288095474243, 0.32208678126335144, 0.3327482044696808, 0.06806886196136475, 0.11100372672080994, 0.055354855954647064, 0.037430308759212494, -0.019732831045985222, 0.005990948993712664, -0.030276676639914513, -0.07761762291193008, -0.03261099383234978, -0.032748423516750336, -0.010326962918043137, 0.049870382994413376, 0.008951041847467422, 0.0542936772108078, 0.029175397008657455, 0.08488203585147858], [-0.08772718906402588, -0.4048502743244171, -0.2704974412918091, -0.21163004636764526, 0.022732499986886978, 0.14818209409713745, -0.014334737323224545, -0.13558907806873322, 0.1285618394613266, -0.0038394760340452194, -0.023266399279236794, -0.24536815285682678, -0.3211851418018341, -0.11931784451007843, -0.020204097032546997, -0.19129736721515656, 0.10852158069610596, 0.23578014969825745, 0.17890316247940063, 0.15886975824832916, 0.2780470550060272, 0.21824201941490173, 0.18074755370616913, 0.3110271692276001, 0.36293789744377136, 0.2957761287689209, 0.2647201418876648, 0.24861180782318115, 0.2895798683166504, 0.29035288095474243, 0.32208678126335144, 0.3327482044696808, 0.07653157413005829, 0.07790058106184006, 0.09559892863035202, 0.04800868406891823, -0.03950988128781319, 0.012882922776043415, -0.024322444573044777, -0.08248115330934525, -0.04748988151550293, -0.017545275390148163, -0.014386048540472984, 0.055368877947330475, -0.027546176686882973, 0.05426068976521492, 0.038484279066324234, 0.07865245640277863]]]}, {"type": "dense", "shape": [null, null, 1], "weights": [[[0.6584054827690125], [0.2331576943397522], [0.38061392307281494], [-0.43415477871894836], [-0.7657036781311035], [-0.6163092851638794], [0.499460369348526], [-0.3681681156158447], [-0.5519489645957947], [-0.3633812665939331], [-0.3104096055030823], [-0.6676996946334839], [0.25048962235450745], [-0.20107179880142212], [-0.7058736085891724], [-0.6968392729759216]], [-0.01855107955634594]]}]}