{"in_shape": [null, null, 2], "layers": [{"type": "time-distributed-dense", "shape": [null, null, 8], "weights": [[[-0.5565037727355957, -0.32235732674598694, 0.2820575535297394, 0.5474561452865601, -0.469137579202652, 0.5478768944740295, 0.7590955495834351, -0.615004301071167], [0.25632137060165405, -0.30455583333969116, 0.6253426671028137, -0.3991250693798065, 0.03280627354979515, 0.6503496766090393, -0.06744522601366043, -0.33583763241767883]], [-0.02627883478999138, -0.07963775098323822, -0.047645315527915955, 0.0013976589543744922, 0.03879176080226898, -0.06605271250009537, -0.06433481723070145, -0.04695263132452965]]}, {"type": "gru", "shape": [null, null, 16], "weights": [[[-0.027869364246726036, -0.028372900560498238, -0.19130705296993256, -0.3531816303730011, 0.2699873447418213, 0.15697400271892548, -0.0915270447731018, -0.00045782222878187895, -0.011187751777470112, -0.093381367623806, 0.16001956164836884, 0.032526690512895584, 0.2878252863883972, -0.2977297008037567, 0.10174425691366196, 0.45647478103637695, 0.3218328058719635, 0.06764087080955505, 0.07304917275905609, 0.2500796616077423, -0.25119370222091675, 0.22566105425357819, 0.24128633737564087, 0.4151124358177185, -0.15123242139816284, 0.2399594634771347, 0.1984504610300064, -0.041506774723529816, 0.4305284917354584, -0.4832122027873993, 0.44216597080230713, 0.3155665695667267, 0.11034587025642395, 0.22471833229064941, -0.1567373126745224, 0.3315201699733734, -0.008486568927764893, -0.05107291042804718, 0.06159663945436478, -0.0292859748005867, -0.16565340757369995, -0.051770683377981186, -0.1816973090171814, 0.08894843608140945, 0.03549386188387871, -0.06499851495027542, 0.34002307057380676, -0.3278205692768097], [-0.43494564294815063, 0.29602551460266113, 0.4132624864578247, -0.132411926984787, -0.36913633346557617, -0.3052113950252533, 0.5686324238777161, 0.2166043221950531, 0.38612473011016846, -0.4052039384841919, -0.3732326924800873, -0.31536945700645447, 0.06629672646522522, -0.05477677658200264, 0.18953098356723785, -0.03981828689575195, -0.015256286598742008, 0.06093055009841919, -0.07349379360675812, -0.23815664649009705, 0.10219770669937134, 0.42066001892089844, 0.08316674828529358, 0.4272638261318207, 0.15091833472251892, 0.05773263797163963, 0.08757200837135315, -0.3599933087825775, 0.08845509588718414, 0.0306654442101717, 0.33338096737861633, 0.4682575762271881, -0.36688557267189026, 0.1807141751050949, -0.1464000940322876, 0.3665756285190582, -0.17486527562141418, -0.09111446887254715, -0.05059816688299179, 0.17866194248199463, -0.03524939343333244, 0.14636017382144928, -0.3555196225643158, -0.16785357892513275, -0.33424580097198486, 0.1073145940899849, -0.068944551050663, -0.28945305943489075], [0.05511303246021271, 0.05941438674926758, -0.4747565686702728, -0.45324283838272095, 0.3850911855697632, -0.026905706152319908, -0.4554363489151001, 0.024933896958827972, -0.4032776653766632, 0.09535740315914154, 0.2673129141330719, -0.06196172162890434, 0.5164629817008972, -0.18269102275371552, -0.4014189541339874, 0.37617388367652893, -0.115880087018013, -0.004783619195222855, 0.4325161874294281, 0.36911290884017944, 0.12884630262851715, 0.10375168919563293, -0.4518653452396393, -0.31541770696640015, -0.056986406445503235, -0.003527322318404913, 0.10917709022760391, 0.015344608575105667, -0.158421128988266, -0.32186734676361084, -0.19809165596961975, 0.14482396841049194, 0.20033174753189087, 0.027169162407517433, 0.2519494295120239, -0.3179427981376648, -0.1605094075202942, -0.3009974956512451, 0.09045537561178207, 0.2431807965040207, 0.11694008111953735, -0.4148389399051666, -0.031650155782699585, -0.018898852169513702, -0.28040263056755066, 0.05067215859889984, -0.31073158979415894, 0.07194867730140686], [-0.23673920333385468, 0.06429095566272736, -0.002167709870263934, 0.22396951913833618, -0.4246194362640381, -0.3488706648349762, 0.10343620926141739, 0.013302684761583805, 0.3860666751861572, 0.4368528425693512, 0.15560834109783173, 0.010921096429228783, -0.3402411937713623, 0.3154008090496063, 0.35078659653663635, -0.36239537596702576, 0.2523339092731476, -0.22191207110881805, 0.0381760373711586, -0.30850499868392944, 0.40366631746292114, -0.13462699949741364, -0.40125197172164917, -0.18927447497844696, -0.10476687550544739, -0.4159345328807831, -0.05969071388244629, 0.3250078856945038, 0.037560850381851196, 0.03401289880275726, -0.4478658437728882, -0.3411451578140259, -0.037865761667490005, -0.2311495542526245, 0.03012794442474842, 0.17537690699100494, 0.3021083176136017, -0.25923952460289, -0.12131310254335403, -0.12003328651189804, 0.27319270372390747, 0.3892953097820282, -0.2413194477558136, -0.2766968011856079, 0.2775069773197174, -0.33013102412223816, -0.2535841166973114, -0.17106667160987854], [0.22907118499279022, 0.1454704999923706, -0.22216856479644775, -0.40734919905662537, -0.4257465898990631, -0.24681566655635834, 0.11726353317499161, 0.05565248057246208, 0.26730433106422424, -0.4736940264701843, 0.012965588830411434, 0.35197216272354126, 0.15126630663871765, 0.1186448261141777, 0.16907280683517456, 0.18273890018463135, -0.0019192734034731984, 0.26668646931648254, 0.35521456599235535, -0.3545241057872772, 0.16363425552845, 0.07661871612071991, 0.27035680413246155, 0.49612683057785034, 0.37860405445098877, 0.01796552538871765, 0.2020660936832428, 0.048191752284765244, 0.45461252331733704, -0.4941743314266205, -0.061736855655908585, 0.13285255432128906, -0.1280246078968048, 0.08768180012702942, -0.08367637544870377, -0.10135430097579956, -0.198931485414505, 0.21824577450752258, 0.0706067606806755, 0.056268371641635895, -0.296809583902359, -0.09555961936712265, 0.26923057436943054, 0.28514590859413147, -0.15348082780838013, 0.298128604888916, 0.027269704267382622, -0.232309490442276], [0.2307833880186081, -0.42753756046295166, -0.01656227558851242, -0.40287870168685913, 0.6094157099723816, 0.5118986964225769, -0.2277771234512329, -0.013234605081379414, 0.09492243081331253, -0.17364978790283203, 0.347667932510376, 0.4891895651817322, 0.5697940587997437, -0.22161997854709625, -0.26947763562202454, 0.39051827788352966, 0.19108708202838898, -0.5183259844779968, 0.30332157015800476, 0.07370999455451965, -0.11771689355373383, -0.48863017559051514, -0.3990110158920288, -0.2623584568500519, -0.07912476360797882, -0.21718907356262207, 0.003537917509675026, 0.027898143976926804, -0.19349779188632965, -0.037256475538015366, 0.019173653796315193, -0.387163907289505, -0.19922691583633423, -0.021317584440112114, 0.09228608012199402, 0.2006513774394989, -0.26808252930641174, 0.037813615053892136, 0.11394057422876358, -0.17952482402324677, -0.1348503977060318, 0.04163658246397972, 0.3105904161930084, 0.14098969101905823, -0.2897408604621887, -0.024669654667377472, -0.09690116345882416, 0.04197021573781967], [0.0054504224099218845, 0.22547508776187897, -0.08944323658943176, 0.44269323348999023, 0.303287535905838, -0.3567371964454651, 0.07021120935678482, 0.5338209867477417, 0.03245588019490242, -0.05560435727238655, -0.35698097944259644, 0.015558172017335892, -0.32587888836860657, 0.14021122455596924, 0.13956697285175323, -0.116925910115242, 0.12309206277132034, -0.04434831812977791, -0.0430523119866848, 0.029253965243697166, -0.05797188729047775, -0.3166693449020386, -0.06656211614608765, -0.23709945380687714, -0.3558795750141144, -0.023359989747405052, -0.22442512214183807, 0.44802549481391907, 0.05510076507925987, 0.4840115010738373, -0.4293856620788574, 0.11184101551771164, 0.24679464101791382, -0.31380459666252136, -0.11781255900859833, -0.28757521510124207, 0.19410531222820282, 0.006245078053325415, -0.14084748923778534, -0.27156490087509155, 0.2152886837720871, -0.3050747811794281, 0.1565634161233902, -0.3584386706352234, 0.14347216486930847, 0.1651529222726822, 0.013768652454018593, -0.13537798821926117], [-0.28289738297462463, 0.19389310479164124, -0.20214924216270447, 0.32242438197135925, -0.5653034448623657, -0.06100203096866608, 0.21379131078720093, 0.3360094428062439, -0.10483849048614502, -0.18013332784175873, -0.3119165599346161, -0.2582494020462036, -0.11521662026643753, 0.028559742495417595, 0.38021063804626465, 0.020112570375204086, 0.2666962146759033, 0.18984957039356232, 0.42355188727378845, -0.44974809885025024, -0.04048294574022293, 0.05395330488681793, 0.4543178379535675, 0.46495217084884644, -0.023432657122612, 0.3429631292819977, 0.4042045772075653, -0.3665294051170349, 0.04420451819896698, -0.508646547794342, 0.17473195493221283, -0.1325276643037796, -0.2088470458984375, -0.22230187058448792, 0.08969156444072723, 0.10793150216341019, 0.11497911065816879, 0.017785169184207916, 0.3020757734775543, 0.09701179713010788, 0.10686738044023514, -0.11065705120563507, -0.2518799602985382, 0.035224735736846924, -0.30923938751220703, 0.058883313089609146, 0.1752445250749588, -0.17209084331989288]], [[-0.012078085914254189, -0.1891983449459076, 0.012786460109055042, -0.4327876567840576, -0.09985574334859848, 0.28997570276260376, -0.39604851603507996, 0.010973484255373478, -0.27337607741355896, -0.05855540558695793, -0.03717384859919548, -0.08832810074090958, 0.10428846627473831, -0.21092891693115234, 0.02115005999803543, 0.10491059720516205, -0.1389670968055725, -0.12237996608018875, 0.04761968553066254, -0.07613267749547958, 0.06339830905199051, -0.22180165350437164, -0.09611280262470245, -0.1816648542881012, -0.1788203865289688, 0.024693507701158524, 0.07155965268611908, -0.010575159452855587, -0.1230628713965416, 0.009154437109827995, -0.2433791607618332, -0.11741530150175095, -0.07648997753858566, -0.061295513063669205, 0.2895776331424713, -0.24703648686408997, 0.0191901084035635, -0.2263859212398529, 0.03713259473443031, -0.017720861360430717, -0.17116142809391022, -0.025486323982477188, -0.0972520112991333, 0.16038379073143005, 0.1795206367969513, 0.1002049595117569, -0.00171277963090688, 0.10777774453163147], [0.02041498012840748, -0.3317578434944153, -0.34073978662490845, -0.47470781207084656, 0.11304741352796555, 0.18183541297912598, -0.4810855984687805, -0.39341962337493896, -0.4756990373134613, 0.22484388947486877, 0.39670729637145996, 0.1816946119070053, 0.3553609848022461, -0.5662203431129456, -0.3360239267349243, 0.3772074282169342, -0.2770153284072876, 0.10057716071605682, 0.004011067096143961, 0.003818295896053314, -0.02297699637711048, 0.2429116666316986, 0.06948259472846985, 0.16792067885398865, 0.14219504594802856, 0.11809679120779037, 0.2614697515964508, -0.19355779886245728, 0.35496729612350464, 0.09922735393047333, 0.042691126465797424, 0.1287183165550232, -0.12803936004638672, -0.07335333526134491, -0.07187089323997498, 0.3572021722793579, -0.1449773609638214, -0.07175340503454208, 0.2768709361553192, 0.06071104109287262, -0.04542636498808861, -0.11421314626932144, 0.03866424411535263, 0.022611001506447792, 0.12167972326278687, -0.07323814183473587, -0.18201924860477448, -0.10411005467176437], [0.3457924723625183, -0.2047904133796692, -0.20121429860591888, -0.19680620729923248, 0.24698597192764282, 0.4191593527793884, -0.17401355504989624, -0.2534354627132416, -0.13825872540473938, -0.18468892574310303, 0.014629486948251724, 0.26382946968078613, 0.24440746009349823, -0.309217631816864, -0.30927538871765137, 0.01219941210001707, -0.10765369236469269, -0.26221248507499695, -0.03148709237575531, 0.30311328172683716, -0.20079655945301056, -0.29395240545272827, 0.17964737117290497, 0.09100551903247833, -0.08050243556499481, -0.3337436318397522, -0.504006564617157, 0.33696842193603516, -0.09107828140258789, -0.3159474730491638, -0.01093799527734518, -0.07110610604286194, -0.11085961759090424, -0.2561377286911011, 0.04562888294458389, 0.0010074347956106067, -0.035097699612379074, 0.061282023787498474, 0.3477206230163574, -0.1683369129896164, -0.13006547093391418, -0.020178508013486862, -0.15668708086013794, 0.10486018657684326, 0.21906304359436035, 0.18007425963878632, -0.08204182982444763, -0.011111883446574211], [-0.22450385987758636, 0.3090617060661316, 0.33315587043762207, 0.07276603579521179, -0.22108818590641022, -0.23006069660186768, 0.29974329471588135, 0.037861842662096024, 0.07238224148750305, -0.3087705373764038, 0.10482453554868698, -0.3081468939781189, -0.2451799064874649, 0.3480548560619354, 0.21979203820228577, -0.2827278971672058, 0.19441984593868256, -0.06587710231542587, -0.047473132610321045, 0.0003097563167102635, 0.04474397748708725, 0.18903890252113342, 0.02674572356045246, 0.024792339652776718, 0.28026044368743896, -0.1383240818977356, 0.25050196051597595, -0.32106027007102966, 0.442766010761261, -0.2559296190738678, -0.07880497723817825, 0.17208455502986908, -0.12408630549907684, -0.008300738409161568, -0.15969158709049225, -0.11567918956279755, -0.24824704229831696, -0.1511627435684204, -0.20751872658729553, -0.1857423335313797, 0.011633791960775852, -0.07771826535463333, 0.06555245816707611, -0.3028172552585602, -0.049680449068546295, 0.04515298455953598, -0.19450831413269043, -0.08509551733732224], [-0.3495120108127594, 0.1864842027425766, 0.2739729881286621, 0.4600910544395447, -0.3917021155357361, -0.23447845876216888, 0.3363962769508362, 0.19720011949539185, 0.2607899010181427, 0.08084535598754883, -0.2349817305803299, -0.09380320459604263, -0.174783393740654, 0.47950899600982666, 0.14365336298942566, -0.23203150928020477, 0.2822231948375702, -0.24208663403987885, -0.21014435589313507, -0.36095041036605835, 0.3871944546699524, -0.1284283995628357, -0.11628928035497665, -0.3593207001686096, 0.07969578355550766, -0.04390930384397507, -0.27170097827911377, -0.1845170259475708, 0.014632091857492924, 0.13948237895965576, 0.05823655053973198, -0.01865210570394993, 0.32762131094932556, -0.14466910064220428, 0.31649234890937805, 0.3008546829223633, -0.10737641155719757, 0.31217822432518005, 0.07894885540008545, -0.24722495675086975, -0.00129478529561311, 0.07394088804721832, -0.03873346373438835, -0.34430745244026184, -0.24094247817993164, 0.21883489191532135, -0.18405961990356445, -0.07743112742900848], [-0.2692464590072632, 0.5611761212348938, 0.09951012581586838, 0.24678055942058563, -0.21057087182998657, -0.42930296063423157, 0.017442675307393074, 0.09279923141002655, 0.19460831582546234, -0.19959141314029694, -0.10904456675052643, -0.18382595479488373, -0.5816328525543213, 0.37734395265579224, 0.0438719317317009, -0.289571076631546, 0.17611004412174225, 0.2101765125989914, -0.16291067004203796, -0.18498142063617706, 0.19474495947360992, -0.40149345993995667, 0.17492052912712097, -0.10108117014169693, 0.24912266433238983, -0.21036306023597717, 0.14347168803215027, 0.009083354845643044, 0.008684412576258183, 0.15553401410579681, 0.03238460794091225, 0.03769984468817711, -0.023894265294075012, 0.013716625049710274, 0.09461416304111481, 0.2992517650127411, 0.1384863704442978, -0.05582839250564575, -0.10841505974531174, -0.027730951085686684, 0.19142144918441772, 0.18823717534542084, -0.23329922556877136, -0.1167912483215332, -0.16443784534931183, 0.1694163680076599, -0.22533497214317322, -0.1617681235074997], [-0.017187152057886124, -0.1894240826368332, -0.239336296916008, -0.17507527768611908, -0.011314000934362411, 0.16824202239513397, -0.4976361095905304, -0.2279415875673294, -0.23787806928157806, -0.29681262373924255, 0.0933457538485527, 0.11360379308462143, 0.3241232633590698, -0.17406904697418213, -0.26641491055488586, 0.41786617040634155, -0.2811380922794342, -0.1460529863834381, 0.11924831569194794, -0.1408742219209671, -0.3570176661014557, -0.04530388116836548, -0.05451871082186699, 0.29646947979927063, -0.10213271528482437, 0.04288177937269211, 0.0020035842899233103, -0.22591063380241394, 0.039198849350214005, -0.3645132780075073, 0.25722751021385193, -0.16057056188583374, 0.05385883152484894, 0.049497075378894806, -0.12188205122947693, 0.09235327690839767, -0.21593089401721954, 0.005950057413429022, -0.1416669487953186, -0.04939097538590431, 0.0354275219142437, 0.0347839780151844, -0.18389271199703217, -0.0026606032624840736, -0.04144921526312828, -0.19953612983226776, 0.08993809670209885, 0.18974432349205017], [0.42245951294898987, 0.04674661532044411, -0.11156786233186722, -0.27317869663238525, -0.0022853962145745754, 0.010022036731243134, -0.40299129486083984, -0.18109484016895294, -0.11399195343255997, 0.3906605839729309, 0.17376869916915894, 0.07932345569133759, 0.2042885273694992, -0.04414809122681618, -0.041340380907058716, 0.0691881999373436, 0.058342646807432175, 0.011322038248181343, 0.27369657158851624, -0.14461448788642883, 0.29406628012657166, 0.2960841655731201, 0.07996933162212372, 0.2145066261291504, 0.0422884002327919, 0.04819915071129799, 0.2544346749782562, -0.14659000933170319, 0.5036371946334839, -0.1865895837545395, 0.05999660864472389, -0.1055041179060936, -0.02423255890607834, 0.06743153929710388, -0.2945489287376404, 0.03411002457141876, 0.24019622802734375, -0.05144821107387543, -0.039262186735868454, -0.10367007553577423, 0.250629723072052, 0.025925926864147186, 0.029144538566470146, -0.26249322295188904, 0.12644341588020325, 0.02164466492831707, -0.09639498591423035, -0.038681965321302414], [-0.29496848583221436, 0.09216997772455215, 0.27574315667152405, 0.35009491443634033, -0.06562096625566483, -0.6385505795478821, 0.2477961778640747, 0.4741801917552948, 0.08357110619544983, -0.03281336650252342, -0.04571716859936714, -0.18057598173618317, -0.3089025318622589, 0.34842267632484436, 0.2794862389564514, -0.44081687927246094, 0.3622841536998749, 0.09490598738193512, -0.5514702796936035, -0.17489318549633026, -0.12722961604595184, -0.25372856855392456, -0.11003117263317108, 0.046291135251522064, 0.11799480020999908, 0.04845311865210533, -0.2632136046886444, 0.053988415747880936, -0.04533778131008148, 0.26608654856681824, -0.14604826271533966, -0.0723898634314537, 0.09785261005163193, -0.03317670151591301, -0.1137053444981575, -0.20181185007095337, 0.05303972586989403, 0.24157600104808807, 0.1598055213689804, -0.2224731296300888, -0.008801284246146679, -0.07497243583202362, -0.1983499974012375, 0.08481541275978088, -0.19113211333751678, 0.11633051186800003, 0.11447199434041977, -0.1564507782459259], [-0.28418421745300293, 0.2142127901315689, 0.13796529173851013, 0.3842925727367401, -0.07597881555557251, -0.16249972581863403, 0.1393664926290512, 0.39347681403160095, 0.23908385634422302, 0.0565178245306015, 0.06742377579212189, -0.20436888933181763, -0.40747350454330444, 0.2734476327896118, 0.5385297536849976, -0.3287813365459442, 0.40503913164138794, 0.05872056633234024, -0.2556561827659607, -0.11871091276407242, 0.20813186466693878, -0.016245519742369652, -0.0783151388168335, 0.0640382319688797, 0.28074491024017334, -0.09935031831264496, -0.14980745315551758, -0.25892406702041626, -0.10483726114034653, 0.015029349364340305, 0.3404923975467682, 0.3962303400039673, -0.24700693786144257, -0.09201202541589737, 0.12313903868198395, 0.09500078856945038, 0.09828462451696396, 0.3087306618690491, -0.1904238760471344, 0.06557483971118927, 0.37050551176071167, 0.26173868775367737, -0.23359796404838562, -0.20072345435619354, -0.0729588121175766, 0.13670995831489563, -0.3023921549320221, 0.10044530034065247], [-0.05316510796546936, -0.13481351733207703, -0.19367088377475739, -0.30269700288772583, 0.31989586353302, 0.35418590903282166, -0.38107943534851074, -0.10754597932100296, -0.10939987003803253, -0.07147141546010971, 0.05189623683691025, 0.22999387979507446, 0.039812810719013214, -0.32646816968917847, -0.4153871536254883, 0.3079703748226166, 0.07055982947349548, 0.039543312042951584, 0.08142124861478806, 0.20245549082756042, -0.006646369583904743, 0.0007237686077132821, 0.026425961405038834, -0.09285589307546616, -0.12895970046520233, 0.10443368554115295, -0.3486659526824951, 0.07965628802776337, -0.03970005363225937, -0.29128557443618774, -0.07425229251384735, 0.154422327876091, 0.28337976336479187, 0.44903430342674255, -0.01716325432062149, -0.17964498698711395, 0.02486485242843628, -0.1934041678905487, 0.20350345969200134, 0.18354634940624237, -0.0103295324370265, -0.2582559287548065, 0.22694844007492065, -0.020375387743115425, 0.16852541267871857, 0.0013997402274981141, 0.19137588143348694, -0.05571487918496132], [0.6156808733940125, -0.4682515263557434, -0.056252527981996536, -0.42070698738098145, 0.22730650007724762, 0.33669960498809814, -0.22235053777694702, -0.2678770124912262, -0.1520058512687683, 0.1595780849456787, 0.1195150688290596, 0.2883243262767792, 0.22588293254375458, -0.31695327162742615, -0.27628442645072937, 0.1440555304288864, -0.14622387290000916, 0.18357816338539124, 0.11738356202840805, -0.18014715611934662, -0.0660398080945015, -0.2135487049818039, -0.14272797107696533, 0.1699903905391693, -0.05666675418615341, 0.12459653615951538, 0.06498841941356659, -0.02056974731385708, 0.27220627665519714, -0.1028217226266861, 0.24870145320892334, 0.19578932225704193, -0.038759298622608185, 0.03580395132303238, 0.006226088386029005, -0.04955274239182472, -0.37993764877319336, -0.32941704988479614, 0.026730649173259735, 0.063975028693676, 0.14907503128051758, -0.2611868381500244, 0.06774965673685074, 0.2421673685312271, 0.09961912781000137, -0.3140925467014313, -0.04576054960489273, 0.04754234477877617], [-0.2197742909193039, -0.07903017848730087, -0.04332655295729637, 0.600258469581604, -0.14648352563381195, -0.24763932824134827, 0.23971448838710785, 0.1974756270647049, 0.20381702482700348, 0.02325531281530857, -0.2596181333065033, -0.3754539489746094, -0.2993689477443695, -0.10898929834365845, 0.22902552783489227, -0.14184483885765076, -0.20551660656929016, -0.17526477575302124, -0.4528694748878479, -0.3941877484321594, 0.18201689422130585, -0.0746176540851593, 0.003747851587831974, -0.17082203924655914, -0.34991180896759033, -0.48473623394966125, -0.2158573567867279, 0.19843026995658875, -0.18431861698627472, 0.1956324577331543, -0.29038774967193604, -0.15559856593608856, 0.15233062207698822, -0.0027042028959840536, -0.07246561348438263, -0.25154098868370056, 0.05042470246553421, -0.16556578874588013, 0.18981584906578064, 0.19153787195682526, 0.009104810655117035, 0.14632165431976318, -0.01450998242944479, -0.0828852429986, -0.2770192325115204, 0.1569540649652481, -0.12626531720161438, -0.12355748564004898], [0.288908451795578, -0.015995830297470093, -0.09168433398008347, -0.15942564606666565, -0.020121971145272255, -0.032824501395225525, 0.14141763746738434, 0.027126677334308624, -0.005422472953796387, -0.38276544213294983, -0.17692558467388153, -0.10279615223407745, -0.15931572020053864, 0.3062264621257782, 0.050274159759283066, 0.15575283765792847, -0.057882215827703476, 0.08443654328584671, 0.0892864316701889, 0.11767688393592834, 0.2944309413433075, 0.18843044340610504, -0.04348094016313553, 0.11839889734983444, 0.02053229883313179, 0.11166947335004807, 0.23474137485027313, -0.2785148024559021, -0.0008676666766405106, 0.24944692850112915, 0.23737075924873352, 0.16370870172977448, 0.029025936499238014, -0.006478672847151756, -0.1833212971687317, 0.25909224152565, -0.011109665967524052, 0.039818257093429565, 0.06722813844680786, 0.15090158581733704, -0.008877120912075043, -0.22856736183166504, -0.14494957029819489, -0.13025857508182526, 0.03210045024752617, 0.12175939232110977, 0.17592790722846985, -0.2960067093372345], [0.2689249813556671, -0.10177022218704224, -0.3042890429496765, -0.04114237800240517, -0.5952234268188477, 0.3123549818992615, -0.33203843235969543, -0.0168610867112875, 0.10622503608465195, 0.16563330590724945, 0.3179207742214203, 0.3705964684486389, -0.11788255721330643, 0.06067977473139763, -0.22284634411334991, 0.12929163873195648, -0.08840624988079071, 0.006251332815736532, 0.13954825699329376, 0.10418780148029327, 0.15313932299613953, 0.12400636821985245, -0.2014533132314682, 0.03802308440208435, 0.11452291160821915, -0.1268380582332611, 0.10975933074951172, -0.18199796974658966, 0.11440057307481766, 0.04568609222769737, -0.14592023193836212, 0.054278403520584106, -0.22174106538295746, 0.13204710185527802, -0.15177585184574127, -0.06416711956262589, -0.14955869317054749, -0.0925508439540863, -0.014291035011410713, -0.14204931259155273, -0.08600102365016937, 0.14809665083885193, -0.0315885916352272, 0.013220930472016335, 0.08304469287395477, -0.12749157845973969, 0.04220467433333397, -0.3104088008403778], [0.12232702225446701, -0.1973908692598343, -0.03522131219506264, -0.12379439175128937, 0.5584399700164795, 0.33645686507225037, -0.134085014462471, -0.0991714671254158, -0.30699265003204346, -0.16254648566246033, 0.2018081694841385, 0.35710060596466064, 0.26338815689086914, -0.016614189371466637, -0.22698141634464264, 0.5587670207023621, -0.32111963629722595, -0.24318638443946838, -0.05383707955479622, 0.2656799554824829, 0.19067831337451935, -0.23106509447097778, -0.12253649532794952, 0.10731536895036697, -0.146798774600029, -0.18444356322288513, -0.03587602823972702, 0.2453458160161972, -0.0986984372138977, 0.02847973443567753, -0.14078165590763092, -0.3148028552532196, -0.08529141545295715, -0.09156227111816406, 0.2712973654270172, -0.06272497028112411, -0.14005984365940094, -0.14103367924690247, 0.0024406148586422205, 0.02805376797914505, 0.1782577782869339, -0.306607723236084, -0.01756792515516281, 0.10491509735584259, 0.06716921925544739, -0.157150536775589, 0.23185236752033234, -0.11149889975786209]], [[-0.06789689511060715, 0.010002327151596546, 0.029708242043852806, -0.02552788145840168, 0.02333582565188408, -0.049796123057603836, -0.004084050189703703, -0.002433254849165678, 0.01643935590982437, 0.11022182554006577, -0.06885542720556259, -0.02681739255785942, -0.0077470350079238415, -0.05156519263982773, 0.023351863026618958, -0.08978100121021271, -0.013455523177981377, 0.11161958426237106, -0.05371427908539772, 0.03552400320768356, 0.04285462945699692, -0.051626056432724, 0.04794725403189659, -0.04882155358791351, 0.029299812391400337, 0.1314682960510254, -0.018908308818936348, 0.01181519590318203, -0.0697028636932373, 0.08509909361600876, 0.019867204129695892, -0.03776546195149422, 0.0375235490500927, -0.025704290717840195, -0.00990507286041975, 0.0034607730340212584, -0.024815736338496208, -0.010031837970018387, -0.006527221295982599, -0.008411192335188389, 0.015088793821632862, 0.007272845599800348, 0.012075922451913357, 0.03481811285018921, -0.002577544655650854, -0.003983878530561924, -0.0005651228129863739, 0.0067830211482942104], [-0.06789689511060715, 0.010002327151596546, 0.029708242043852806, -0.02552788145840168, 0.02333582565188408, -0.049796123057603836, -0.004084050189703703, -0.002433254849165678, 0.01643935590982437, 0.11022182554006577, -0.06885542720556259, -0.02681739255785942, -0.0077470350079238415, -0.05156519263982773, 0.023351863026618958, -0.08978100121021271, -0.013455523177981377, 0.11161958426237106, -0.05371427908539772, 0.03552400320768356, 0.04285462945699692, -0.051626056432724, 0.04794725403189659, -0.04882155358791351, 0.029299812391400337, 0.1314682960510254, -0.018908308818936348, 0.01181519590318203, -0.0697028636932373, 0.08509909361600876, 0.019867204129695892, -0.03776546195149422, 0.04466812685132027, -0.028113652020692825, -0.004242909140884876, -0.019357524812221527, -0.004611546639353037, -0.004774009343236685, -0.0010047884425148368, -0.005683100316673517, 0.014896132051944733, 0.004269633442163467, 0.013063432648777962, 0.0337320938706398, -0.006118637975305319, -0.005834830924868584, 0.006839189678430557, 0.006250654347240925]]]}, {"type": "dense", "shape": [null, null, 1], "weights": [[[-0.12206064909696579], [-0.15236318111419678], [0.33989429473876953], [-0.1286756694316864], [-0.27379170060157776], [0.3564486503601074], [-0.2335507720708847], [-0.4100300669670105], [0.15660381317138672], [-0.02754274196922779], [-0.11240254342556], [0.6101925373077393], [-0.6607027053833008], [-0.3410499691963196], [-0.5517986416816711], [-0.47462472319602966]], [-0.0066617876291275024]]}]}