{"in_shape": [null, null, 2], "layers": [{"type": "time-distributed-dense", "shape": [null, null, 8], "weights": [[[0.6400743722915649, 0.34591686725616455, -0.2723821699619293, 0.5714816451072693, -0.4502910077571869, -0.05822093039751053, 0.5902771353721619, -0.285247802734375], [0.7494631409645081, -0.14950045943260193, -0.6214126944541931, 0.16391529142856598, -0.22812141478061676, 0.10672158747911453, -0.1581265777349472, 0.18130925297737122]], [0.0002684117353055626, -9.298232907894999e-05, -0.0020308163948357105, 0.00024418707471340895, -0.0005164803587831557, -0.0005436858627945185, 7.804794586263597e-05, 0.0010003461502492428]]}, {"type": "gru", "shape": [null, null, 16], "weights": [[[0.22565250098705292, 0.004474482499063015, 0.20927521586418152, 0.08899426460266113, 0.295337975025177, -0.10052922368049622, 0.3086288869380951, -0.008674545213580132, 0.31691884994506836, -0.22023934125900269, 0.11459437012672424, 0.17737899720668793, 0.18735522031784058, -0.005546355154365301, -0.27231714129447937, 0.3113687336444855, -0.27693286538124084, -0.07078474014997482, 0.142795592546463, -0.24295711517333984, 0.09301827102899551, 0.13322703540325165, -0.2103186845779419, 0.15795129537582397, -0.12729130685329437, -0.04426797479391098, 0.23412057757377625, -0.05713552236557007, -0.23031367361545563, -0.29841557145118713, 0.23915080726146698, 0.2872244715690613, 0.07938557118177414, 0.05374414101243019, -0.2595798373222351, -0.16948194801807404, -0.15410657227039337, 0.21846862137317657, 0.28549736738204956, 0.23891682922840118, 0.027086034417152405, 0.03173500671982765, 0.09914036840200424, 0.1610204577445984, -0.18715552985668182, 0.07357528805732727, 0.1991400569677353, 0.19613295793533325], [0.29842546582221985, 0.05291957035660744, 0.18631570041179657, 0.10166127234697342, 0.03713667392730713, -0.20478937029838562, 0.22499853372573853, -0.007560507860034704, -0.3246837854385376, -0.07531813532114029, -0.32101747393608093, 0.2872354984283447, 0.2720283269882202, -0.25402259826660156, -0.1508207768201828, -0.15582692623138428, 0.2591567933559418, 0.2485751360654831, 0.25525668263435364, -0.07012549042701721, 0.24584612250328064, -0.11804681271314621, 0.32821348309516907, -0.06316065788269043, 0.28499162197113037, -0.09968962520360947, -0.07029647380113602, -0.05065308138728142, -0.03272980451583862, -0.03763318434357643, -0.2728688418865204, 0.06051930785179138, -0.30766794085502625, 0.2461998462677002, 0.2616598308086395, -0.1433452069759369, 0.0906561091542244, 0.27494534850120544, -0.2845248281955719, 0.31502965092658997, 0.16984887421131134, -0.1342047154903412, 0.005554643925279379, 0.01657702960073948, 0.2543780505657196, 0.18955190479755402, -0.08272407948970795, 0.32771557569503784], [-0.1979648768901825, -0.28878816962242126, -0.3203561305999756, 0.2996428608894348, 0.1797402799129486, -0.27568888664245605, -0.09145884215831757, 0.1097600907087326, -0.3183899223804474, 0.19774162769317627, 0.2168424278497696, -0.03975243866443634, -0.11752509325742722, -0.1445654332637787, -0.19853174686431885, 0.27193495631217957, -0.2629244923591614, -0.11993817239999771, -0.2037513554096222, 0.3176315128803253, -0.15875717997550964, -0.13823910057544708, -0.0923721194267273, -0.25324782729148865, -0.16607651114463806, -0.32160335779190063, 0.30248191952705383, 0.1309385746717453, -0.07332923263311386, -0.11005200445652008, -0.1466236263513565, 0.22815346717834473, 0.05558553338050842, -0.0017754650907590985, -0.20668739080429077, 0.27629604935646057, 0.028144147247076035, 0.04811323806643486, 0.1878383755683899, 0.3046208918094635, 0.10419031977653503, 0.046569958329200745, -0.1880721002817154, 0.17470060288906097, 0.1750289797782898, 0.030232712626457214, -0.21146103739738464, 0.08557482063770294], [-0.0827484130859375, -0.14792267978191376, 0.32921454310417175, -0.008210676722228527, 0.16874030232429504, -0.1901046186685562, -0.18565627932548523, -0.31001266837120056, -0.25117141008377075, -0.19431176781654358, 0.30589061975479126, 0.3199685513973236, -0.14875458180904388, -0.29655444622039795, -0.034455422312021255, 0.1549217849969864, 0.04369911551475525, 0.259550005197525, -0.3082659840583801, -0.21821565926074982, -0.319146990776062, 0.05153129994869232, 0.03352637216448784, 0.06553544104099274, 0.13695144653320312, -0.26935186982154846, 0.26173990964889526, -0.15495802462100983, 0.28330057859420776, 0.22089922428131104, -0.01563544012606144, -0.04696344584226608, -0.19632355868816376, 0.09684442728757858, 0.242603600025177, 0.02601519413292408, 0.1184707060456276, 0.13556616008281708, -0.31185662746429443, -0.11309785395860672, 0.16494660079479218, -0.17726224660873413, -0.11284387111663818, -0.305463045835495, 0.2770466208457947, 0.04877360537648201, 0.08034443110227585, -0.18380963802337646], [-0.005106271244585514, 0.02103453315794468, 0.30439993739128113, -0.07631051540374756, 0.1082628071308136, 0.11411267518997192, 0.04096132144331932, -0.1523848921060562, 0.16256819665431976, -0.13518847525119781, -0.009815149009227753, -0.29042914509773254, 0.2910771667957306, -0.22485417127609253, 0.13579225540161133, 0.025421317666769028, 0.08228372037410736, 0.10939262807369232, 0.2574063837528229, 0.19425520300865173, -0.026832953095436096, -0.09596911072731018, -0.3039900064468384, -0.1614793837070465, 0.14320409297943115, -0.06861031800508499, 0.2167530208826065, 0.3289188742637634, -0.025462612509727478, -0.21275660395622253, -0.15549954771995544, -0.30352699756622314, 0.2468404918909073, 0.10689245909452438, -0.3113557994365692, 0.20676763355731964, -0.23400911688804626, -0.19304026663303375, -0.04498004540801048, 0.3096059560775757, -0.15732049942016602, 0.28575095534324646, -0.020890334621071815, 0.1666012555360794, 0.10717741400003433, 0.11382869631052017, 0.07984023541212082, 0.12175294011831284], [-0.24243424832820892, -0.14627814292907715, -0.11808919906616211, -0.1349480301141739, 0.019080758094787598, 0.14650852978229523, 0.15644297003746033, 0.28283533453941345, 0.1697578728199005, -0.08435416221618652, -0.24409730732440948, -0.2915136516094208, 0.22410538792610168, -0.12239944189786911, -0.025250403210520744, 0.2312503308057785, 0.20145092904567719, 0.224989652633667, 0.09065688401460648, -0.19576354324817657, -0.1551370620727539, -0.08349962532520294, 0.17967484891414642, 0.1930098980665207, 0.32194003462791443, -0.030933843925595284, 0.31571316719055176, -0.3175925612449646, 0.20149637758731842, -0.10645299404859543, 0.23313550651073456, -0.24262848496437073, -0.09826389700174332, -0.22221426665782928, -0.07460374385118484, -0.13938452303409576, -0.2802507281303406, 0.11457386612892151, 0.3183579444885254, -0.0008077351958490908, 0.26184573769569397, 0.265826553106308, -0.27603036165237427, 0.325715035200119, 0.2602640688419342, -0.2970438301563263, 0.3175122141838074, 0.2579152286052704], [0.0795825719833374, 0.015859263017773628, 0.046168193221092224, -0.05074853077530861, 0.20511001348495483, 0.23627036809921265, -0.18687911331653595, -0.19669194519519806, 0.004586645867675543, -0.21603241562843323, 0.1139734610915184, -0.30194398760795593, -0.12056593596935272, 0.32980814576148987, 0.05523396655917168, 0.18040092289447784, -0.09470871090888977, -0.1595202386379242, 0.24961377680301666, 0.17791441082954407, 0.004379142541438341, 0.31304556131362915, -0.2779739201068878, -0.14836415648460388, 0.04974350705742836, -0.046758659183979034, -0.27392035722732544, -0.2975219190120697, -0.10507716983556747, -0.15498238801956177, 0.04559030756354332, 0.06302408128976822, -0.10334096103906631, 0.22497618198394775, 0.20389814674854279, -0.3043126165866852, -0.17076367139816284, 0.22172290086746216, 0.24984505772590637, -0.032630350440740585, -0.16158348321914673, -0.26833322644233704, 0.25152623653411865, -0.0634111538529396, 0.2710258960723877, 0.09893052279949188, 0.07693695276975632, 0.06818803399801254], [-0.2953135073184967, -0.13140566647052765, -0.10650619864463806, 0.10558691620826721, -0.12912996113300323, -0.2420009821653366, 0.14103594422340393, 0.18322321772575378, 0.31210413575172424, -0.004675085190683603, 0.26410973072052, 0.12224441766738892, -0.22689548134803772, -0.0014822212979197502, -0.007771410513669252, -0.11934245377779007, -0.12984105944633484, 0.07222937047481537, -0.04483863711357117, 0.20857098698616028, -0.014470654539763927, 0.10618947446346283, -0.19714957475662231, 0.2907809019088745, 0.1554606705904007, -0.03743802383542061, -0.3100452721118927, -0.14914996922016144, 0.2034534066915512, -0.19289466738700867, 0.00045633179252035916, 0.1065758690237999, 0.13045376539230347, 0.32185864448547363, -0.24117249250411987, -0.22432686388492584, -0.16926166415214539, 0.3148786425590515, 0.014683123677968979, 0.005619686096906662, 0.19077517092227936, 0.1649765819311142, -0.26956555247306824, 0.15864861011505127, 0.2979069948196411, 0.20510424673557281, -0.2684755325317383, 0.08466732501983643]], [[-0.2670705318450928, -0.12050601094961166, -0.15509894490242004, 0.02917969599366188, 0.0077833873219788074, 0.06815578043460846, -0.07042323797941208, 0.07826217263936996, -0.12083512544631958, 0.11563755571842194, -0.23686259984970093, 0.2024170160293579, -0.07194123417139053, 0.038790807127952576, -0.09247352927923203, 0.01365848071873188, -0.15970881283283234, 0.3271557092666626, -0.2095358669757843, -0.02927606739103794, 0.1133587434887886, 0.12032254040241241, -0.04317912086844444, -0.0839446410536766, -0.0972585678100586, -0.2379811555147171, 0.021104268729686737, -0.0065582008101046085, 0.23789110779762268, 0.07878827303647995, 0.1588403731584549, -0.005446782801300287, -0.08994750678539276, 0.12607547640800476, 0.05084804445505142, -0.1172771006822586, -0.256069153547287, -0.14686332643032074, -0.08724610507488251, -0.30845528841018677, 0.1844264417886734, -0.010906861163675785, -0.14892825484275818, -0.048191580921411514, -0.20517997443675995, 0.11674335598945618, 0.1443524956703186, -0.002736753085628152], [0.11222240328788757, -0.22589513659477234, 0.002515029162168503, 0.014532338827848434, -0.32714900374412537, -0.12077008932828903, 0.20442330837249756, 0.16114717721939087, 0.13328668475151062, 0.1469794064760208, -0.0123966746032238, 0.13231022655963898, 0.14646296203136444, 0.3061729371547699, 0.2786611318588257, 0.025754602625966072, 0.008771229535341263, 0.11001739650964737, -0.04103749990463257, 0.009306810796260834, 0.06736969947814941, -0.18053501844406128, -0.013059006072580814, 0.004764478653669357, 0.07342652976512909, 0.12015744298696518, -0.09981191158294678, -0.00043325190199539065, -0.11109711974859238, -0.013027326203882694, -0.25428032875061035, -0.006309126503765583, 0.1315169781446457, -0.01100884284824133, 0.09874314069747925, -0.023481542244553566, -0.018230775371193886, -0.20582357048988342, -0.2358124852180481, -0.04782217741012573, -0.03568599373102188, -0.2867822051048279, -0.0482209287583828, 0.09119603037834167, 0.11874356865882874, 0.031476832926273346, 0.30337008833885193, 0.10050899535417557], [0.07898613065481186, 0.26686421036720276, -0.33894777297973633, -0.03289669379591942, -0.019608497619628906, -0.08701524883508682, 0.18094570934772491, 0.19780008494853973, 0.041968658566474915, 0.12531253695487976, -0.25548961758613586, -0.11387575417757034, -0.15309473872184753, -0.16477881371974945, 0.008727321401238441, -0.11068695783615112, 0.010825729928910732, 0.011015870608389378, -0.10988982766866684, 0.013766588643193245, -0.2401885837316513, -0.0019702748395502567, -0.09757924824953079, -0.062160514295101166, -0.15775951743125916, 0.03994450345635414, -0.028055353090167046, 0.24267466366291046, 0.04607691988348961, -0.04297974705696106, -0.09184455126523972, 0.03191209211945534, 0.40987199544906616, 0.011937680654227734, 0.15364763140678406, 0.040111009031534195, 0.0376330204308033, -0.008504718542098999, 0.04111224040389061, -0.233402818441391, -0.08260650187730789, 0.21047483384609222, 0.11860673129558563, -0.011056308634579182, 0.06867500394582748, -0.11635477840900421, -0.03746570274233818, 0.185512512922287], [0.0008330970304086804, 0.08189158886671066, -0.024442462250590324, 0.04190102219581604, 0.19986756145954132, 0.13288433849811554, 0.29023194313049316, -0.036906201392412186, 0.1469028741121292, 0.1711955964565277, -0.022648412734270096, 0.18639852106571198, 0.10605745762586594, -0.1727820485830307, 0.04209917038679123, 0.04234883561730385, 0.05296832695603371, -0.0008085544686764479, 0.11226347088813782, 0.17035439610481262, 0.1655765175819397, -0.15475641191005707, 0.16232171654701233, -0.1074562817811966, 0.04603971168398857, -0.03902304545044899, -0.09421388059854507, 0.1941705048084259, 0.10800652951002121, -0.12642931938171387, 0.09820614755153656, -0.066044881939888, 0.0769776776432991, 0.0724877193570137, -0.2455640733242035, 0.13592369854450226, -0.3722876310348511, -0.0385892353951931, 0.07499866187572479, 0.14742061495780945, 0.1489417850971222, 0.09038104116916656, 0.2134079486131668, 0.01707463152706623, 0.23358161747455597, 0.02478472702205181, 0.18240702152252197, -0.2850428819656372], [0.16285954415798187, -0.034423455595970154, -0.0906006321310997, 0.47676175832748413, -0.039013974368572235, 0.13305462896823883, -0.0031891721300780773, 0.0005092760547995567, -0.06193089112639427, -0.08181090652942657, 0.0740053579211235, -0.2486257702112198, -0.0021149665117263794, 0.1422078162431717, -0.08724424242973328, -0.05679432302713394, 0.06506386399269104, -0.04635786637663841, -0.014510629698634148, 0.1415143758058548, -0.04176029562950134, -0.013647355139255524, -0.13155363500118256, -0.21411512792110443, 0.069636270403862, -0.00797981396317482, 0.05522098392248154, 0.09329826384782791, 0.11754275858402252, 0.07551375776529312, 0.04026496037840843, 0.03932233527302742, 0.07591768354177475, -0.03370149806141853, 0.04079465940594673, -0.19980168342590332, -0.013995625078678131, 0.22716279327869415, -0.2629685699939728, 0.01692287065088749, -0.09340536594390869, 0.004487656522542238, -0.1671147495508194, -0.4047958552837372, 0.09687782824039459, -0.06472206860780716, 0.17365194857120514, -0.2706068754196167], [0.07256394624710083, -0.01864517666399479, -0.01675058901309967, -0.007816264405846596, 0.040003638714551926, 0.3909284472465515, -0.06404413282871246, 0.040519412606954575, 0.167796790599823, 0.1655796766281128, 0.059809423983097076, -0.14314104616641998, -0.22515542805194855, 0.285153329372406, 0.10600583255290985, -0.08025533705949783, -0.12777456641197205, -0.2288823425769806, 0.04532594978809357, -0.013756767846643925, 0.03768259286880493, 0.17809604108333588, 0.12387995421886444, 0.08275559544563293, -0.03249600902199745, -0.16548895835876465, -0.08310813456773758, 0.12676259875297546, 0.02043779566884041, -0.1055014505982399, -0.22005687654018402, 0.11050886660814285, -0.10468284785747528, -0.30311787128448486, -0.051839567720890045, -0.13650712370872498, -0.1710614264011383, 0.04406650364398956, 0.13839268684387207, -0.1513410359621048, 0.17641042172908783, -0.15874521434307098, 0.0653189942240715, 0.045613136142492294, -0.07369836419820786, -0.30498671531677246, -0.0499206967651844, 0.07049673795700073], [0.14136548340320587, -0.17708130180835724, -0.19905699789524078, 0.0072768814861774445, 0.12566766142845154, -0.16841936111450195, 0.027138955891132355, 0.28855830430984497, 0.05383291095495224, -0.16065415740013123, 0.19325610995292664, -0.09969551861286163, -0.29021716117858887, -0.09666856378316879, 0.16933573782444, 0.20494072139263153, -0.22388415038585663, -0.017741087824106216, -0.07838428765535355, -0.17829732596874237, 0.19017082452774048, 0.032231856137514114, -0.08130229264497757, 0.11412349343299866, 0.08057858049869537, -0.11883674561977386, -0.12363491207361221, -0.043410830199718475, -0.21784520149230957, 0.01092440914362669, 0.2561686635017395, 0.09047058969736099, 0.024503998458385468, 0.2054705023765564, -0.19600611925125122, 0.08079449832439423, -0.03729299083352089, 0.06439264118671417, 0.07378852367401123, -0.14384689927101135, -0.2174982726573944, -0.09660862386226654, -0.04255024343729019, 0.030032822862267494, 0.0654696524143219, -0.14950929582118988, 0.043121445924043655, -0.16329684853553772], [0.046288929879665375, 0.07308440655469894, 0.26765990257263184, 0.16552875936031342, -0.00926139671355486, -0.18977060914039612, -0.05012223869562149, -0.004717275500297546, -0.1765490621328354, 0.09641300141811371, 0.3712826371192932, -0.11626680940389633, -0.13241185247898102, 0.03214269131422043, -0.06588243693113327, -0.1735859215259552, -0.0617968812584877, 0.19485200941562653, 0.12986823916435242, -0.12665191292762756, 0.06678342819213867, -0.05821741744875908, 0.09540366381406784, 0.013589137233793736, -0.09850388020277023, -0.24009642004966736, -0.03208424150943756, 0.017806243151426315, 0.09767326712608337, 0.018536239862442017, -0.148268923163414, -0.06417492032051086, 0.04614768922328949, -0.07186365127563477, -0.13476045429706573, -0.17574955523014069, -0.12274350225925446, -0.10186874121427536, 0.008281269110739231, -0.17133226990699768, -0.16274864971637726, 0.29672718048095703, 0.02952899970114231, 0.1764950007200241, 0.2985256016254425, 0.21906428039073944, 0.02950594201683998, 0.1539294719696045], [-0.11526715010404587, -0.11595843732357025, -0.08933593332767487, 0.035954322665929794, 0.0129967937245965, -0.38330358266830444, -0.09455801546573639, -0.21284949779510498, -0.04592137038707733, 0.17650216817855835, -0.06651967018842697, -0.06078606843948364, 0.013003488071262836, 0.058523669838905334, -0.14002341032028198, -0.05644720420241356, -0.30544689297676086, -0.15959352254867554, 0.3152012228965759, 0.11004329472780228, 0.01867748238146305, 0.05555914714932442, 0.21547387540340424, -0.1268608421087265, -0.056669123470783234, 0.17350825667381287, -0.09022673964500427, -0.06834181398153305, 0.007289898116141558, 0.043869100511074066, -0.04684969037771225, 0.042145319283008575, 0.09904345870018005, 0.055364713072776794, 0.06521569937467575, 0.11590521037578583, -0.15459604561328888, -0.05014760419726372, -0.16728425025939941, 0.015978367999196053, -0.009619527496397495, 0.1033717468380928, -0.2516014873981476, 0.1668938249349594, -0.07880716770887375, -0.3569510281085968, -0.056807998567819595, -0.138235405087471], [0.2390640676021576, -0.22530601918697357, 0.006438407581299543, -0.16876773536205292, 0.024113059043884277, -0.0930226668715477, 0.1724170595407486, -0.1864902526140213, 0.058620452880859375, 0.3419160544872284, 0.02924049273133278, 0.0992402508854866, -0.0159046221524477, -0.008829442784190178, -0.1067846417427063, -0.046052660793066025, 0.06899233162403107, 0.11871510744094849, 0.01615864224731922, -0.01962154358625412, -0.05368233099579811, 0.05489696189761162, 0.1488461196422577, 0.004261489491909742, 0.1886778026819229, -0.012694903649389744, -0.028249382972717285, 0.14953626692295074, -0.048723261803388596, -0.09502357989549637, -0.13969486951828003, 0.06524818390607834, -0.2187868356704712, 0.2097042202949524, -0.10720653831958771, -0.014555669389665127, 0.1681470423936844, 0.08038753271102905, -0.14418663084506989, -0.29950401186943054, -0.13548743724822998, 0.0809512585401535, 0.15135230123996735, -0.31536874175071716, -0.14512276649475098, 0.061823341995477676, -0.2637132406234741, -0.10054746270179749], [-0.05959847941994667, -0.11199158430099487, 0.04756138101220131, -0.15438511967658997, 0.007879693061113358, 0.034507155418395996, 0.03520156443119049, 0.1958145797252655, -0.3141946494579315, 0.12876540422439575, -0.004841086454689503, -0.03037506714463234, 0.19317074120044708, -0.026684092357754707, 0.14356008172035217, -0.08792810887098312, 0.09744369238615036, 0.03503694757819176, -0.10315648466348648, -0.05881018191576004, 0.16214410960674286, 0.2659434378147125, -0.16305339336395264, -0.22534455358982086, -0.0754481703042984, 0.3347500264644623, -0.27009502053260803, -0.12713521718978882, 0.0032477346248924732, 0.10381527990102768, 0.038286805152893066, -0.22223037481307983, -0.04017844796180725, -0.267608106136322, -0.22310490906238556, 0.06260814517736435, -0.06762595474720001, 0.11315637826919556, -0.006696133408695459, -0.10164119303226471, 0.017908785492181778, 0.034489937126636505, -0.015092788264155388, -0.143158957362175, 0.1988895833492279, -0.12612968683242798, -0.1879565268754959, 0.029294539242982864], [0.2836923599243164, -0.17187607288360596, -0.007838473655283451, 0.06286480277776718, 0.10270747542381287, 0.18006154894828796, 0.07055412232875824, -0.0013663151767104864, 0.02593192458152771, -0.0077075534500181675, 0.023862214758992195, 0.08813779056072235, 0.2649909257888794, 0.08923372626304626, -0.20958957076072693, 0.030239880084991455, -0.1671050488948822, -0.04708625748753548, -0.29292574524879456, -0.1342804878950119, -0.05059970170259476, 0.1884687840938568, -0.025057353079319, -0.03661046922206879, -0.0220800768584013, -0.0538003146648407, 0.12121488153934479, -0.025920631363987923, -0.10304754972457886, 0.003858812153339386, 0.0768788680434227, -0.2355353683233261, 0.2160806953907013, -0.025988485664129257, 0.06112729012966156, -0.21354331076145172, 0.06987381726503372, -0.22224639356136322, -0.11170366406440735, 0.09288351237773895, -0.04281669482588768, 0.17898406088352203, 0.15992029011249542, 0.355616956949234, -0.03864571079611778, -0.08415128290653229, -0.15151692926883698, -0.22699034214019775], [-0.21231144666671753, -0.04254396632313728, -0.004881992004811764, 0.061208806931972504, -0.16550037264823914, -0.11618955433368683, 0.18440595269203186, -0.08334372192621231, -0.2918793261051178, -0.16132646799087524, -0.20959681272506714, 0.10439249873161316, -0.07225138694047928, -0.09467349946498871, 0.031136801466345787, 0.17794254422187805, 0.006361821200698614, -0.27690741419792175, 0.02634444832801819, 0.08517120033502579, -0.010092017240822315, 0.1268305480480194, 0.09510063380002975, 0.31719955801963806, -0.035844672471284866, -0.10390808433294296, 0.17041097581386566, -0.005322059150785208, -0.1800738424062729, 0.0019905862864106894, -0.10966316610574722, -0.12709079682826996, -0.16298000514507294, -0.12662658095359802, 0.09819116443395615, -0.1534159630537033, 0.06461040675640106, -0.063016377389431, -0.037422724068164825, -0.2301955372095108, 0.05700991302728653, 0.05392701178789139, 0.16840197145938873, -0.11106853187084198, 0.32355576753616333, -0.10630513727664948, 0.09708106517791748, -0.20173467695713043], [-0.04999866709113121, -0.33889421820640564, -0.11782924085855484, 0.04370957240462303, 0.02140582911670208, -0.09550924599170685, -0.15311133861541748, 0.077939972281456, 0.10683922469615936, 0.25554850697517395, -0.015322491526603699, 0.02192516066133976, -0.10809589922428131, -0.14879538118839264, 0.1329716444015503, -0.0390707403421402, 0.06180938333272934, -0.05556188151240349, -0.04624979570508003, -0.2133750170469284, -0.0638222023844719, -0.08360008895397186, 0.13237367570400238, 0.25101372599601746, -0.2318488210439682, -0.10779768973588943, 0.042882807552814484, -0.05705335736274719, 0.10153516381978989, -0.003862531390041113, -0.07434763014316559, -0.19100253283977509, 0.18811596930027008, -0.32370349764823914, 0.07709753513336182, 0.15534795820713043, 0.018012749031186104, 0.2592223584651947, -0.02920703962445259, 0.19949224591255188, 0.007605688646435738, 0.06460079550743103, -0.036163169890642166, -0.0815761461853981, -0.11244971305131912, 0.2811552584171295, 0.016667813062667847, -0.23299233615398407], [-0.1863681524991989, 0.052761517465114594, -0.0036020115949213505, -0.2056475579738617, 0.08079853653907776, 0.2286771833896637, 0.07332085072994232, 0.02082466520369053, 0.20625275373458862, 0.317501425743103, -0.07200078666210175, 0.0034444609191268682, -0.005022632423788309, -0.10045990347862244, -0.11238516122102737, 0.11088532954454422, -0.11820247769355774, -0.15528295934200287, -0.023768359795212746, -0.21794569492340088, 0.17124822735786438, -0.09305043518543243, 0.06199327111244202, 0.015859970822930336, -0.044152889400720596, 0.02936699613928795, 0.15070940554141998, -0.016751201823353767, 0.07758762687444687, 0.21663907170295715, 0.028273114934563637, -0.010941353626549244, -0.08674934506416321, 0.12984830141067505, 0.005761934909969568, -0.2726631462574005, 0.16923776268959045, 0.06471887230873108, -0.1143544390797615, 0.173833966255188, -0.2544468343257904, 0.013766337186098099, -0.24148553609848022, -0.0815732404589653, 0.3226282298564911, -0.11480309069156647, 0.07944653183221817, 0.19864477217197418], [0.16684821248054504, 0.08154521137475967, 0.16542644798755646, -0.026216065511107445, 0.13821767270565033, -0.016192220151424408, -0.03002796694636345, 0.10345658659934998, -0.10673478245735168, 0.17484670877456665, 0.24067816138267517, 0.03137270733714104, 0.1296551525592804, -0.12186752259731293, 0.10758823901414871, 0.2472803294658661, 0.028020069003105164, 0.07444518059492111, 0.11218928545713425, -0.12239369004964828, -0.21243423223495483, -0.1701359748840332, 0.002676574047654867, -0.05779598653316498, -0.08404107391834259, -0.007992461323738098, 0.03206107020378113, -0.12559697031974792, 0.10139283537864685, -0.18588796257972717, 0.1260632425546646, -0.16519057750701904, -0.08537963032722473, 0.09806299954652786, 0.34108635783195496, -0.05968983843922615, 0.0939309373497963, 0.24900753796100616, -0.026585912331938744, -0.23401090502738953, 0.31198814511299133, -0.05678189545869827, -0.03248829394578934, 0.05314472317695618, 0.02320203371345997, -0.3135022521018982, 0.1563843935728073, -0.0007565456908196211]], [[-0.003800444072112441, 0.004023240879178047, -0.003969389479607344, -0.0011095290537923574, -0.0036462866701185703, -0.003699060995131731, 0.0030283101368695498, -0.001814517774619162, -0.002554385457187891, -0.003865131177008152, 0.004047959111630917, -0.002825402421876788, -0.003556550247594714, 0.0004024772497359663, 0.003907245583832264, -0.003291439265012741, -0.0044212136417627335, 0.004426772706210613, 0.004505467601120472, 0.004512141924351454, 0.004483293741941452, 0.004470054525882006, -0.004415529314428568, 0.004493513610213995, -0.0036821477115154266, 0.004475364927202463, 0.00435299426317215, 0.004441470373421907, 0.004464450292289257, 0.004487351048737764, -0.00433644512668252, 0.00446943286806345, 0.00024071440566331148, -0.00012475773110054433, 0.0015891485381871462, -0.0014303496573120356, 5.371723091229796e-06, 3.979165921919048e-05, 0.00016828418301884085, -0.0023918014485388994, 0.0008975317468866706, -7.393115083687007e-05, -0.00014220444427337497, -0.0011830776929855347, -0.0005138279520906508, -0.00030649255495518446, 0.000100579003628809, 3.4414028050377965e-05], [-0.003800444072112441, 0.004023240879178047, -0.003969389479607344, -0.0011095290537923574, -0.0036462866701185703, -0.003699060995131731, 0.0030283101368695498, -0.001814517774619162, -0.002554385457187891, -0.003865131177008152, 0.004047959111630917, -0.002825402421876788, -0.003556550247594714, 0.0004024772497359663, 0.003907245583832264, -0.003291439265012741, -0.0044212136417627335, 0.004426772706210613, 0.004505467601120472, 0.004512141924351454, 0.004483293741941452, 0.004470054525882006, -0.004415529314428568, 0.004493513610213995, -0.0036821477115154266, 0.004475364927202463, 0.00435299426317215, 0.004441470373421907, 0.004464450292289257, 0.004487351048737764, -0.00433644512668252, 0.00446943286806345, 0.0005119569250382483, 0.0006305021815933287, 0.0018486900953575969, -0.000492372433654964, -0.0002032691554632038, 0.0010103482054546475, 0.0004890959826298058, -0.003420023713260889, 0.0005590138607658446, -0.00019978710042778403, -0.00011900105164386332, -0.0002049100585281849, -0.0008798412745818496, -0.000521193549502641, -1.6310215869452804e-05, 0.0008691803668625653]]]}, {"type": "dense", "shape": [null, null, 1], "weights": [[[-0.4120459258556366], [-0.5318602323532104], [0.13146249949932098], [0.11766937375068665], [0.4834146797657013], [0.545551061630249], [-0.18915411829948425], [0.02293560467660427], [0.18742762506008148], [-0.42927542328834534], [-0.2664322257041931], [0.007985593751072884], [0.3689541220664978], [-0.2945616543292999], [-0.4089432954788208], [0.4486595094203949]], [-7.900149648776278e-05]]}]}