{"in_shape": [null, null, 5], "layers": [{"type": "time-distributed-dense", "shape": [null, null, 8], "weights": [[[-0.39830514788627625, 0.47409704327583313, -0.37520232796669006, -0.9354410767555237, 0.6535110473632812, 0.954516589641571, 0.2942796051502228, 0.5552775263786316], [0.6758455038070679, -0.6290302872657776, -0.5004351735115051, 0.18547743558883667, -0.06610368937253952, 0.5142797827720642, -0.3277888596057892, 0.04641275852918625], [-0.09331624954938889, 0.4909716248512268, 0.5040915012359619, -0.36812880635261536, 0.23640990257263184, -0.2719896137714386, -0.6529797911643982, 0.6744505167007446], [0.5606993436813354, -0.09325286000967026, 0.5061880350112915, -0.41690558195114136, -0.3278407156467438, -0.0004600593529175967, 0.3255304992198944, 0.16707736253738403], [0.23531495034694672, 0.06462407857179642, -0.2938939929008484, 0.5852612853050232, 0.04142848774790764, -0.5314247608184814, -0.6237973570823669, -0.5981020927429199]], [-0.04002084583044052, -0.007028092630207539, 0.14101769030094147, -0.06423220038414001, 0.047863271087408066, -0.05723542347550392, 0.04753933846950531, 0.013242967426776886]]}, {"type": "gru", "shape": [null, null, 16], "weights": [[[0.4794834852218628, 0.04756428673863411, -0.03274817764759064, -0.8257290124893188, 0.025431644171476364, 0.6286974549293518, 0.6674293279647827, -0.871688187122345, -0.2497003972530365, 0.37411418557167053, -0.7109190821647644, 0.021744627505540848, -0.02242264524102211, 0.26290270686149597, -0.47410842776298523, 0.39214879274368286, 0.45842963457107544, 0.25339338183403015, -0.2507716417312622, -0.2759871780872345, 0.09472320228815079, 0.026778701692819595, -0.3386231064796448, 0.5321778655052185, 0.5184774398803711, -0.32627490162849426, 0.38996243476867676, 0.16870644688606262, -0.30526202917099, -0.009990157559514046, 0.3323754668235779, 0.3935777246952057, 0.27865830063819885, -0.12051638215780258, -0.23745886981487274, 0.4576362371444702, 0.030818244442343712, -0.22629112005233765, 0.02095186896622181, 0.10276082903146744, 0.2387274205684662, 0.2686443030834198, -0.09981278330087662, -0.2603887915611267, -0.14326253533363342, -0.045632243156433105, -0.045878395438194275, 0.3619074821472168], [-0.047022704035043716, -0.02881462499499321, -0.2522733509540558, 0.8294815421104431, 0.5516790151596069, -0.5503695607185364, -0.46219342947006226, 0.9261636137962341, 0.5992820858955383, -0.7868401408195496, 1.0391844511032104, 0.3985946476459503, 0.6060921549797058, -0.7247910499572754, 0.40310806035995483, -0.4700585901737213, -0.1718522012233734, -0.11223992705345154, 0.5461952686309814, 0.21124711632728577, -0.03941284492611885, -0.3936713933944702, 0.5504835844039917, -0.09820051491260529, -0.5842587351799011, -0.2599864602088928, 0.4986919164657593, -0.4781053364276886, -0.07881112396717072, -0.07931685447692871, -0.40404635667800903, -0.39557427167892456, 0.129731684923172, -5.911260814173147e-06, -0.1998746395111084, 0.05939643085002899, 0.18465140461921692, -0.029260529205203056, 0.2157699316740036, -0.0843522772192955, 0.05254090204834938, -0.2987217605113983, -0.11753839254379272, -0.1347362995147705, 0.16466955840587616, -0.13543497025966644, -0.08973968029022217, -0.240463525056839], [0.5194253921508789, 0.839288592338562, 0.5151669979095459, 0.3946027159690857, 0.17990431189537048, -0.21816225349903107, 0.39517688751220703, 0.2641659677028656, 0.2685391306877136, 0.46899762749671936, 1.0555100440979004, -0.631314218044281, 0.7220510244369507, -0.42024338245391846, 0.31633806228637695, 0.07709548622369766, 0.004386493004858494, 0.037282127887010574, -0.7000858783721924, -0.469911128282547, 0.13240154087543488, -0.29128479957580566, 0.0024627195671200752, -0.11319401115179062, 0.23809914290905, -0.34147223830223083, 0.6690015196800232, -0.3124063313007355, -0.3529883027076721, 0.2721402049064636, 0.33471760153770447, 0.4301057457923889, -0.12103277444839478, 0.18018247187137604, -0.28644251823425293, 0.0904395580291748, 0.20431457459926605, 0.3218981623649597, -0.22069600224494934, -0.09706169366836548, 0.05441715195775032, -0.11777584254741669, -0.5127119421958923, 0.09168744832277298, -0.15329863131046295, -0.0007879870827309787, -0.18026016652584076, -0.17391954362392426], [-0.6441399455070496, -0.8308684825897217, 0.023201003670692444, -0.03741531819105148, -0.5269051194190979, -0.24625010788440704, 0.47916367650032043, -0.24879898130893707, -0.38836726546287537, -0.7008312940597534, -0.15783868730068207, -0.6796635389328003, -0.3108592927455902, 0.3870866000652313, 0.5017840266227722, 0.5224423408508301, -0.4530317485332489, -0.20276540517807007, -0.5468249320983887, -0.41426849365234375, 0.6124428510665894, 0.03585507348179817, 0.20345917344093323, -0.11578217148780823, -0.404247522354126, 0.43111148476600647, 0.3673281669616699, 0.21353228390216827, 0.03094031661748886, 0.2126121073961258, -0.34924545884132385, -0.6105086207389832, -0.0886373221874237, 0.3696359097957611, -0.08454962819814682, 0.2622080147266388, -0.06797375530004501, -0.12627723813056946, 0.11667734384536743, 0.2575541138648987, -0.08022960275411606, -0.21770374476909637, -0.41889503598213196, 0.06992549449205399, 0.24230195581912994, 0.3172793388366699, -0.48225265741348267, 0.1482764333486557], [-0.5777761340141296, -0.6408730149269104, -0.9282228946685791, -0.17602653801441193, 0.1755957305431366, 0.15035873651504517, 0.15592233836650848, -0.06775735318660736, -0.5828003287315369, -0.3545527756214142, -0.5458361506462097, 0.9047690629959106, -0.31524187326431274, 0.2578708827495575, -0.8680473566055298, -0.34660306572914124, -0.11065956950187683, -0.6007907390594482, 0.8140683174133301, 0.5636842250823975, -0.34050747752189636, 0.2176354080438614, 0.1808702051639557, 0.15386128425598145, -0.457550048828125, -0.45629099011421204, -0.8501947522163391, 0.16239695250988007, 0.27597934007644653, -0.4975493252277374, -0.0881238803267479, -0.359375536441803, 0.2660006582736969, -0.32521533966064453, 0.32740524411201477, -0.12998303771018982, 0.09649825841188431, 0.24707283079624176, -0.23727864027023315, -0.21005457639694214, 0.1078735738992691, 0.04809928685426712, 0.5713567137718201, -0.18895156681537628, -0.25397226214408875, -0.321074903011322, 0.1888507455587387, -0.19461312890052795], [-0.4154198467731476, -0.5259642004966736, -0.6566945314407349, -0.4688465893268585, 0.26350998878479004, 0.3729550540447235, 0.14119186997413635, -0.15246783196926117, -0.4762844443321228, -0.08423265814781189, -0.6150988936424255, 0.8947834372520447, -0.6967899203300476, -0.3880345821380615, -0.9021620154380798, -0.07609125226736069, 0.3541269898414612, 0.3861915171146393, 0.08167446404695511, 0.0737917572259903, -0.5456307530403137, 0.13645993173122406, -0.37650609016418457, -0.020584814250469208, -0.31905198097229004, -0.33956700563430786, -0.1167050376534462, -0.1727638691663742, -0.3622787594795227, -0.37943148612976074, 0.39956051111221313, 0.2782658338546753, 0.23498976230621338, -0.45357683300971985, 0.005664727184921503, -0.5086839199066162, 0.008847719989717007, 0.43688878417015076, 0.2527052164077759, -0.022435558959841728, 0.3279499411582947, -0.06710413843393326, -0.3056461215019226, -0.3167110085487366, -0.14412732422351837, -0.02364434115588665, 0.5123794078826904, -0.12809616327285767], [-0.08357495069503784, 0.4351768493652344, 0.13475880026817322, 0.5694445371627808, 0.6177887916564941, -0.3439738154411316, 0.03980282321572304, 0.9177370071411133, 0.2843521535396576, -0.48538321256637573, 0.5320916771888733, 0.24763639271259308, 0.5228733420372009, -0.6956139802932739, 0.9157984256744385, -0.4933713674545288, 0.3171619772911072, 0.10201729834079742, 0.4916587769985199, -0.6660041213035583, -0.10753162205219269, 0.06734050065279007, 0.05343765765428543, -0.18230871856212616, -0.16491732001304626, -0.0833100900053978, 0.036998070776462555, -0.28985702991485596, -0.2529749274253845, -0.096364326775074, 0.7774568796157837, -0.33510178327560425, 0.20154502987861633, -0.12525415420532227, -0.6592218279838562, -0.3926631212234497, 0.3740520477294922, 0.0046645402908325195, -0.16743974387645721, -0.05032813921570778, 0.20919357240200043, -0.06811181455850601, 0.03529014810919762, 0.26002225279808044, -0.2736015021800995, 0.12126988172531128, 0.07494726032018661, 0.3630053997039795], [0.4896468222141266, 0.15251627564430237, -0.02993537113070488, -0.5209895372390747, 0.45756667852401733, 0.16593770682811737, -0.14756260812282562, -0.6280180215835571, -0.001306738588027656, 0.5707100033760071, -0.08097118139266968, 0.38394245505332947, 0.217924565076828, -0.23380941152572632, -0.9768770933151245, -0.26725175976753235, 0.26821044087409973, 0.4749237895011902, -0.1470269113779068, -0.012353448197245598, -0.5537192225456238, 0.21940158307552338, 0.06681039929389954, 0.46114465594291687, 0.10738378763198853, -0.7742209434509277, -0.3121720254421234, -0.13722997903823853, -0.45809513330459595, 0.23631413280963898, -0.2169918268918991, 0.7063513994216919, -0.04875457286834717, -0.06397318094968796, 0.18155378103256226, -0.26615428924560547, 0.245093435049057, 0.07649452239274979, 0.17906783521175385, -0.22330212593078613, -0.20972348749637604, 0.3043368458747864, 0.23229728639125824, 0.23588238656520844, -0.3855329751968384, -0.08813416957855225, -0.05158812552690506, 0.16040529310703278]], [[-0.09562478959560394, -0.7379491329193115, -0.5144129991531372, -0.8694058656692505, -0.2504626512527466, 0.29698219895362854, -0.09184347838163376, -0.2851698100566864, -0.6629790663719177, -0.25515061616897583, -0.6598662734031677, 0.5630432367324829, -1.1511884927749634, 0.49915796518325806, 0.021890737116336823, -0.11008410900831223, 0.06087331473827362, -0.03929499164223671, 0.36528444290161133, 0.26068493723869324, -0.17646440863609314, -0.029738642275333405, -0.17160485684871674, 0.1982090324163437, 0.15208730101585388, -0.25180742144584656, -0.2914336919784546, 0.1095091849565506, 0.014447158202528954, -0.24564529955387115, 0.3105781376361847, 0.15225562453269958, 0.37150678038597107, -0.36197951436042786, 0.35884782671928406, -0.17165420949459076, -0.007240691687911749, -0.01790011115372181, 0.14870165288448334, -0.6400249600410461, 0.36753416061401367, 0.04285397380590439, -0.4333048164844513, 0.2321338802576065, -0.26675838232040405, 0.1984717845916748, -0.161543607711792, -0.18537838757038116], [-0.40128523111343384, 0.015042823739349842, -0.07428502291440964, 0.08604252338409424, 0.171729177236557, 0.1550532430410385, 0.17178606986999512, 0.05819331482052803, 0.5407425761222839, 0.18059447407722473, 0.20112349092960358, -0.3058742582798004, 0.708867073059082, -0.10083048790693283, 0.2362610250711441, 0.27134063839912415, 0.015212931670248508, -0.10309115052223206, -0.4273955225944519, -0.24206344783306122, 0.19519542157649994, -0.09629993885755539, -0.13581369817256927, -0.3846706748008728, -0.23827382922172546, 0.35483595728874207, -0.0563444122672081, -0.04528641328215599, 0.16952291131019592, 0.11048623919487, -0.17785225808620453, -0.36505264043807983, -0.3117581903934479, 0.012172556482255459, -0.18834581971168518, 0.4851992726325989, 0.19532164931297302, 0.1697428822517395, -0.48933130502700806, 0.17600582540035248, -0.15837453305721283, 0.4032715857028961, 0.44908809661865234, -0.285714715719223, -0.00031923543429002166, -0.07618313282728195, 0.12168928235769272, 0.27446115016937256], [-0.041112855076789856, -1.037021279335022, -0.8613013029098511, -0.551328718662262, -0.7106840014457703, 0.3925481140613556, -0.12053752690553665, -0.3684849739074707, -0.5444628000259399, 0.987054705619812, -0.8127834796905518, 0.6873095631599426, -0.8776176571846008, 0.665306568145752, 0.3331893980503082, 0.8043529391288757, -0.3662108778953552, -0.5711625218391418, -0.20442140102386475, 0.7526664733886719, -0.18489670753479004, 0.14984892308712006, 0.1917901635169983, 0.12168075889348984, -0.6149730682373047, -0.15640512108802795, -0.13454003632068634, 0.38735195994377136, 0.027901042252779007, -0.07071956992149353, 0.016345757991075516, 0.24021033942699432, 0.254644513130188, -0.15333056449890137, 0.3895767033100128, -0.16100317239761353, 0.12031292170286179, -0.19837933778762817, -0.20069222152233124, -0.12702347338199615, 0.15726467967033386, -0.12372688949108124, -0.34028351306915283, -0.14843446016311646, 0.000704504840541631, 0.19472448527812958, 0.02017635479569435, 0.20580783486366272], [-0.09806954860687256, -0.013560269959270954, 0.0037234039045870304, -0.4603562653064728, 0.2991776466369629, -0.5031893253326416, 0.6604265570640564, -0.31829479336738586, 0.630422055721283, 0.04047174006700516, 0.08339665830135345, -0.6074785590171814, 0.06864325702190399, 0.3107087016105652, 0.8113093972206116, 0.6254874467849731, -0.20509430766105652, -0.03578677400946617, -0.6530219316482544, 0.296316534280777, 0.044881511479616165, -0.010059942491352558, -0.05694219470024109, 0.22209718823432922, 0.14836697280406952, 0.006023467052727938, 0.2506316900253296, 0.1175784319639206, 0.09910167008638382, 0.06758731603622437, 0.18712905049324036, -0.28296253085136414, 0.3243635594844818, -0.09200591593980789, 0.2547275424003601, 0.2863670885562897, 0.009859051555395126, 0.24837957322597504, 0.019159872084856033, 0.15385138988494873, 0.004674598574638367, 0.15467488765716553, 0.3588228225708008, -0.06687282770872116, 0.08000513166189194, 0.1367018222808838, -0.2089749425649643, -0.14731571078300476], [0.3602251410484314, 0.7646549940109253, 0.6249955296516418, 0.44363513588905334, 0.4662243127822876, -0.14149662852287292, -0.6155909299850464, 0.045471131801605225, 0.8949910998344421, -0.37031200528144836, 0.8851492404937744, -0.6730643510818481, 0.8952879309654236, -0.6505427956581116, 0.30847278237342834, -0.8582770228385925, 0.11126524955034256, 0.23740831017494202, 0.3843703866004944, -0.5105317234992981, 0.008231733925640583, -0.09261037409305573, 0.19720661640167236, -0.15668851137161255, 0.181881383061409, 0.09380413591861725, 0.18040984869003296, -0.2096048891544342, 0.21193021535873413, -0.038734279572963715, 0.2851070463657379, 0.2534469664096832, 0.1709212213754654, -0.0113648297265172, -0.39504629373550415, 0.02685616910457611, -0.0075274137780070305, 0.08323889225721359, -0.08479801565408707, -0.1117032840847969, -0.0685715302824974, -0.23792749643325806, 0.16754119098186493, -0.007057155482470989, 0.0029743460472673178, 0.21370136737823486, -0.0027328962460160255, -0.05619683861732483], [0.6718058586120605, 1.0272282361984253, 0.83346027135849, 0.3990374207496643, 0.38771510124206543, -0.06408604234457016, -0.581301212310791, 0.06618344783782959, 0.93543541431427, -0.1642327457666397, 0.836374044418335, -0.5653802156448364, 1.1253103017807007, -0.7142841219902039, -0.17333920300006866, -0.3171170651912689, 0.08884212374687195, 0.4601418673992157, 0.10334588587284088, -0.16700774431228638, 0.20002888143062592, -0.04309174790978432, 0.10045550018548965, -0.40036121010780334, 0.14047685265541077, -0.46265730261802673, 0.6691899299621582, -0.26307347416877747, -0.27972614765167236, 0.011802241206169128, 0.12820951640605927, 0.2846331298351288, -0.07585477828979492, 0.39296746253967285, 0.020543823018670082, -0.12943853437900543, 0.20735333859920502, 0.28593072295188904, 0.06410414725542068, -0.11306770890951157, 0.1057710200548172, -0.0176480021327734, 0.12947070598602295, 0.138076052069664, -0.11377010494470596, -0.025253305211663246, -0.07160133123397827, 0.12250027805566788], [-0.02764936164021492, -0.3704569339752197, -0.14033456146717072, -0.7849388718605042, -0.37652742862701416, 0.10815726220607758, 0.17054437100887299, -0.49579498171806335, -0.3217603266239166, 0.6115772128105164, -0.932121992111206, 0.7307539582252502, -0.352758526802063, 0.30764806270599365, -0.8590977191925049, 0.4944533109664917, 0.08095210790634155, -0.2146664708852768, -0.23052501678466797, 0.4715166389942169, -0.09614390134811401, 0.33790478110313416, -0.35743430256843567, 0.3317403495311737, -0.13537965714931488, -0.1625175029039383, -0.5412127375602722, 0.2108251005411148, -0.3937428593635559, -0.033056531101465225, -0.006602609530091286, -0.07772022485733032, 0.1270565539598465, 0.02402089536190033, 0.216382697224617, -0.39012008905410767, -0.2638724744319916, -0.07394101470708847, 0.17128174006938934, 0.01993894763290882, -0.0009577983873896301, 0.26148471236228943, -0.14219671487808228, 0.017500346526503563, 0.1830843985080719, 0.12108341604471207, 0.23507042229175568, -0.19294174015522003], [-0.5291972160339355, -0.2042936086654663, -0.31623464822769165, -0.4264799952507019, -0.05826418474316597, -0.5636516809463501, 0.5372715592384338, -0.3578954339027405, -0.2725614607334137, 0.16525837779045105, -0.20783230662345886, -0.18998245894908905, -0.6823396682739258, 0.212326318025589, 0.7672685980796814, 0.005542719271034002, -0.40907981991767883, -0.24505123496055603, -0.47042253613471985, 0.24858781695365906, 0.036642566323280334, 0.00869755633175373, 0.10919083654880524, 0.1267777979373932, -0.2793463170528412, 0.19379766285419464, -0.3329677879810333, 0.2177199423313141, 0.09494837373495102, 0.048600513488054276, 0.2208424210548401, -0.6674129366874695, -0.17016319930553436, 0.030986184254288673, 0.0660235583782196, -0.0110694020986557, 0.2771438956260681, 0.02531738579273224, -0.259416401386261, -0.0511300303041935, 0.046992164105176926, 0.07967059314250946, 0.3011837303638458, 0.08366513252258301, -0.1606394648551941, -0.19297699630260468, 0.47436484694480896, 0.13091658055782318], [0.5331189632415771, 0.3490763008594513, 0.5995425581932068, 0.31900545954704285, 0.36176562309265137, -0.5560450553894043, -0.10887395590543747, 0.10316348075866699, -0.08837457001209259, -0.3084046244621277, 0.5691130757331848, -0.6355006694793701, -0.42274942994117737, -0.2790873348712921, 0.06980365514755249, -0.08165813237428665, 0.32864150404930115, 0.02542986534535885, 0.06766699254512787, 0.25797802209854126, -0.2041354775428772, 0.2162221521139145, -0.015759313479065895, 0.25927892327308655, 0.2807392179965973, -0.023876793682575226, 0.17760464549064636, -0.0802641287446022, -0.021601835265755653, 0.007811614777892828, 0.1205303743481636, 0.11900651454925537, 0.0782296434044838, -0.342727392911911, -0.13085180521011353, -0.1284540593624115, -0.08264417946338654, 0.006549432408064604, -0.09743214398622513, -0.10803987085819244, 0.10136068612337112, -0.009623694233596325, -0.7447202205657959, 0.06647776812314987, 0.24531444907188416, -0.14797347784042358, -0.2790783643722534, -0.2516711354255676], [0.08808533847332001, -0.09780784696340561, -0.12424687296152115, -0.621254563331604, 0.050582896918058395, 0.2526106536388397, 0.6395184397697449, -0.4278802275657654, 0.30818429589271545, 0.9155703783035278, -0.37186622619628906, 0.1422739028930664, -0.10748197138309479, 0.2800501883029938, 0.24959449470043182, 0.730152428150177, 0.09927608072757721, 0.3370143473148346, -0.276208758354187, 0.7597445845603943, -0.2760408818721771, 0.4491416811943054, -0.30040064454078674, 0.6129623651504517, 0.5289865136146545, -0.2963220179080963, -0.29461875557899475, 0.29812386631965637, 0.021755611523985863, 0.08172846585512161, 0.4560588300228119, 0.15853840112686157, 0.061102788895368576, -0.04554472491145134, 0.703563392162323, 0.1915857493877411, -0.45304733514785767, 0.07363623380661011, 0.2403927594423294, 0.18337494134902954, 0.04428600147366524, 0.5475990176200867, -0.3714159429073334, -0.29591768980026245, 0.274391770362854, -0.03155164420604706, 0.4139052927494049, 0.44841739535331726], [-0.4165189862251282, -0.4909789264202118, -0.602105975151062, 0.06855728477239609, -0.8695845007896423, 0.6715553998947144, -0.044351063668727875, 0.04117812588810921, -0.534698486328125, 0.4018382430076599, -0.3474540710449219, 0.15100617706775665, 0.11747418344020844, -0.049387216567993164, -0.6196751594543457, -0.5649387240409851, 0.33571869134902954, 0.4977361261844635, 0.6499610543251038, 0.26693814992904663, 0.2588900029659271, -0.01816418021917343, 0.1347689926624298, 0.3074823021888733, 0.33069124817848206, 0.33454713225364685, -0.5821281671524048, 0.05595908313989639, 0.44359126687049866, -0.03242175281047821, 0.07871506363153458, -0.371400386095047, 0.039194151759147644, -0.016660811379551888, -0.08326119929552078, -0.1324123740196228, 0.14712673425674438, -0.08579893410205841, -0.1391596645116806, -0.14080224931240082, -0.2831845283508301, 0.24181777238845825, -0.313989520072937, -0.08415268361568451, -0.33772337436676025, 0.010589281097054482, 0.44197967648506165, 0.03987399488687515], [-0.11396534740924835, 0.4621118903160095, 0.21882061660289764, 0.47413086891174316, 0.4242643415927887, -0.2596973180770874, -0.07093752920627594, 0.33090847730636597, -0.010842859745025635, -0.6477014422416687, 0.662392258644104, -0.35234907269477844, -0.13192437589168549, -0.1787462830543518, 0.22559359669685364, -0.447889119386673, -0.10675700008869171, 0.17854782938957214, 0.24847114086151123, -0.13395553827285767, -0.04636242240667343, -0.11344339698553085, -0.03732161223888397, -0.15827693045139313, 0.4611836373806, -0.32912686467170715, 0.34510537981987, -0.03723618760704994, -0.2719156742095947, 0.10122956335544586, -0.12588748335838318, 0.023070935159921646, 0.20256945490837097, 0.10927457362413406, -0.5365226864814758, -0.1430962234735489, 0.26551976799964905, 0.13710874319076538, -0.20983411371707916, 0.05409085005521774, 0.1535930037498474, -0.23293957114219666, -0.18925274908542633, 0.1412690132856369, -0.05060916393995285, -0.012745751067996025, -0.02871142327785492, -0.3375353515148163], [-0.2806902229785919, -0.27198636531829834, -0.3018699288368225, -0.03759000450372696, -0.11659546196460724, -0.26858407258987427, 0.3833962678909302, 0.05984063073992729, -0.43682995438575745, -0.6833344101905823, -0.0009154757717624307, 0.42108094692230225, -0.49912697076797485, 0.4943679869174957, 0.48698097467422485, -0.2328733652830124, -0.2173694521188736, -0.18094965815544128, 0.3736073970794678, 0.4018940031528473, 0.2220141738653183, -0.04488182067871094, 0.10750525444746017, -0.17660976946353912, -0.36559411883354187, 0.21657194197177887, -0.047159288078546524, -0.09110325574874878, -0.08766940236091614, 0.011659120209515095, -0.4952102601528168, -0.5142019391059875, 0.2026534378528595, 0.03925718367099762, -0.04853013530373573, -0.04650821164250374, -0.2292959839105606, -0.044919632375240326, 0.04892633110284805, 0.17408274114131927, 0.06629779934883118, 0.2917509078979492, 0.2116631716489792, 0.04951594024896622, -0.04123174026608467, -0.004045965615659952, 0.1296858787536621, 0.002135647227987647], [0.04534342139959335, -0.05859833210706711, -0.14306555688381195, 0.27013084292411804, 0.3061131238937378, -0.4130419194698334, 0.5809105634689331, 0.20273199677467346, 0.03818275406956673, -0.3803059458732605, -0.07556785643100739, -0.015334369614720345, -0.6599873304367065, 0.3251340985298157, 0.33323612809181213, 0.2866678833961487, -0.1969076693058014, -0.16587349772453308, -0.09756337106227875, -0.12098963558673859, 0.201261505484581, 0.14323554933071136, 0.168511763215065, -0.2523331940174103, 0.20833174884319305, 0.26638635993003845, -0.2107136994600296, 0.16587527096271515, -0.044640764594078064, -0.05259937793016434, 0.2581618130207062, -0.1631971001625061, 0.04600486159324646, -0.2580963969230652, -0.18701820075511932, 0.33980879187583923, -0.27366283535957336, -0.06255654990673065, -0.12155617028474808, 0.0712350532412529, 0.3834167420864105, -0.1693645715713501, -0.0713551864027977, -0.010205943137407303, -0.17570319771766663, -0.20390066504478455, 0.19824355840682983, 0.03160424157977104], [-0.6129336953163147, -0.26166754961013794, -0.02636547200381756, -0.26452821493148804, -0.3205866813659668, 0.44921907782554626, -0.24478986859321594, -0.05636292323470116, -0.7525873780250549, -0.12193582206964493, 0.017921263352036476, 0.48257556557655334, -0.4604586958885193, -0.05731583386659622, -0.7628253698348999, -0.1178884282708168, 0.12109115719795227, 0.26505497097969055, 0.337691068649292, -0.05826616659760475, 0.2037661373615265, 0.19024381041526794, 0.10875421017408371, 0.14753909409046173, 0.09339984506368637, 0.14889918267726898, -0.35825878381729126, 0.08585179597139359, 0.21426643431186676, 0.3686332404613495, 0.5100564956665039, 0.10716390609741211, -0.09749232232570648, 0.4527210295200348, -0.267178475856781, -0.25190144777297974, -0.265114426612854, 0.06414931267499924, 0.06077156588435173, 0.05476713553071022, -0.5856142640113831, 0.14807537198066711, -0.4468882083892822, -0.13114671409130096, 0.16997581720352173, -0.48982182145118713, -0.07256493717432022, 0.2020435780286789], [-0.2828271985054016, -0.14335530996322632, 0.04105887562036514, 0.04022296518087387, -0.18962989747524261, 0.43649619817733765, 0.5483342409133911, -0.650172770023346, 0.11833037436008453, 1.0625152587890625, -0.6583014726638794, -0.11645377427339554, 0.06611739844083786, 0.2565005421638489, 0.351721853017807, 1.073291540145874, 0.22674652934074402, -0.3651604652404785, -0.6610265374183655, 0.14177179336547852, -0.18621744215488434, 0.26384493708610535, -0.11532245576381683, -0.006610780954360962, -0.2530367076396942, 0.10745567083358765, -0.46944257616996765, 0.17834804952144623, -0.0726509839296341, 0.168532133102417, -0.018546052277088165, 0.5408274531364441, -0.013543684966862202, 0.2711161673069, 0.3756851851940155, -0.1865943819284439, 0.002147285733371973, 0.12120058387517929, -0.1715829074382782, 0.13969597220420837, -0.07964908331632614, 0.2571127414703369, -0.12457862496376038, 0.19473741948604584, -0.32066041231155396, 0.1234595775604248, -0.03078533336520195, 0.17862354218959808]], [[0.2617575228214264, -0.04582436382770538, -0.11025770008563995, -0.015754709020256996, -0.43651720881462097, 0.32212430238723755, 0.279000848531723, -0.3628729283809662, -0.005253074690699577, 0.3451887369155884, -0.36448270082473755, -0.08913127332925797, 0.19708728790283203, 0.04944515973329544, -0.6092984676361084, 0.42018982768058777, 0.13419799506664276, 0.14857247471809387, -0.08980581164360046, -0.0542793907225132, -0.0037933937273919582, 0.04045100137591362, 0.041235730051994324, -0.15114200115203857, 0.11273934692144394, 0.1287631392478943, 0.3263673782348633, -0.02255496196448803, 0.056035321205854416, 0.05937308445572853, 0.1950005292892456, 0.21424631774425507, -0.03806709125638008, 0.06180031597614288, 0.017439857125282288, -0.054509274661540985, 0.01819726452231407, 0.039681848138570786, 0.016581427305936813, -0.04710400477051735, -0.033969707787036896, -0.14415864646434784, -0.045766592025756836, -0.016676081344485283, -0.0037982852663844824, -0.022506842389702797, -0.06979881227016449, -0.04442838951945305], [0.2617575228214264, -0.04582436382770538, -0.11025770008563995, -0.015754709020256996, -0.43651720881462097, 0.32212430238723755, 0.279000848531723, -0.3628729283809662, -0.005253074690699577, 0.3451887369155884, -0.36448270082473755, -0.08913127332925797, 0.19708728790283203, 0.04944515973329544, -0.6092984676361084, 0.42018982768058777, 0.13419799506664276, 0.14857247471809387, -0.08980581164360046, -0.0542793907225132, -0.0037933937273919582, 0.04045100137591362, 0.041235730051994324, -0.15114200115203857, 0.11273934692144394, 0.1287631392478943, 0.3263673782348633, -0.02255496196448803, 0.056035321205854416, 0.05937308445572853, 0.1950005292892456, 0.21424631774425507, -0.05597671866416931, 0.0828777328133583, -0.07083635032176971, -0.16431891918182373, -0.003200714709237218, 0.035982877016067505, 0.00392572209239006, -0.058139581233263016, -0.05007736384868622, -0.17408913373947144, -0.07034659385681152, -0.015405380167067051, 0.0006606947863474488, -0.020901044830679893, -0.0953034833073616, -0.003247948596253991]]]}, {"type": "dense", "shape": [null, null, 1], "weights": [[[0.24481891095638275], [-0.31622281670570374], [0.24128687381744385], [-0.4721192419528961], [0.27306291460990906], [-0.4358982741832733], [-0.4269292950630188], [-0.33229759335517883], [0.12156086415052414], [-0.017190447077155113], [0.34561100602149963], [0.40439459681510925], [-0.4518406093120575], [0.4445315897464752], [0.053551431745290756], [0.14757101237773895]], [-0.02024487778544426]]}]}