{"in_shape": [null, null, 5], "layers": [{"type": "time-distributed-dense", "shape": [null, null, 8], "weights": [[[-0.4086044430732727, 0.4635052978992462, -0.3745582401752472, -1.1028814315795898, 0.8928982019424438, 0.8977727890014648, 0.3102191984653473, 0.590585470199585], [0.6770023703575134, -0.6973311901092529, -0.4717521369457245, 0.21523472666740417, -0.04604529216885567, 0.3809283971786499, -0.3447018563747406, 0.04698939993977547], [0.030056115239858627, 0.4452016353607178, 0.496916264295578, -0.30623719096183777, 0.2556550204753876, -0.32373377680778503, -0.6747929453849792, 0.7127049565315247], [0.49870726466178894, -0.01043733861297369, 0.4375476539134979, -0.4117768406867981, -0.3105304539203644, 0.07874745875597, 0.26987117528915405, 0.164867103099823], [0.24346676468849182, 0.016355000436306, -0.3993392288684845, 0.6332249045372009, 0.05734173581004143, -0.4949840009212494, -0.6695326566696167, -0.6479975581169128]], [-0.16157585382461548, -0.019568394869565964, 0.14487184584140778, -0.002230759710073471, 0.041439663618803024, 0.01367220003157854, 0.07258567959070206, -0.00876300036907196]]}, {"type": "gru", "shape": [null, null, 16], "weights": [[[0.1440710723400116, -0.4205566346645355, 0.40331393480300903, -1.2687809467315674, 0.42683809995651245, 0.8388342261314392, 0.6808018088340759, -2.17192006111145, -0.5632025003433228, 0.04052140936255455, -2.1204943656921387, 0.24265041947364807, -0.4147692620754242, 0.38758230209350586, 0.04940683767199516, 0.2786900997161865, 0.46001458168029785, 0.25236064195632935, -0.23622217774391174, -0.0877486914396286, 0.13541671633720398, 0.05562194436788559, -0.0652509555220604, 0.607209324836731, 0.39463329315185547, -0.30146756768226624, 0.5660891532897949, 0.328564316034317, -0.11442957818508148, 0.025448741391301155, 0.312256395816803, 0.3588865399360657, 0.2730167806148529, -0.11904527992010117, -0.2334330976009369, 0.45786020159721375, 0.03753305971622467, -0.22236226499080658, 0.032902028411626816, 0.11171523481607437, 0.2406306117773056, 0.2894812226295471, -0.09038690477609634, -0.2874719798564911, -0.13835136592388153, -0.050297122448682785, -0.03757324814796448, 0.3763779103755951], [-0.35950618982315063, -0.1275089532136917, -1.1485105752944946, 1.7974884510040283, 0.48010993003845215, -0.45247551798820496, -0.4031749963760376, 0.8542723059654236, 0.5425350666046143, -0.5771875381469727, 1.7800910472869873, 0.3104557394981384, 0.5141187310218811, -0.6279745697975159, -0.005983675364404917, -0.05530361458659172, -0.18605349957942963, -0.18376724421977997, 0.6622343063354492, 0.3768324851989746, 0.04315156862139702, -0.365041047334671, 0.781844437122345, 0.03132583200931549, -0.5249336957931519, -0.23137597739696503, 0.926510214805603, -0.9731146097183228, 0.1714812070131302, -0.31008803844451904, -0.3776654303073883, -0.7743334770202637, 0.12088018655776978, 0.00787422526627779, -0.19077487289905548, 0.012337557040154934, 0.14872777462005615, -0.0366998054087162, 0.23932935297489166, -0.057133983820676804, 0.014479418285191059, -0.2888696789741516, -0.16166670620441437, -0.1262083649635315, 0.21536873281002045, -0.17395587265491486, -0.06494442373514175, -0.27163049578666687], [-0.12336292862892151, 1.3432115316390991, 1.2629224061965942, 0.8679380416870117, 0.8136022090911865, -0.32380515336990356, 0.24981632828712463, -0.750300943851471, 0.3804808557033539, -0.17477060854434967, 1.243497610092163, -1.484690546989441, 0.9168686866760254, -0.6945415139198303, 0.46405091881752014, -0.2423228621482849, -0.08218592405319214, -0.13441115617752075, -0.4958067536354065, -0.43819043040275574, 0.09149219840765, -0.24641919136047363, 0.21719983220100403, -0.01966378279030323, 0.20828472077846527, -0.2007044404745102, 0.7635594010353088, -0.3003525137901306, -0.1892198622226715, 0.32040247321128845, 0.39590826630592346, 0.34429213404655457, -0.10903555899858475, 0.16915318369865417, -0.2854272723197937, 0.14532551169395447, 0.21428106725215912, 0.2978266477584839, -0.20440402626991272, -0.09258733689785004, 0.04912900924682617, -0.09746767580509186, -0.5012679100036621, 0.09645860642194748, -0.15353484451770782, 0.014920434914529324, -0.18066763877868652, -0.16757072508335114], [-0.6875685453414917, -1.3235894441604614, 0.8778977394104004, 0.0704263299703598, -2.161921262741089, -0.10020660609006882, 0.030836062505841255, 0.3577050566673279, -0.07564589381217957, -0.699236273765564, 0.9309327006340027, -1.4211199283599854, -0.6847637295722961, 1.4496612548828125, 1.4131873846054077, -0.0009253207826986909, -0.2908923327922821, -0.20186251401901245, -0.576932966709137, -0.4254007637500763, 0.6826156377792358, -0.34405314922332764, 0.09506676346063614, -0.1862667053937912, -0.08450022339820862, 0.3066524565219879, 0.3497060239315033, 0.5642939805984497, -0.003526469226926565, 0.24464476108551025, -0.31620892882347107, -0.6352822780609131, -0.08762175589799881, 0.392225980758667, -0.09588346630334854, 0.2594987452030182, -0.11012136936187744, -0.1263696700334549, 0.12692970037460327, 0.27826476097106934, -0.10767718404531479, -0.20308345556259155, -0.4125387370586395, 0.09167979657649994, 0.23201818764209747, 0.32529035210609436, -0.48408764600753784, 0.11098084598779678], [-0.5344342589378357, -1.1453603506088257, -2.0272445678710938, -0.7057371735572815, -1.106149435043335, 0.3141384720802307, 0.38422727584838867, 0.41908037662506104, -0.7078721523284912, -0.010214180685579777, -0.200754776597023, 1.750794768333435, -0.4462798833847046, -0.0064033325761556625, -1.213531494140625, -0.2660742402076721, -0.08833129703998566, -0.4466552734375, 0.909042239189148, 0.5213876962661743, -0.7802364826202393, 0.20464539527893066, 0.1811114102602005, 0.1445484757423401, -0.3822721838951111, -0.625080943107605, -0.7772067785263062, 0.11346843838691711, 0.27902546525001526, -1.268344521522522, -0.24874883890151978, -0.14511306583881378, 0.2555677592754364, -0.31655824184417725, 0.35888826847076416, -0.1678614467382431, 0.05971147492527962, 0.3234423100948334, -0.20369286835193634, -0.22152286767959595, 0.1123020276427269, 0.08943983167409897, 0.5604777932167053, -0.22155317664146423, -0.1820361614227295, -0.3904513418674469, 0.21329443156719208, -0.22309604287147522], [-0.3621603846549988, -0.0926511287689209, -1.4974664449691772, -0.46333447098731995, 1.9862843751907349, 0.33784061670303345, 0.4123241603374481, 0.8157141208648682, -0.8062146306037903, 0.08488369733095169, -1.2461698055267334, 1.3157916069030762, -0.2975635826587677, -1.7728726863861084, -1.655934453010559, 0.15160921216011047, 0.5096107721328735, 0.5307039022445679, -0.022773420438170433, -0.15493398904800415, -0.5779699683189392, 0.11151780933141708, -0.3412572145462036, -0.011831278912723064, -0.5922913551330566, -0.33268919587135315, 0.023903220891952515, -0.14901861548423767, -0.3344035744667053, -0.6279976963996887, 0.3481479585170746, 0.5034658908843994, 0.22414930164813995, -0.47592464089393616, 0.043426692485809326, -0.5268380045890808, 0.12140113860368729, 0.4913763105869293, 0.34471315145492554, -0.0948633924126625, 0.3889537453651428, -0.036675602197647095, -0.3878287076950073, -0.4135843813419342, -0.11714788526296616, -0.15743200480937958, 0.504936933517456, -0.14763206243515015], [-0.6424517035484314, 0.6709119081497192, -0.8202664256095886, 0.766918420791626, 0.6529613137245178, 0.15744858980178833, 0.3164432942867279, 1.1695977449417114, 0.16843990981578827, -0.2519826889038086, 0.7786462306976318, 0.7790821194648743, -0.05290234833955765, -0.9961121082305908, 0.397750586271286, 0.24267573654651642, 0.18221928179264069, 0.013897662982344627, 0.3364395201206207, -1.2616264820098877, -0.001962937880307436, 0.05564184486865997, -0.16029196977615356, -0.31887587904930115, -0.3905918300151825, 0.06406742334365845, -0.4081325829029083, -0.45557621121406555, -0.516183078289032, -0.16754242777824402, 0.7136474847793579, -0.3696787655353546, 0.19396154582500458, -0.13161830604076385, -0.6468569040298462, -0.348199725151062, 0.356035053730011, 0.004359894897788763, -0.1401374638080597, -0.04912354424595833, 0.17792493104934692, -0.10428551584482193, 0.07165408879518509, 0.25388428568840027, -0.2726733684539795, 0.07595996558666229, 0.0892755538225174, 0.38731807470321655], [0.489191472530365, 0.4088003933429718, -0.8693128824234009, -0.9508276581764221, 1.2385510206222534, -0.0017805040115490556, -0.15007449686527252, -1.7563730478286743, 0.05968043580651283, 0.08009845018386841, -1.5218943357467651, 1.3142367601394653, 1.0420511960983276, -1.5763521194458008, -0.9623757600784302, -1.0947476625442505, 0.1964767724275589, 0.49206477403640747, -0.06360448151826859, 0.058793216943740845, -0.6232934594154358, 0.31075769662857056, 0.23507624864578247, 0.4396052360534668, 0.11369496583938599, -0.8806483745574951, -0.3336979150772095, -0.11112826317548752, -0.38676589727401733, 0.24459199607372284, -0.2594621777534485, 1.0527926683425903, -0.04306787997484207, -0.06456804275512695, 0.1861780285835266, -0.19151847064495087, 0.29915228486061096, 0.057702213525772095, 0.15068699419498444, -0.23530884087085724, -0.20407140254974365, 0.3253278136253357, 0.3096921443939209, 0.27641916275024414, -0.42431774735450745, -0.057790059596300125, -0.06026723235845566, 0.1946306675672531]], [[-0.29374274611473083, -1.1911205053329468, -0.7376403212547302, 0.18615321815013885, -0.9904584288597107, 0.311403751373291, 0.2037237286567688, -0.04768511280417442, -0.16866587102413177, -0.3817328214645386, -1.0705384016036987, 0.8803449273109436, -1.331047534942627, 1.5393211841583252, 1.1738734245300293, -0.8295980095863342, 0.11213162541389465, -0.08774956315755844, 0.5184040665626526, 0.44688287377357483, -0.02490527182817459, 0.019037732854485512, -0.08315728604793549, 0.23140011727809906, 0.2893933057785034, -0.1726795732975006, -0.32283174991607666, -0.0057400427758693695, 0.025473197922110558, 0.20235194265842438, 0.21275871992111206, 0.2125324308872223, 0.28236299753189087, -0.26343920826911926, 0.2978978753089905, 0.06749670952558517, -0.03789578750729561, -0.06299759447574615, 0.15219111740589142, -0.618888795375824, 0.27336636185646057, -0.008707056753337383, -0.46996375918388367, 0.2498735785484314, -0.248172789812088, 0.24728314578533173, -0.1489758938550949, -0.40268853306770325], [-1.0685944557189941, 0.06676756590604782, -1.7271418571472168, -0.31208115816116333, 0.33888503909111023, 0.5006673336029053, -0.08662600070238113, -0.8434188365936279, 0.5206494331359863, 0.34059226512908936, -0.06629467010498047, 0.8457956910133362, 0.6851664185523987, -1.5457665920257568, -1.2596731185913086, 0.35972216725349426, -0.08737742900848389, -0.4949623644351959, -0.4290412962436676, -0.3802679777145386, 0.08737248182296753, -0.13836050033569336, -0.1806490123271942, -0.3983498513698578, -0.30848780274391174, 0.2170843631029129, -0.1499626487493515, 0.07837701588869095, 0.15747791528701782, -0.15081223845481873, -0.11068760603666306, -0.512654721736908, -0.3103722035884857, 0.0034933676943182945, -0.27432072162628174, 0.5613316893577576, 0.23784755170345306, 0.20455625653266907, -0.4068935811519623, 0.1878698170185089, -0.22249731421470642, 0.4399354159832001, 0.7611730694770813, -0.2955949008464813, -0.020747175440192223, -0.17853601276874542, 0.18937988579273224, 0.269051194190979], [-0.28494948148727417, -2.1409413814544678, -0.23240655660629272, 0.15023855865001678, -0.6086821556091309, 0.5777769684791565, -1.0008758306503296, 1.0656346082687378, 0.17949210107326508, 0.5672991275787354, -0.08160629123449326, 0.9189573526382446, 0.1280425786972046, 0.6089538335800171, 0.8947283029556274, -0.8626967072486877, -0.27153271436691284, -0.7389625310897827, -0.08568773418664932, 0.9547658562660217, -0.19510430097579956, 0.1465083360671997, 0.2340129315853119, 0.09394912421703339, -0.6845322251319885, -0.45487508177757263, -0.09556112438440323, 1.2383085489273071, 0.01843203790485859, 0.030752914026379585, -0.061419907957315445, 0.3572733998298645, 0.25988227128982544, -0.15548253059387207, 0.4880308508872986, -0.1073501706123352, 0.0965476706624031, -0.21164074540138245, -0.08736968040466309, -0.1491018384695053, 0.1792864054441452, -0.38604938983917236, -0.34310805797576904, -0.06322657316923141, 0.1326795518398285, 0.30558958649635315, -0.027511999011039734, 0.1801963895559311], [-0.3191823959350586, -0.4198366105556488, -0.7075883150100708, -0.48493340611457825, 1.252819538116455, -1.2611430883407593, 0.7711712121963501, 0.27243390679359436, 0.9437990784645081, 0.23633305728435516, 0.4370536208152771, -0.8580583333969116, -0.08055299520492554, 0.1587768793106079, 1.639732837677002, 0.3518315255641937, -0.40308424830436707, -0.09176849573850632, -0.5274027585983276, 0.4072049856185913, -0.05032765865325928, -0.07458413392305374, -0.10338903218507767, 0.22822771966457367, 1.0152475833892822, -0.1977243721485138, 0.25327080488204956, 0.2315671741962433, 0.10038381069898605, 0.01407794188708067, 0.20244626700878143, -0.558922290802002, 0.265921026468277, -0.04631676524877548, 0.24834401905536652, 0.34904342889785767, -0.05754457786679268, 0.2592042088508606, -0.010650617070496082, 0.14945347607135773, 0.044515375047922134, 0.16535012423992157, 0.34758591651916504, -0.08672383427619934, 0.1342739760875702, 0.12430888414382935, -0.17285658419132233, -0.13109681010246277], [0.39093002676963806, 0.745263397693634, 2.088285207748413, -0.5729072093963623, 1.4042102098464966, 0.3023463487625122, -0.41477951407432556, -1.8219364881515503, 0.6060891151428223, -0.5714507699012756, -0.25911518931388855, -2.1169650554656982, 0.4691781997680664, 0.20648401975631714, -0.3377258777618408, 0.20381136238574982, -0.01656649261713028, 0.1659383326768875, 0.07496655732393265, -0.5606605410575867, -0.11229216307401657, 0.11782611161470413, 0.3715117871761322, -0.23475252091884613, 0.23094327747821808, 0.12211880087852478, 0.2604363262653351, -0.634323239326477, 0.41468220949172974, -0.038359325379133224, 0.2550974488258362, 0.476790189743042, 0.19404177367687225, -0.021166076883673668, -0.40891003608703613, -0.3626095950603485, 0.03623322397470474, 0.07250133156776428, -0.025835759937763214, -0.09172185510396957, -0.10295452922582626, -0.21073631942272186, 0.09043166786432266, 0.00619079964235425, -0.0712333545088768, 0.20838090777397156, -0.03694776073098183, -0.06848962604999542], [0.8345593810081482, 1.7355231046676636, 1.912824273109436, 0.01966661959886551, 0.8203815221786499, -0.04278024658560753, 0.07916624844074249, 1.2640352249145508, 1.634211778640747, 0.07234353572130203, 1.7189066410064697, -0.8079631328582764, 0.5156635046005249, -0.907855212688446, 0.7554214000701904, 1.3498252630233765, -0.10194478929042816, 0.46783357858657837, -0.4187399446964264, -0.44732218980789185, 0.3044111132621765, -0.0248215664178133, 0.21260888874530792, -0.6319159865379333, 0.0012439972488209605, -0.5579648613929749, 0.6318695545196533, -0.28384217619895935, -0.2807711362838745, -0.13210880756378174, 0.03900313004851341, 0.7005295753479004, -0.1239265501499176, 0.44908252358436584, -0.03338973596692085, -0.08946369588375092, 0.12292777746915817, 0.3171515464782715, 0.09672372043132782, -0.054147858172655106, 0.11773186922073364, 0.507207453250885, 0.06036877632141113, 0.06723096966743469, -0.09569285064935684, -0.03777599707245827, -0.05612792447209358, 0.14571918547153473], [-0.3364191949367523, -0.3766971826553345, 0.15193769335746765, -0.9824860095977783, -0.12793505191802979, 0.16516046226024628, 0.033487893640995026, 0.2555573582649231, -0.19343528151512146, 0.7455405592918396, -0.3674529194831848, -0.15437906980514526, -0.40151911973953247, 0.474665105342865, -0.33116415143013, -0.8914008140563965, 0.03728851303458214, -0.37825527787208557, -0.25768932700157166, 0.5333849787712097, 0.107661671936512, 0.4028818905353546, -0.2502799928188324, 0.3259887397289276, -0.10769330710172653, -0.10292182862758636, -0.47555410861968994, 0.11316213011741638, -0.36481472849845886, 0.04144673049449921, -0.03901021182537079, -0.008130194619297981, 0.05787894129753113, 0.08931978791952133, 0.19794617593288422, -0.20010912418365479, -0.1164587065577507, -0.07804147154092789, 0.14599856734275818, 0.06036480888724327, -0.15562377870082855, 0.14525480568408966, -0.08424043655395508, 0.10965965688228607, 0.19495801627635956, 0.22164851427078247, 0.26319897174835205, -0.19787541031837463], [-0.6622422337532043, 0.07422038167715073, -0.67778080701828, -0.28958818316459656, 0.10057507455348969, -0.9285508394241333, 0.38679003715515137, -0.02368282712996006, -0.39411163330078125, 0.43917223811149597, 0.5162997245788574, -0.3346940577030182, -0.7420083284378052, -0.48318803310394287, -0.23086494207382202, -0.23557549715042114, -0.46730831265449524, -0.23903442919254303, -0.4763423502445221, 0.29695600271224976, -0.007643507793545723, -0.21243181824684143, 0.05966585874557495, 0.12203695625066757, -0.2506274878978729, 0.00015157806046772748, -0.29198363423347473, 0.44381392002105713, 0.09730885922908783, 0.009754206985235214, 0.23983240127563477, -0.5647483468055725, -0.17739146947860718, 0.022268416360020638, 0.07716882973909378, 0.028261341154575348, 0.3659699857234955, 0.042327333241701126, -0.31359317898750305, -0.06223493814468384, 0.05420862138271332, 0.0867607370018959, 0.3509552478790283, 0.18762175738811493, -0.20318059623241425, -0.2394353747367859, 0.4782879948616028, 0.15109556913375854], [0.7702143788337708, 1.3788015842437744, 0.9123203158378601, -0.9197790622711182, 1.2927086353302002, -0.3379349708557129, 0.36203503608703613, 0.19221946597099304, -1.795209527015686, -0.7583901286125183, 0.35305076837539673, -1.4117809534072876, 0.19470088183879852, 0.23615439236164093, 0.9845969080924988, -0.3115556836128235, 0.22171996533870697, 0.10375824570655823, -0.021266967058181763, 0.1936689019203186, -0.22929975390434265, 0.15253804624080658, -0.014599669724702835, 0.23404087126255035, 0.2693033516407013, -0.0015775661449879408, 0.29437825083732605, -0.11564145982265472, -0.08943139016628265, 0.22917203605175018, 0.05320552736520767, 0.18001914024353027, 0.057007934898138046, -0.3269280195236206, 0.14306017756462097, -0.09781321883201599, -0.3998034596443176, 0.0036839654203504324, -0.16439300775527954, -0.15124140679836273, 0.12415432929992676, -0.011304742656648159, -0.8784883618354797, 0.20253846049308777, 0.23341673612594604, -0.030844412744045258, -0.2940780520439148, -0.0754798874258995], [0.007171088829636574, -0.16569462418556213, 0.7018753886222839, -1.3312513828277588, 1.9446028470993042, 0.3812716603279114, 0.48319733142852783, -1.681396484375, 0.5500003695487976, 1.0760798454284668, 0.8524917364120483, 1.0191668272018433, 0.43642258644104004, 1.200553059577942, 1.19207763671875, 0.9646885991096497, 0.376411110162735, 0.5585641264915466, -0.06814540922641754, 1.4256150722503662, -0.18743978440761566, 0.5268478393554688, 0.09244170784950256, 1.1117438077926636, 0.42882686853408813, -0.3174930512905121, -0.1011861264705658, 0.7998060584068298, 0.19753465056419373, 0.20734885334968567, 0.46500104665756226, 0.17338719964027405, 0.061614684760570526, -0.06076981499791145, 0.7323993444442749, 0.007746018003672361, -0.459536612033844, 0.05125848576426506, 0.2290506213903427, 0.15119533240795135, 0.0028603593818843365, 0.49598750472068787, -0.2515501379966736, -0.27554699778556824, 0.34868189692497253, 0.0009964101482182741, 0.4480034410953522, 0.4953209459781647], [-0.13076643645763397, -0.5910999774932861, -1.337158203125, -0.2034650593996048, -1.1106849908828735, 0.5627014636993408, -0.15217655897140503, -0.08219119906425476, -0.922260582447052, 0.44481563568115234, -0.6010313034057617, 0.8507437109947205, 0.6789411306381226, -0.717572033405304, -1.7536752223968506, -1.0199556350708008, 0.5808801651000977, 0.5291282534599304, 0.7166423201560974, 0.3039843738079071, 0.15172362327575684, 0.059098176658153534, 0.0007768213981762528, 0.3650968372821808, 0.43053072690963745, 0.1351984739303589, -0.6979592442512512, 0.11028409749269485, 0.4338511526584625, -0.12306497991085052, 0.1327010989189148, -0.46486061811447144, 0.046600598841905594, -0.014656749553978443, -0.1571638286113739, -0.19714394211769104, 0.24165315926074982, -0.0978807657957077, -0.17068077623844147, -0.1195562332868576, -0.26247987151145935, 0.2160792201757431, -0.3380180299282074, -0.15782110393047333, -0.32078200578689575, -0.028720302507281303, 0.413506418466568, -0.14741531014442444], [-0.4141303300857544, 0.3632184863090515, -0.5550699830055237, 0.8493782877922058, -0.16851189732551575, -0.29310181736946106, -0.20623065531253815, -0.17610621452331543, -0.6597893834114075, -0.12349666655063629, -0.25794756412506104, -1.5426987409591675, -0.49086111783981323, 0.053617868572473526, -0.004834972321987152, -1.2866899967193604, -0.3045782744884491, 0.0781651958823204, 0.3103888928890228, -0.37328386306762695, 0.03546207770705223, -0.09726648777723312, -0.0269749965518713, -0.1093253567814827, 0.6224722862243652, -0.16281582415103912, 0.3428119421005249, -0.601043164730072, -0.35124510526657104, 0.15467365086078644, -0.05089975893497467, -0.06456208974123001, 0.2208675742149353, 0.10663685202598572, -0.5552700161933899, -0.0870504230260849, 0.34705159068107605, 0.10159070789813995, -0.2715988755226135, 0.04321888089179993, 0.11029213666915894, -0.3156846761703491, -0.13050897419452667, 0.23675498366355896, -0.187551349401474, 0.010061857290565968, -0.07007624208927155, -0.3007389008998871], [-0.46143582463264465, -1.1156548261642456, -1.4650434255599976, 0.38535258173942566, -0.8522964715957642, -0.4042474329471588, 0.18132330477237701, 1.4756908416748047, -1.1266752481460571, -0.342756062746048, 1.1441303491592407, 1.0108087062835693, -1.3475230932235718, 1.2687263488769531, -0.201189324259758, -0.32149893045425415, -0.1653205156326294, -0.21417224407196045, 0.41691824793815613, 0.45987918972969055, 0.323265939950943, -0.15264856815338135, -0.04589827358722687, -0.06420377641916275, -0.2965106666088104, 0.29324373602867126, -0.02274310402572155, 0.1338559240102768, -0.15123024582862854, 0.010228018276393414, -0.4409656524658203, -1.0111523866653442, 0.19689445197582245, 0.03505389019846916, -0.03148622810840607, -0.14122839272022247, -0.23684975504875183, -0.0445668064057827, 0.020731033757328987, 0.17855386435985565, 0.05054159462451935, 0.2595278322696686, 0.29490771889686584, 0.00868421420454979, -0.002525708870962262, -0.015890169888734818, 0.138017475605011, -0.015956008806824684], [0.02905605174601078, 0.11958985775709152, 0.017137857154011726, -0.5545420050621033, 0.06493298709392548, -0.7579831480979919, 0.8067885041236877, 0.4794141352176666, 0.33560407161712646, -0.3679828941822052, -0.14682574570178986, 0.19693820178508759, -0.8695268630981445, 1.655248999595642, 0.29795190691947937, -0.007116164080798626, -0.4747280776500702, -0.1970774531364441, 0.07716154307126999, -0.11713798344135284, -0.1814923733472824, -0.06670039892196655, 0.07248428463935852, -0.32642266154289246, 0.8330345749855042, 0.08865100145339966, -0.2555486559867859, 0.31317421793937683, -0.07583122700452805, 0.06839527189731598, 0.3165241479873657, 0.013647276908159256, 0.11279043555259705, -0.3251793384552002, -0.1929062008857727, 0.5219939947128296, -0.3929849863052368, -0.19431175291538239, -0.15061016380786896, 0.0009619764750823379, 0.41244134306907654, -0.15160909295082092, -0.06351444125175476, 0.06669062376022339, -0.2812052369117737, -0.2048308402299881, 0.07505089044570923, 0.06356175988912582], [-0.6849733591079712, -0.4814571738243103, -0.5823302865028381, 0.6419219374656677, -0.726734459400177, 0.9352101683616638, -0.41290491819381714, -0.48628807067871094, -0.9682736396789551, -0.03706152364611626, 0.7820739150047302, 0.9175806641578674, -0.13278327882289886, -0.8597713112831116, -1.5162345170974731, -0.272646963596344, 0.3702324330806732, 0.29118674993515015, 0.36324575543403625, 0.2086499035358429, 0.8040284514427185, 0.2465878278017044, 0.18316471576690674, 0.352710485458374, -0.1688510626554489, 0.2101932317018509, -0.2907439172267914, 7.287092739716172e-05, 0.25681960582733154, 0.34272152185440063, 0.39013445377349854, 0.10235725343227386, -0.14109666645526886, 0.47061580419540405, -0.2604447901248932, -0.32460707426071167, -0.20321238040924072, 0.11924358457326889, -0.003254733979701996, 0.047207530587911606, -0.6078041195869446, 0.07872790098190308, -0.3548893928527832, -0.12876909971237183, 0.18137383460998535, -0.4442528188228607, -0.06595293432474136, 0.17906498908996582], [-0.5002188682556152, 0.2067454606294632, 0.5262022614479065, 0.8878297209739685, 1.3507672548294067, 0.6262128353118896, 0.30922234058380127, -1.7466140985488892, 0.5851460099220276, 1.363167405128479, -0.7572101354598999, 1.2669799327850342, 1.4000307321548462, -0.8190458416938782, -0.5078868865966797, 2.4814188480377197, 0.2337241917848587, -0.3060623109340668, -0.6353061199188232, 0.3941313326358795, -0.27600595355033875, 0.2067655473947525, 0.02648666314780712, -0.055896591395139694, -0.9345876574516296, -0.05044277757406235, 0.011864970438182354, 0.572638750076294, 0.2843592166900635, -0.05473959445953369, -0.34761735796928406, 0.8456072807312012, -0.023700110614299774, 0.27155858278274536, 0.381928950548172, -0.33014872670173645, -0.005374350119382143, 0.16188804805278778, -0.11461280286312103, 0.11408684402704239, -0.086626335978508, 0.26069000363349915, -0.3392079174518585, 0.21975506842136383, -0.30476751923561096, 0.0880228579044342, 0.014678903855383396, 0.2714594006538391]], [[0.2998308837413788, -0.42404887080192566, -0.5241302251815796, 0.4936862289905548, -1.6532267332077026, 0.2057725489139557, 0.38734012842178345, 0.37677156925201416, 0.35343173146247864, -0.33077794313430786, 0.24147167801856995, -0.6117923259735107, 0.09197837859392166, -0.40200966596603394, -0.3663203716278076, -0.38380834460258484, 0.05867565795779228, 0.14160040020942688, -0.2847606837749481, -0.567229688167572, -0.036358535289764404, 0.04819924384355545, 0.033174291253089905, -0.4330613315105438, 0.0234513096511364, 0.244651660323143, 0.29633691906929016, 0.017024720087647438, 0.1373395174741745, 0.004655111581087112, 0.1788681149482727, 0.1604471206665039, -0.044036541134119034, 0.0639323890209198, 0.00598007021471858, -0.09050130844116211, 0.02207626774907112, 0.03139975294470787, 0.03813304007053375, -0.05867144092917442, -0.027632461860775948, -0.145900696516037, -0.044940538704395294, -0.016207998618483543, -0.005716533400118351, -0.013621675781905651, -0.061809178441762924, -0.06374625116586685], [0.2998308837413788, -0.42404887080192566, -0.5241302251815796, 0.4936862289905548, -1.6532267332077026, 0.2057725489139557, 0.38734012842178345, 0.37677156925201416, 0.35343173146247864, -0.33077794313430786, 0.24147167801856995, -0.6117923259735107, 0.09197837859392166, -0.40200966596603394, -0.3663203716278076, -0.38380834460258484, 0.05867565795779228, 0.14160040020942688, -0.2847606837749481, -0.567229688167572, -0.036358535289764404, 0.04819924384355545, 0.033174291253089905, -0.4330613315105438, 0.0234513096511364, 0.244651660323143, 0.29633691906929016, 0.017024720087647438, 0.1373395174741745, 0.004655111581087112, 0.1788681149482727, 0.1604471206665039, -0.06174200028181076, 0.08083505928516388, -0.08213286101818085, -0.22246098518371582, -0.005489076022058725, 0.028113089501857758, 0.02738356590270996, -0.06331080198287964, -0.03389199450612068, -0.18037939071655273, -0.08969459682703018, -0.018815943971276283, 0.003744641086086631, -0.004914105869829655, -0.08783280104398727, -0.011931363493204117]]]}, {"type": "dense", "shape": [null, null, 1], "weights": [[[0.20641571283340454], [-0.39338523149490356], [0.337379515171051], [-0.5875226259231567], [0.3519567549228668], [-0.3949902653694153], [-0.4455851912498474], [-0.3455003499984741], [0.13577061891555786], [-0.005544699728488922], [0.4350270926952362], [0.485099732875824], [-0.4634115993976593], [0.4905354380607605], [0.021568410098552704], [0.19899947941303253]], [-0.0039600795134902]]}]}