{"in_shape": [null, null, 5], "layers": [{"type": "time-distributed-dense", "shape": [null, null, 8], "weights": [[[0.9624266624450684, -0.6883743405342102, 0.2777267396450043, 0.046982940286397934, -0.19955530762672424, 0.2678835391998291, 0.47186002135276794, -0.8529148697853088], [-0.05934235453605652, -0.38856270909309387, -0.756962239742279, 0.7110934257507324, -0.5063815712928772, 0.7535006999969482, 0.3725960850715637, 0.43407097458839417], [0.23325921595096588, 0.13746774196624756, 0.342045396566391, 0.4190236032009125, 0.6554868817329407, 0.6892206072807312, -0.20441396534442902, -0.32772526144981384], [-0.3449901044368744, -0.40048447251319885, -0.19372586905956268, -0.6034001111984253, 0.47404274344444275, -0.06976015120744705, 0.19969487190246582, -0.07936551421880722], [0.6361559629440308, -0.4394683539867401, -0.308101087808609, 0.46383175253868103, 0.3248886466026306, -0.12807054817676544, 0.23019620776176453, -0.7189832329750061]], [0.06068311259150505, 0.294991672039032, 0.22639615833759308, -0.06135430559515953, 0.09823183715343475, -0.11327533423900604, -0.04257156699895859, -0.21394479274749756]]}, {"type": "gru", "shape": [null, null, 16], "weights": [[[0.8462669849395752, -0.007965835742652416, 1.1257697343826294, -0.15550336241722107, -0.9930967688560486, 0.9842119812965393, -0.7879327535629272, -0.9034966230392456, -1.0269831418991089, -0.918569803237915, -0.5592896342277527, -0.1615511178970337, 1.2703949213027954, 0.28856751322746277, -1.0659940242767334, 0.5938634872436523, 0.2731036841869354, 0.16159366071224213, -0.009091328829526901, -0.3037181496620178, -0.7266817092895508, -0.015446895733475685, -0.38083335757255554, -0.7212371230125427, -0.19752030074596405, -0.1716046929359436, 0.01724606566131115, -0.3339376449584961, -0.1648854911327362, 0.9899486899375916, -0.03843327984213829, -0.6393787264823914, 0.3826879858970642, -0.404136598110199, -0.028914282098412514, 0.15128259360790253, 0.013453120365738869, -0.17916643619537354, -0.09211644530296326, -0.33807337284088135, -0.2731549143791199, 0.09907052665948868, -0.26905563473701477, 0.15002234280109406, -0.15299274027347565, 0.12290691584348679, 0.1154179647564888, 0.3625694215297699], [-0.6700544357299805, -0.47891050577163696, -0.7255841493606567, 0.030687272548675537, 0.37682947516441345, -0.6828510761260986, 0.8891687989234924, 0.29059964418411255, 0.3894830346107483, 0.17122115194797516, 0.22409912943840027, 1.144626259803772, -0.6972538828849792, -0.6194317936897278, 0.39236947894096375, 0.6740618944168091, 0.21333999931812286, -0.015052557922899723, 0.027118109166622162, 0.09722296893596649, 0.5900534391403198, 0.38078010082244873, 0.3618822693824768, 0.513451099395752, 0.41071251034736633, -0.4733961224555969, -0.266189843416214, -0.3595791459083557, -0.5787873268127441, -1.1618479490280151, -0.21510908007621765, 0.670767605304718, -0.11878650635480881, -0.11411291360855103, 0.3443346917629242, 0.37205860018730164, 0.4670364260673523, -0.1138821691274643, 0.10459494590759277, -0.022011589258909225, -0.02160562574863434, 0.14760982990264893, -0.03410910815000534, -0.3952539265155792, 0.13469259440898895, -0.03909055143594742, 0.24114248156547546, 0.09690200537443161], [-0.48626282811164856, 0.7032400965690613, 0.3111202120780945, -0.15347591042518616, 0.5193454623222351, -0.12540535628795624, 0.08888637274503708, 0.5371565222740173, -0.9036016464233398, -0.3549404442310333, 0.23261643946170807, 0.9961423873901367, 0.2808299660682678, 0.3547556400299072, -0.18029265105724335, 0.9083401560783386, 0.509760320186615, -0.37488511204719543, -0.10606925934553146, -0.16173361241817474, -0.2534363269805908, 0.13825450837612152, 0.005152646452188492, 0.01348937675356865, -0.8925991654396057, -0.3402453064918518, -0.6624179482460022, 0.0888964906334877, -0.2848399877548218, 0.2896574139595032, 0.2439471036195755, -0.5418335795402527, 0.07840988785028458, 0.027425073087215424, -0.09698911756277084, 0.3180612325668335, 0.12704093754291534, -0.07087010145187378, -0.13932207226753235, 0.0892089381814003, -0.23429149389266968, -0.04362170770764351, 0.09480535238981247, 0.0024059810675680637, -0.3738449215888977, 0.5178515911102295, 0.3020166754722595, 0.03336085006594658], [0.29379498958587646, 0.42335689067840576, 0.6445109844207764, 0.09436030685901642, -0.25663694739341736, 0.14038795232772827, -0.14161556959152222, 0.06160547584295273, 0.5015820264816284, -0.36698612570762634, -0.1695786714553833, -0.579117476940155, 0.5994108319282532, -1.223331093788147, -0.11286275088787079, -0.0752008780837059, -0.22640495002269745, -0.2020430564880371, 0.0441763736307621, -0.5071325302124023, 0.17106156051158905, -0.1713414192199707, 0.5295045971870422, -0.17507056891918182, 0.22315558791160583, -0.5139561295509338, -0.22077003121376038, -0.6421366930007935, -0.5551032423973083, 0.2626512944698334, 0.1968136429786682, 0.1264365315437317, 0.2728680372238159, 0.16489461064338684, -0.2499641478061676, 0.01697162166237831, 0.004868707153946161, -0.03988863527774811, -0.12603458762168884, -0.17912113666534424, -0.045814283192157745, -0.3728996813297272, -0.005239006131887436, -0.25707218050956726, 0.07059001922607422, -0.1681147664785385, -0.10470543801784515, 0.008632022887468338], [-0.5612406730651855, 0.753122866153717, -0.6841887831687927, 0.7089654207229614, 1.0193125009536743, -0.5904349088668823, -0.4075641334056854, 1.0513513088226318, -0.5077414512634277, -0.37812963128089905, 0.7177988290786743, 0.4234934449195862, 0.5459574460983276, 0.34764090180397034, 0.6429057121276855, -0.8505587577819824, 0.35526466369628906, 0.19263264536857605, -0.08601650595664978, -0.14429233968257904, 0.18958595395088196, 0.4025609493255615, -0.1987781971693039, 0.3547653555870056, -0.25238391757011414, 0.09968464821577072, -0.25753137469291687, 0.05294683575630188, -0.3703966438770294, -0.5981072187423706, 0.014286178164184093, 0.24225760996341705, 0.06674541532993317, -0.35225439071655273, -0.14789487421512604, 0.32832348346710205, -0.14938756823539734, -0.024725599214434624, -0.7055085301399231, 0.3316602408885956, 0.03890281915664673, -0.1979646384716034, 0.36919817328453064, 0.021796751767396927, 0.08128805458545685, -0.07331167906522751, 0.1292598992586136, -0.13505643606185913], [0.24081335961818695, 0.16301275789737701, -0.0378158763051033, 0.5761651992797852, -0.24802516400814056, 0.3122844696044922, -0.47613248229026794, -0.2554980516433716, 0.34741702675819397, 0.06587868183851242, -0.6045453548431396, -0.4314694106578827, 0.0661354511976242, -0.737267792224884, 0.2546016573905945, -0.9391738176345825, -0.41274935007095337, 0.1426985114812851, 0.5047799944877625, -0.2117677628993988, 0.3457610607147217, -0.16828885674476624, 0.32697829604148865, -0.13232211768627167, -0.16603240370750427, 0.2324613481760025, 0.3927404582500458, -0.5352928042411804, -0.20334289968013763, 0.2096833735704422, 0.2990795373916626, 0.16905254125595093, 0.00639199698343873, -0.26717737317085266, -0.3070303797721863, 0.07509473711252213, 0.05378864333033562, -0.31454676389694214, 0.3186919391155243, -0.08562895655632019, 0.18491868674755096, -0.4091505706310272, 0.16626237332820892, 0.12703126668930054, 0.1307355910539627, -0.2684052288532257, -0.29668307304382324, 0.15855757892131805], [0.8492832183837891, -0.15740278363227844, 0.42748120427131653, 0.216568723320961, -0.34515103697776794, 0.5130619406700134, -0.5090408325195312, -0.6336027383804321, -0.3865951895713806, 0.08882840722799301, -0.2573666572570801, -1.2566585540771484, 0.044312912970781326, 0.6658573150634766, -0.18520674109458923, -0.12875765562057495, -0.4529842436313629, 0.40320760011672974, -0.23769116401672363, -0.07542989403009415, -0.8087096214294434, -0.21642616391181946, -0.45439866185188293, -0.5440136194229126, 0.11165454238653183, 0.37939855456352234, 0.26931384205818176, 0.4959135055541992, 0.23352167010307312, 1.1758402585983276, 0.4144705533981323, -0.6177968978881836, 0.18308064341545105, 0.006566069554537535, -0.04342149198055267, -0.0006431764340959489, -0.3491327166557312, -0.04766222462058067, -0.21710172295570374, -0.3608771860599518, -0.2920595109462738, 0.07011855393648148, -0.1163608655333519, 0.4014171361923218, 0.20332306623458862, 0.18848972022533417, 0.1543373465538025, -0.09659066796302795], [-0.21033036708831787, -0.6160753965377808, -0.6695406436920166, -0.15247951447963715, -0.678581178188324, -0.6167738437652588, 1.2868914604187012, -0.28188392519950867, 0.932485044002533, 1.2585844993591309, -0.7401865124702454, -0.5653063058853149, -1.0805891752243042, -0.9389193058013916, 0.7832841277122498, -0.651976466178894, -0.20129895210266113, 0.4600856602191925, 0.1407773345708847, 0.0915275290608406, 1.1027518510818481, 0.3690280020236969, 0.1711626797914505, 0.7370558381080627, 0.6899083852767944, 0.0433521568775177, 0.032714731991291046, -0.4918643832206726, -0.38510453701019287, -0.8160408735275269, -0.4565459191799164, 0.23131601512432098, 0.18012960255146027, 0.5276342034339905, -0.1969481110572815, -0.04897818714380264, 0.40278422832489014, 0.2693328857421875, -0.0014813652960583568, 0.3141157925128937, 0.10570703446865082, -0.00889159832149744, -0.06871045380830765, -0.16635656356811523, -0.10414700955152512, -0.5039921998977661, 0.029129978269338608, -0.2134481519460678]], [[0.06919122487306595, 0.011828567832708359, 0.11395752429962158, 0.01935388147830963, -0.2625022828578949, 0.8768472075462341, -0.014203771017491817, 0.4545758366584778, 0.2744322717189789, 0.0366726815700531, 0.2784866392612457, 0.07277834415435791, 0.1226533055305481, 0.024645989760756493, 0.508441686630249, -0.10577476769685745, 0.06250350177288055, 0.07634091377258301, 0.1347411423921585, -0.3124973773956299, -0.0848320797085762, 0.2759493589401245, 0.2067151963710785, -0.09083134680986404, 0.009618459269404411, -0.26284635066986084, 0.16253787279129028, -0.10779204964637756, 0.09024103730916977, 0.13707123696804047, 0.3930053412914276, -0.19869360327720642, 0.18794800341129303, -0.1317073255777359, -0.2307009994983673, 0.24079789221286774, 0.13277603685855865, 0.13142092525959015, 0.511924147605896, 0.31822675466537476, 0.3186876177787781, -0.04315681383013725, 0.025478985160589218, -0.013388993218541145, 0.1693183332681656, 0.2782299220561981, -0.019249513745307922, -0.1010553166270256], [1.2909235954284668, -0.5020084381103516, 0.5171353816986084, -1.146548867225647, -0.5651838779449463, 0.8081446290016174, 0.9238885641098022, -0.39476585388183594, 0.666090726852417, -0.4142783582210541, -1.0170459747314453, 0.40094783902168274, -0.17108212411403656, -0.11618983745574951, -0.289575457572937, 0.23076865077018738, -0.001975324936211109, 0.4320050776004791, -0.10655263811349869, 0.0934271588921547, 0.059364162385463715, -0.11252621561288834, -0.19178177416324615, 0.008747998625040054, 0.10122456401586533, -0.027195531874895096, 0.5798541307449341, -0.28032758831977844, -0.15122604370117188, 0.3310897946357727, -0.4337312877178192, -0.045664552599191666, 0.0675869733095169, 0.4316309094429016, 0.24337975680828094, -0.18653272092342377, 0.14904895424842834, -0.10779398679733276, 0.021498991176486015, 0.09609942883253098, -0.03283906728029251, 0.06558139622211456, -0.08055451512336731, 0.24246376752853394, 0.16219492256641388, 0.03923835977911949, 0.1750406175851822, 0.24538582563400269], [0.2696722745895386, -0.24720881879329681, -0.45597055554389954, -0.4465334117412567, 0.19421720504760742, -0.43132007122039795, 0.31286415457725525, 0.3199881613254547, 0.06541541963815689, -0.11144229024648666, -0.3632412850856781, 0.5094040632247925, -0.18043087422847748, 0.02691667713224888, -0.28514525294303894, 0.43513360619544983, 0.17839017510414124, 0.0876707211136818, 0.05964711681008339, 0.16865454614162445, 0.0734211653470993, 0.12816716730594635, 0.041191671043634415, 0.030048880726099014, -0.31276941299438477, -0.2023787498474121, -0.25972405076026917, -0.0759025514125824, 0.08345355093479156, 0.09915662556886673, -0.20236921310424805, -0.09919706732034683, 0.023250997066497803, 0.24295152723789215, 0.1609371304512024, 0.3866964876651764, -0.3158336579799652, 0.22069662809371948, -0.19969762861728668, -0.2685203552246094, -0.018715837970376015, -0.07923396676778793, 0.15707355737686157, -0.16490906476974487, -0.15571464598178864, -0.2097650021314621, 0.12429852783679962, 0.18264035880565643], [-0.2918720245361328, 0.8351366519927979, -0.16342328488826752, 0.5208796262741089, 0.521384596824646, -0.18475419282913208, -0.6222061514854431, 0.3509903848171234, -0.0016111393924802542, -0.40290433168411255, 0.057332661002874374, -0.28664618730545044, -0.024370819330215454, 0.022538060322403908, -0.6297054886817932, 0.2976466715335846, 0.45522448420524597, -0.4770650267601013, 0.1448555886745453, 0.04954621568322182, -0.125420480966568, 0.0036930174101144075, 0.745972216129303, -0.3233025372028351, -0.2665376365184784, -0.7573547959327698, -0.5612205862998962, 0.3790808618068695, 0.04822266474366188, -0.48407769203186035, 0.30291497707366943, -0.1421634405851364, 0.00010173288319492713, -0.3378395438194275, 0.19819046556949615, 0.37975016236305237, -0.08768677711486816, 0.3900054395198822, -0.2209254801273346, -0.6646655201911926, 0.0016431888798251748, -0.1389661431312561, -0.011491740122437477, -0.6544516086578369, 0.21054063737392426, 0.04334644600749016, 0.29851314425468445, -0.029435373842716217], [0.46381181478500366, 0.10638576000928879, 0.4646334946155548, 0.8433073163032532, -0.6419495940208435, -0.05102846026420593, -0.01947554387152195, -1.115060567855835, 0.7058332562446594, -0.7914246320724487, -1.233362078666687, 0.3333197236061096, -0.09653124958276749, -1.1313201189041138, -0.5336201190948486, 0.5035020112991333, -0.07872700691223145, 0.14394325017929077, 0.19764448702335358, -0.19158048927783966, 0.27458569407463074, 0.49073898792266846, 0.6220337748527527, -0.06474888324737549, 0.09402593225240707, -0.5084654092788696, -0.3548469841480255, -0.34230512380599976, -0.5529530048370361, -0.6436728239059448, 0.46672800183296204, 0.06744806468486786, -0.13556084036827087, 0.16502486169338226, 0.18348650634288788, -0.029804948717355728, 0.12091872096061707, 0.5233433246612549, 0.087961845099926, -0.43136656284332275, -0.14062264561653137, 0.15608000755310059, 0.06174125149846077, -0.05480101704597473, 0.08632920682430267, 0.45964500308036804, -0.04411168023943901, -0.11019093543291092], [0.2237550914287567, 0.11100680381059647, -0.8133795857429504, -0.21261802315711975, 0.3307093679904938, -0.5794329643249512, 0.269614577293396, -0.5505037903785706, -0.04307064041495323, -0.4917897582054138, -0.9862366914749146, 0.26013991236686707, 0.19365917146205902, -0.1641164869070053, -0.37488114833831787, 0.1471395641565323, -0.08196526765823364, -0.05122774839401245, 0.106984443962574, 0.16482065618038177, 0.34960225224494934, -0.17939956486225128, -0.434052050113678, -0.03915321081876755, -0.07239894568920135, -0.02428668551146984, 0.12639552354812622, -0.22694151103496552, 0.21862447261810303, 0.2460949718952179, -0.49011024832725525, 0.17383556067943573, -0.3058259189128876, 0.08200093358755112, 0.14206886291503906, -0.017239782959222794, -0.23525846004486084, 0.2594965994358063, -0.1092829555273056, -0.1146528497338295, -0.08291362226009369, -0.24383445084095, 0.10460712015628815, -0.2277958244085312, -0.03146553412079811, -0.09050417691469193, 0.0804232656955719, -0.13524439930915833], [0.10548032820224762, -0.251735121011734, 0.8344346880912781, 0.424304336309433, -0.9794511795043945, 0.35234981775283813, 0.2894410192966461, -0.22909453511238098, 1.0655511617660522, 0.7052096128463745, -0.036171868443489075, -0.38870084285736084, -0.21415257453918457, -0.7360705137252808, -0.4304920732975006, 0.18774941563606262, -0.03695449233055115, 0.2102321833372116, 0.12301333248615265, -0.3829743564128876, 0.19526973366737366, 0.15042747557163239, 0.05536453425884247, 0.3327483832836151, 0.4168055057525635, 0.2722303569316864, 0.1509702354669571, -0.10414647310972214, -0.5166031718254089, 0.05130954086780548, -0.41430678963661194, -0.021489109843969345, -0.1360131800174713, -0.08913908153772354, -0.2913341820240021, 0.31349578499794006, 0.31056302785873413, -0.11166996508836746, 0.05042268708348274, -0.09609974175691605, -0.08161706477403641, 0.09222979843616486, 0.015446757897734642, 0.2405768781900406, 0.05112812668085098, 0.26832452416419983, -0.06628356873989105, -0.4935300648212433], [0.4637623727321625, 0.1731206327676773, 0.34955593943595886, 0.36232733726501465, 1.4385781288146973, -0.02913372777402401, -0.5654581189155579, 0.8791598677635193, -0.7148180603981018, -0.029456794261932373, 0.99484783411026, 0.46502962708473206, 0.9792179465293884, 0.9683613181114197, 0.29149410128593445, -0.3486554026603699, -0.06600906699895859, 0.19681915640830994, -0.08290952444076538, -0.16270513832569122, 0.29837489128112793, 0.4437340199947357, -0.3679000735282898, 0.41923823952674866, -0.1223297268152237, -0.03283333405852318, 0.3334071934223175, 0.11548823118209839, -0.3752160370349884, -0.14272966980934143, -0.3926895260810852, 0.15325511991977692, 0.2759087383747101, 0.11605508625507355, 0.05153793841600418, 0.2520976662635803, -0.10402805358171463, 0.19117629528045654, 0.3452378511428833, 0.027053214609622955, -0.056869108229875565, 0.21027399599552155, 0.11576209217309952, 0.01676766574382782, 0.10441653430461884, -0.32866597175598145, -0.17290236055850983, 0.06476708501577377], [-0.042564623057842255, 0.03779942914843559, 0.5064563155174255, 0.6887602806091309, 0.18984010815620422, -0.5421968102455139, -0.4274626672267914, 0.3020736873149872, -0.23040524125099182, 0.3441782593727112, 0.23775944113731384, -0.3723558783531189, 0.148048534989357, 0.10976050049066544, 0.1289960891008377, -0.760421633720398, -0.1967756152153015, 0.42310571670532227, -0.012249949388206005, -0.09053850173950195, 0.3955558240413666, 0.016440315172076225, 0.0748772919178009, 0.12519291043281555, -0.028026629239320755, 0.28800803422927856, 0.2862240672111511, -0.12438789755105972, 0.25770577788352966, 0.09322301298379898, -0.09949397295713425, 0.3910973072052002, -0.20801733434200287, 0.08836305886507034, -0.15003839135169983, -0.11153057217597961, 0.3058519959449768, -0.06936591863632202, 0.09092289209365845, 0.13169099390506744, -0.06524857878684998, 0.22703075408935547, 0.09882047027349472, 0.17467668652534485, 0.15662576258182526, -0.022992882877588272, -0.17161105573177338, -0.002402747282758355], [0.23175297677516937, -0.4830179214477539, -0.628337025642395, -0.6861829161643982, 0.31606775522232056, 0.1401994675397873, 0.025995152071118355, -0.21425111591815948, -0.10767363011837006, 0.11922211945056915, 0.4225976765155792, 0.9943106174468994, 0.02348390966653824, 0.03144362196326256, 0.4989891052246094, 0.5043430924415588, 0.10838927328586578, 0.014178292825818062, -0.24618364870548248, 0.10168560594320297, 0.05582478269934654, -0.17225155234336853, 0.05325512960553169, -0.06444042176008224, 0.24907921254634857, 0.04621739685535431, -0.1974845826625824, -0.023892506957054138, 0.2295222282409668, 0.04066820815205574, -0.34733328223228455, -0.10636897385120392, 0.014643283560872078, 0.3125123679637909, 0.3236100673675537, 0.38903114199638367, -0.3628394603729248, 0.01834982819855213, -0.4770393371582031, -0.07628605514764786, -0.07114347815513611, 0.4061737060546875, 0.3280874788761139, 0.05708368122577667, -0.03974079713225365, -0.1640397608280182, 0.43035557866096497, 0.07837682962417603], [0.1876044124364853, 0.7954193949699402, 0.669724702835083, 0.6852222681045532, 1.1208714246749878, -0.11653080582618713, -0.614295482635498, 0.09815250337123871, -0.8672949075698853, -0.4879060983657837, -0.14338162541389465, -0.0013348436914384365, 0.4938654601573944, -0.3050922751426697, 0.5056371688842773, -0.41144686937332153, 0.1851036697626114, 0.44497188925743103, 0.23296672105789185, 0.3752360939979553, -0.04415150359272957, 0.22623878717422485, -0.11698853969573975, 0.3497476279735565, -0.07344988733530045, 0.25799909234046936, 0.3085372745990753, -0.4309326112270355, -0.5772491097450256, -0.4676489233970642, 0.09730177372694016, 0.23979753255844116, -0.08882937580347061, -0.023904044181108475, -0.1560107320547104, -0.3213137090206146, -0.02092825435101986, 0.15146364271640778, 0.043862082064151764, -0.14136385917663574, 0.5408944487571716, 0.3227887749671936, 0.2718115746974945, 0.026528066024184227, -0.07736620306968689, -0.3009262681007385, 0.18737807869911194, -0.19285905361175537], [-0.08952438831329346, 0.3313656449317932, -0.6858024597167969, -0.855323076248169, 0.6069936752319336, 0.47196418046951294, 0.10217626392841339, 0.7455298900604248, -0.7533345818519592, 0.698076605796814, 0.5718095302581787, 0.37142831087112427, 0.14536646008491516, 1.0016809701919556, 0.6911004781723022, -0.17348027229309082, -0.10395435243844986, 0.06915785372257233, -0.6589282155036926, 0.06634147465229034, -0.029230980202555656, -0.17616625130176544, -1.0960456132888794, -0.09749705344438553, -0.221352219581604, 0.8908413648605347, 0.3847428262233734, 0.3766574263572693, 0.2588738799095154, 1.605835199356079, -0.38461387157440186, -0.12500262260437012, 0.2820616066455841, -0.2752434313297272, 0.05829682573676109, -0.14973236620426178, 0.23191915452480316, -0.3435899019241333, -0.3797328770160675, 1.0009324550628662, 0.010965028777718544, 0.14073514938354492, -0.37925446033477783, 0.29878243803977966, -0.08072513341903687, -0.1517004519701004, -0.08526787161827087, -0.03299463540315628], [-0.10253820568323135, 0.15690022706985474, 0.1560249626636505, 0.6895444393157959, 0.11092272400856018, -0.4260774254798889, -0.4294998347759247, 0.2923562526702881, -0.005194319877773523, 0.22335012257099152, 0.1839115023612976, 0.16636350750923157, 0.20935414731502533, -0.09658974409103394, 0.03231021761894226, -0.2229524552822113, -0.04745340347290039, 0.043913908302783966, 0.5406872630119324, 0.03648018091917038, 0.30136340856552124, 0.048285823315382004, -0.09392748028039932, 0.4180414378643036, 0.06543219089508057, 0.18951088190078735, 0.3136438727378845, -0.19947277009487152, -0.5320395231246948, -0.06945191323757172, 0.03676005080342293, -0.22746767103672028, -0.21896721422672272, 0.012791963294148445, -0.2581793963909149, -0.4768144190311432, 0.29658064246177673, 0.026724563911557198, 0.397138774394989, 0.24506281316280365, -0.12165240943431854, 0.05334588140249252, 0.2767212390899658, -0.00333740608766675, -0.18643450736999512, 0.03888459876179695, -0.1353648602962494, -0.05775391310453415], [-0.8832471370697021, 0.16754348576068878, -0.1458236575126648, -0.08361581712961197, -0.3136659860610962, 0.22955290973186493, -0.651894211769104, 0.33551347255706787, -0.3598420023918152, 0.16314983367919922, 0.8945274949073792, -0.05135112255811691, -0.49093499779701233, -0.398579865694046, -0.12903118133544922, 0.5210440158843994, 0.14137084782123566, -0.39828813076019287, -0.03723452240228653, 0.32106029987335205, -0.3665681481361389, -0.048032063990831375, -0.06256891041994095, -0.037335626780986786, -0.258189857006073, -0.15637126564979553, -0.4206746816635132, 0.2269981950521469, 0.04148552566766739, 0.06779497861862183, -0.05869412422180176, -0.1330193430185318, -6.906880298629403e-05, 0.03732158988714218, 0.2302236557006836, 0.15907113254070282, 0.006958130747079849, -0.16820357739925385, 0.04614581540226936, 0.14057312905788422, -0.012969990260899067, 0.07358718663454056, -0.22856327891349792, -0.4270295798778534, 0.42534229159355164, 0.034219738095998764, 0.030657757073640823, 0.01384957879781723], [0.1870526224374771, 0.1743631213903427, -0.30134668946266174, -0.31985601782798767, 0.23260684311389923, -0.40855422616004944, 0.17474262416362762, 0.013868296518921852, 0.06044917553663254, -0.6041731834411621, -0.1196771115064621, 0.20576806366443634, -0.17809705436229706, -0.3431926667690277, -0.15874911844730377, 0.28197893500328064, 0.04604236036539078, -0.5395570397377014, -0.07839778810739517, 0.3453858196735382, 0.0874595195055008, 0.009093697182834148, 0.30087557435035706, 0.054673582315444946, -0.11651556193828583, -0.37708359956741333, -0.09068956971168518, -0.05669141188263893, -0.12411864101886749, -0.043397530913352966, -0.025130201131105423, 0.04837692156434059, 0.1910058706998825, -0.09260090440511703, 0.12871544063091278, 0.3721733093261719, -0.07837055623531342, -0.04777245223522186, -0.26722395420074463, -0.3445088267326355, 0.008838042616844177, 0.004164630547165871, 0.0940128043293953, 0.11220939457416534, 0.28395015001296997, -0.12265670299530029, 0.07699216902256012, 0.2680381238460541], [0.3425489068031311, -0.2795448303222656, -0.4316389858722687, -0.3337099254131317, -0.5081385374069214, 0.3731076121330261, 0.3083793520927429, -0.5070449113845825, 0.29402482509613037, -0.18435624241828918, -0.2184813916683197, -0.02936810813844204, -0.5038794875144958, -0.2785435616970062, 0.54398512840271, 0.10986774414777756, 0.26681622862815857, -0.3808256983757019, -0.30339303612709045, -0.06666016578674316, -0.06315965950489044, 0.11572252213954926, -0.09666907787322998, 0.02419111132621765, -0.5642809271812439, -0.24652798473834991, -0.33121317625045776, 0.0009189932607114315, 0.1542159765958786, 0.22394496202468872, -0.05639937147498131, -0.2122523933649063, -0.04714855179190636, -0.042170438915491104, 0.055234093219041824, -0.22255589067935944, -0.16536198556423187, 0.025123875588178635, -0.07185083627700806, -0.06017036363482475, 0.08861135691404343, 0.032473087310791016, -0.16596198081970215, -0.39906761050224304, 0.050635725259780884, -0.04234062880277634, -0.01472629327327013, 0.10013586282730103]], [[-0.3442681133747101, -0.427844762802124, -0.17585833370685577, 0.04183292016386986, -0.2440045326948166, -0.4467211961746216, -0.43806561827659607, -0.3114129900932312, -0.1840277761220932, 0.17150461673736572, 0.07580997794866562, -0.021515900269150734, -0.3587524890899658, -0.24404123425483704, 0.27470552921295166, -0.2627923786640167, -0.08527542650699615, -0.0745636597275734, 0.1598399430513382, 0.2660204768180847, -0.19399771094322205, 0.10448052734136581, -0.00604217266663909, 0.04531008005142212, 0.05412867292761803, -0.045424699783325195, -0.15151867270469666, 0.1571483463048935, 0.0012247111881151795, -0.06784876435995102, 0.0078035881742835045, -0.0347367487847805, 0.05122573673725128, -0.2594650685787201, -0.0407811775803566, 0.08494031429290771, -0.03873756527900696, -0.04755403846502304, -0.06415313482284546, 0.0004954863688908517, -0.014996916987001896, -0.01677469164133072, -0.05313434079289436, -0.10132055729627609, -0.04092218354344368, 0.1550782024860382, 0.006593654397875071, 0.06488668918609619], [-0.3442681133747101, -0.427844762802124, -0.17585833370685577, 0.04183292016386986, -0.2440045326948166, -0.4467211961746216, -0.43806561827659607, -0.3114129900932312, -0.1840277761220932, 0.17150461673736572, 0.07580997794866562, -0.021515900269150734, -0.3587524890899658, -0.24404123425483704, 0.27470552921295166, -0.2627923786640167, -0.08527542650699615, -0.0745636597275734, 0.1598399430513382, 0.2660204768180847, -0.19399771094322205, 0.10448052734136581, -0.00604217266663909, 0.04531008005142212, 0.05412867292761803, -0.045424699783325195, -0.15151867270469666, 0.1571483463048935, 0.0012247111881151795, -0.06784876435995102, 0.0078035881742835045, -0.0347367487847805, 0.05324773117899895, -0.19274473190307617, -0.10602952539920807, 0.10121563822031021, 0.05673368275165558, -0.033947382122278214, 0.031898122280836105, 0.081639863550663, 0.021942246705293655, -0.04029103368520737, -0.03666045516729355, -0.08519177883863449, 0.012659769505262375, 0.2534925937652588, -0.02178153768181801, -0.05785374715924263]]]}, {"type": "dense", "shape": [null, null, 1], "weights": [[[-0.5066621899604797], [-0.28669849038124084], [0.18280592560768127], [0.06461288034915924], [-0.4042730927467346], [0.591066837310791], [0.3090776205062866], [-0.18668121099472046], [0.43314406275749207], [-0.5368592143058777], [-0.28415173292160034], [0.59672611951828], [-0.631030261516571], [0.38005104660987854], [-0.2501577138900757], [0.6196690797805786]], [-0.037474486976861954]]}]}