{"in_shape": [null, null, 5], "layers": [{"type": "time-distributed-dense", "shape": [null, null, 8], "weights": [[[-0.29349201917648315, 0.3882962763309479, 0.27737194299697876, 0.45277494192123413, -0.4380347430706024, -0.16480708122253418, 1.3752622604370117, 0.35322198271751404], [-0.3524073660373688, 0.34241241216659546, -0.25314417481422424, -0.3270798623561859, -0.05752672627568245, 1.1949695348739624, -0.07461708039045334, 0.8925802111625671], [-0.5103527307510376, -0.4454452097415924, 0.29217633605003357, -0.008508551865816116, -0.5144986510276794, 0.5820757746696472, 0.06390620023012161, 0.5446184873580933], [0.765785276889801, -0.43561455607414246, -0.07990514487028122, 0.23232212662696838, -0.2713448107242584, 0.3088947832584381, 0.1675500124692917, -0.15534713864326477], [-0.01146403793245554, 0.5923712849617004, -0.2731028199195862, -0.14429955184459686, -0.36062297224998474, -0.3575054109096527, -0.01026663463562727, 0.31370869278907776]], [0.2561292350292206, -0.18437206745147705, 0.10178534686565399, -0.03680356591939926, -0.16282887756824493, -0.13391952216625214, 0.012101070955395699, -0.005295929964631796]]}, {"type": "gru", "shape": [null, null, 8], "weights": [[[-1.1169898509979248, 0.48853033781051636, 0.018335258588194847, 1.2744636535644531, -1.158642053604126, 0.9405979514122009, 0.15222395956516266, 1.371423363685608, 0.0727824941277504, -0.37949857115745544, 1.1951491832733154, -0.08288532495498657, -0.013075852766633034, 0.22951923310756683, 0.011655616573989391, -0.3320365846157074, -0.4830629825592041, -0.02516375109553337, -0.193966343998909, 0.2522633969783783, -0.17424994707107544, -0.050100069493055344, 0.3045690059661865, 0.20972636342048645], [-0.4277421236038208, -0.4048813581466675, -0.4348272979259491, 0.8144071102142334, 0.1852278709411621, -1.0040535926818848, -1.133618950843811, 1.0019828081130981, -0.5741835832595825, 0.03642405569553375, -0.7087814807891846, -0.021074460819363594, 0.3495807647705078, -0.9974802732467651, 0.5406153798103333, -0.7328222990036011, 0.11758462339639664, -0.2827396094799042, 0.11103563755750656, -0.3914192318916321, -0.23335769772529602, -0.04694490507245064, -0.6335964202880859, 0.28804436326026917], [1.0051730871200562, -0.7474998831748962, 1.4872188568115234, 0.5467127561569214, -1.3460713624954224, 1.352707862854004, 1.346717119216919, 0.46526679396629333, -0.13280026614665985, 0.2247183471918106, -0.29410895705223083, 0.23212459683418274, 0.8649681210517883, -0.6698294281959534, -0.0537748821079731, 0.9537768363952637, 0.08591807633638382, 0.05068867653608322, 0.4471067488193512, -0.5308632850646973, 0.06410498172044754, 0.39088138937950134, -0.4363447427749634, -0.1376810073852539], [0.3313959538936615, -0.33119165897369385, 0.5645738840103149, 0.9546232223510742, -1.1518539190292358, 0.6346361041069031, -0.01595899648964405, 1.08999502658844, 0.3964698910713196, 0.025734422728419304, -0.10816348344087601, 0.11562475562095642, 0.07482067495584488, -0.29380106925964355, 0.508305549621582, -0.12356399744749069, -0.17586757242679596, -0.34651511907577515, -0.41750410199165344, -0.03064841777086258, 0.31234869360923767, 0.04593396559357643, 0.0763917937874794, -0.12685571610927582], [0.17117968201637268, -0.4363846480846405, -0.6514460444450378, -0.26599040627479553, 0.2974666655063629, -0.7296115756034851, 0.5484994053840637, -0.3245488405227661, -0.26107221841812134, -0.33724603056907654, 0.19706808030605316, -0.5776625275611877, -0.20088991522789001, 0.24210958182811737, 0.3858661949634552, -0.4630720019340515, 0.42985695600509644, 0.09001603722572327, -0.05123032629489899, -0.20683059096336365, 0.38112154603004456, -0.18858602643013, -0.4378649592399597, 0.1970859169960022], [-1.2522481679916382, 0.4570316970348358, -0.5463694334030151, 0.43022090196609497, 0.33525556325912476, -0.9571407437324524, -0.730042576789856, 0.48502907156944275, 0.40405410528182983, -0.34388166666030884, 0.03385614603757858, -0.0356467105448246, -0.45912644267082214, 0.4519903063774109, 0.2471989393234253, -0.46677637100219727, 0.15187962353229523, 0.2393360584974289, -0.3871488869190216, 0.24725845456123352, -0.46790143847465515, 0.03819989413022995, -0.28885897994041443, 0.4587000012397766], [-0.29881539940834045, 0.1333906352519989, 0.5822861194610596, 0.133019357919693, -0.7968652248382568, 0.5206923484802246, -0.8032805919647217, 1.889959692955017, -0.3153039813041687, 0.62679523229599, 0.2044752836227417, 0.5169102549552917, 0.09270219504833221, -1.1015218496322632, 0.01966538280248642, -0.6612770557403564, -0.41226980090141296, -0.13920246064662933, 0.26108065247535706, -0.5178946852684021, 0.3312331438064575, 0.6427934765815735, -0.5083368420600891, 0.1850023716688156], [-0.15738102793693542, 0.11205129325389862, -0.22481553256511688, -0.01967165805399418, -0.33571743965148926, 0.03745299577713013, -0.6254335045814514, 0.04176706448197365, -0.024194277822971344, 0.6007091999053955, 0.017497384920716286, -0.33395376801490784, -0.1820419728755951, -0.05377274006605148, 0.18765531480312347, 0.18280914425849915, -0.19917255640029907, -0.05145099014043808, -0.04346344992518425, 0.36703380942344666, 0.19093197584152222, -0.010571947321295738, 0.002812387887388468, 0.49608826637268066]], [[0.09453409165143967, -0.8799570202827454, -0.07724476605653763, -0.014822003431618214, -0.11293589323759079, -1.4495636224746704, -0.06855499744415283, 0.542766273021698, 0.04912017658352852, -0.44949871301651, -0.5721763968467712, -0.4447251856327057, -0.15499672293663025, 0.04589914157986641, -0.014629281125962734, -0.49888497591018677, 0.4211248755455017, 0.01372974831610918, 0.16188645362854004, 0.02566901221871376, -0.17431166768074036, -0.5066278576850891, 0.23763194680213928, -0.42296668887138367], [0.937852144241333, 0.7041683197021484, -0.16815316677093506, 0.4716513454914093, -0.6681810021400452, 1.7882441282272339, 0.22749540209770203, -0.7875697612762451, -0.6715341806411743, -0.5820972919464111, -0.10507690161466599, 0.13194479048252106, 0.10304456949234009, -0.4369969964027405, 0.05959760770201683, 0.1924985945224762, -0.12565062940120697, 0.8179219365119934, 0.5349563956260681, 0.34556904435157776, -0.34789255261421204, -0.08927373588085175, -0.17517170310020447, -0.3280094265937805], [1.5247900485992432, -0.11297819018363953, -0.7849245071411133, -0.3507534861564636, 0.0214932132512331, -0.6451854705810547, -0.221248060464859, -0.4239031970500946, -0.10624106973409653, -0.04906878620386124, -0.6850516200065613, 0.483257532119751, 0.44842132925987244, -0.7456047534942627, 0.30237480998039246, 0.40566134452819824, 0.11531989276409149, 0.39050179719924927, 0.10623937845230103, -0.33470651507377625, 0.09662766754627228, -0.1692814975976944, -0.1276751309633255, 0.011941627599298954], [-0.5437353849411011, 0.35092830657958984, -0.6250091195106506, 0.5800557136535645, 0.013614330440759659, 0.5942950248718262, -0.3022928237915039, -0.24537937343120575, 0.27470335364341736, -0.08696142584085464, -0.059937238693237305, 0.5084776878356934, 0.0751166120171547, 0.32969847321510315, 0.11753468960523605, 0.09541705995798111, 0.08776839822530746, -0.4719577729701996, -0.39228498935699463, -0.052664048969745636, -0.25844740867614746, -0.3557354509830475, -0.28848332166671753, -0.1951785832643509], [-0.03746290132403374, -0.36838865280151367, 0.5643488168716431, 0.018758101388812065, -0.1562195122241974, 0.10557452589273453, 0.32278189063072205, 0.4904595613479614, 0.14051453769207, 0.6096007227897644, 0.09227915853261948, -0.2563781142234802, 0.033497150987386703, -0.11568713188171387, -0.07748796790838242, 0.31463131308555603, -0.08610262721776962, -0.17010566592216492, 0.1294359713792801, -0.07069769501686096, 0.1333734542131424, -0.1315804272890091, -0.013292663730680943, -0.24877940118312836], [0.045474786311388016, 0.5242259502410889, 0.6508775949478149, -0.07927468419075012, 0.05805104225873947, 0.09965886920690536, 0.23146873712539673, -0.675212562084198, -0.04199592396616936, 0.3299665153026581, 0.01681474782526493, -0.10235486924648285, -0.22633901238441467, -0.03018898144364357, -0.9430187940597534, 0.5669741034507751, -0.16585984826087952, 0.13590385019779205, -0.14245837926864624, -0.5336804389953613, 0.45213401317596436, 0.13150329887866974, 0.2895573377609253, 0.47051194310188293], [0.09424155950546265, 1.2395861148834229, 0.10908439010381699, -0.4806031882762909, -0.03802604228258133, 1.106465220451355, 0.5343823432922363, 0.31477221846580505, -0.27425888180732727, -0.5115929841995239, 0.4749825596809387, -0.022165652364492416, 0.3408886790275574, 0.4816582500934601, -0.20289261639118195, 0.5922383666038513, -0.14032220840454102, 0.07257236540317535, 0.20473851263523102, -0.13795273005962372, -0.33607563376426697, 0.36154645681381226, 0.49009332060813904, -0.3034919500350952], [-1.0190982818603516, 0.5020102858543396, -0.6508885025978088, 0.273784339427948, 0.14433278143405914, -0.6419742703437805, -0.4910249412059784, -0.09601985663175583, -0.35059741139411926, 0.09794463962316513, 0.10410282760858536, -0.028104139491915703, -0.5345120429992676, 0.08763904124498367, -0.08937769383192062, -0.29246896505355835, 0.08598469942808151, -0.4192894399166107, 0.10118404775857925, 0.3277638852596283, -0.1710231602191925, -0.5190847516059875, 0.030716415494680405, 0.37150996923446655]], [[0.35772788524627686, 0.1081419587135315, -0.3396121859550476, 0.13329960405826569, -0.6253443360328674, -0.10192903876304626, -0.4507841467857361, -0.7566078901290894, -0.03241487592458725, 0.12480255961418152, 0.11516410857439041, 0.21307547390460968, 0.08503574132919312, -0.003837013151496649, 0.016879074275493622, 0.05459266155958176, -0.032819170504808426, 0.07058295607566833, 0.12538637220859528, -0.06737697124481201, -0.04895903542637825, 0.1460556834936142, 0.12163643538951874, -0.020551158115267754], [0.35772788524627686, 0.1081419587135315, -0.3396121859550476, 0.13329960405826569, -0.6253443360328674, -0.10192903876304626, -0.4507841467857361, -0.7566078901290894, -0.03241487592458725, 0.12480255961418152, 0.11516410857439041, 0.21307547390460968, 0.08503574132919312, -0.003837013151496649, 0.016879074275493622, 0.05459266155958176, -0.00668012211099267, 0.07592246681451797, 0.1071929782629013, -0.08875396102666855, -0.04533868283033371, 0.06492214649915695, 0.10616564005613327, -0.023667454719543457]]]}, {"type": "dense", "shape": [null, null, 1], "weights": [[[-0.5664975643157959], [-0.717703104019165], [0.45395737886428833], [0.05477652698755264], [-0.8824958801269531], [0.621356189250946], [-0.9627107977867126], [-0.6115210652351379]], [0.022567259147763252]]}]}