{"in_shape": [null, null, 4], "layers": [{"type": "time-distributed-dense", "shape": [null, null, 8], "weights": [[[0.6009742617607117, 0.7580140233039856, -0.6162448525428772, -0.9554339647293091, 1.130550742149353, 0.990182101726532, 0.021081827580928802, 0.624076247215271], [-0.7157818675041199, 0.3510500192642212, 0.1787860244512558, 0.16073480248451233, 0.6459388136863708, -0.06659425795078278, 0.7903590202331543, -0.25274139642715454], [0.10983689874410629, -0.7432341575622559, 0.030528010800480843, -0.860346794128418, -0.5982906222343445, -0.21885766088962555, 0.11940961331129074, 0.004405467305332422], [-0.12473011761903763, 0.2203132063150406, -0.08894135802984238, 0.16447767615318298, 0.11189499497413635, 0.5500654578208923, -0.2295287847518921, -0.5823800563812256]], [0.13546235859394073, 0.12314331531524658, -0.0752464234828949, 0.26134422421455383, -0.11587762087583542, -0.006539779249578714, -0.058558106422424316, 0.08391344547271729]]}, {"type": "gru", "shape": [null, null, 16], "weights": [[[0.6695296764373779, 0.009184799157083035, 1.1147633790969849, 0.3364710807800293, 0.09578947722911835, -0.5614017248153687, -0.3073000907897949, 0.576722264289856, -0.5197829008102417, 1.2520116567611694, -0.22795110940933228, -0.1721392422914505, 0.04433740675449371, -0.024571573361754417, 0.5240302681922913, -0.4447520077228546, 0.007575795985758305, -0.3733689486980438, 0.06272033601999283, -0.30996185541152954, 0.8263190984725952, -0.3826022744178772, -0.2894228398799896, -0.07770124822854996, -0.3058493733406067, 0.6163786053657532, -0.11783706396818161, -0.25515297055244446, 0.2854999303817749, -0.6552044749259949, -0.19126440584659576, -0.17571888864040375, 0.012437029741704464, -0.2867237329483032, 0.0030734490137547255, 0.2581729292869568, 0.2041943520307541, 0.15266765654087067, 0.25358349084854126, 0.39874500036239624, 0.3470463454723358, 0.2623893618583679, -0.15159298479557037, 0.08299646526575089, -0.2312733381986618, 0.22950375080108643, -0.04270748421549797, 0.264670193195343], [-0.025821074843406677, 0.433664470911026, -0.46110814809799194, 0.6826848387718201, -0.0485483780503273, 0.12658222019672394, 0.14283978939056396, 0.09736841917037964, -0.28608906269073486, -0.24419370293617249, 0.8074331283569336, 0.24578700959682465, -0.14923210442066193, 0.5521765947341919, -0.5683755278587341, 0.03964504227042198, 0.047394558787345886, -0.13403894007205963, 0.6556822657585144, -0.783613920211792, 0.8304554224014282, 0.5897095203399658, -0.03644821047782898, -0.7275978922843933, -0.06871648132801056, -0.13676929473876953, 0.1856156438589096, 0.3858548104763031, 0.35966169834136963, 0.049096815288066864, -0.8614836931228638, 0.4303203821182251, -0.09800385683774948, 0.23896193504333496, -0.10222525894641876, 0.4245862662792206, 0.05361739546060562, 0.10123362392187119, -0.0071586607955396175, -0.021827030926942825, 0.10207632929086685, -0.16923029720783234, 0.09884636849164963, -0.13734371960163116, 0.21094569563865662, 0.04498475044965744, 0.03850964829325676, 0.1892923265695572], [-0.7188666462898254, -0.6714801788330078, -0.49592334032058716, -0.3398904502391815, 0.0937589779496193, 0.020617147907614708, 0.5815264582633972, -0.8803539872169495, 0.3607056438922882, -0.388054221868515, 0.06194956600666046, 0.1648377776145935, -0.3911164402961731, 0.21569345891475677, -0.3739466369152069, 0.6399099230766296, 0.14919497072696686, 0.2975011169910431, -0.8508679866790771, 0.7707710862159729, -0.8479204773902893, 0.7044742107391357, 0.953986644744873, -0.24509434401988983, -0.12126385420560837, -0.6718283891677856, 0.04808429628610611, -0.23265938460826874, -0.6243329048156738, 0.42845872044563293, 0.9717149138450623, 0.21822138130664825, 0.25059932470321655, -0.19068042933940887, -0.19307734072208405, -0.20025813579559326, 0.24501420557498932, 0.0938425362110138, -0.4462234079837799, -0.37680843472480774, 0.20379669964313507, -0.4277589023113251, 0.18600550293922424, 0.11475565284490585, 0.3166489601135254, 0.1797015517950058, 0.0031819744035601616, -0.20754922926425934], [0.09166717529296875, -1.066269040107727, -0.1288607120513916, -1.0472623109817505, 0.7132993936538696, 0.35146233439445496, 0.37961333990097046, -0.20805127918720245, 0.6980060338973999, 0.37797972559928894, 0.07317788898944855, -0.15611699223518372, -0.39694854617118835, 0.4991704821586609, -0.5737552046775818, 0.8166182637214661, 0.10841406881809235, 0.30571675300598145, -1.0436135530471802, 0.2121518850326538, -1.2043752670288086, 0.9456053376197815, 0.1494709700345993, -0.7405472993850708, -0.8093575835227966, -1.337057113647461, 0.846485435962677, 0.10910315811634064, 0.2733650207519531, -0.22173792123794556, 2.2074105739593506, 0.16457192599773407, 0.3128489553928375, -0.2117130011320114, -0.28526273369789124, 0.15963125228881836, -0.42282938957214355, 0.2036035656929016, 0.038516413420438766, 0.07213281095027924, -0.05838470160961151, 0.043234992772340775, 0.2861655354499817, -0.10911703109741211, -0.09134796261787415, -0.21675874292850494, 0.08749944716691971, -0.1695789396762848], [-0.36125195026397705, 1.2836337089538574, -0.5913161039352417, 0.22172032296657562, -0.4154365062713623, -0.33576637506484985, -0.7020832300186157, -0.23710140585899353, -0.7627542614936829, -0.4312085509300232, 0.6749076843261719, -0.5547913312911987, 0.08706789463758469, 0.9786282181739807, -0.4029015004634857, 0.10390631854534149, -0.1143004521727562, 0.09532678127288818, 0.21790845692157745, -0.08080043643712997, 0.5912542939186096, 0.29210618138313293, -0.0317600816488266, 0.010885920375585556, -0.05731314420700073, 0.6984354257583618, -0.1964500993490219, 0.35516172647476196, 0.00238161813467741, 0.3307109773159027, -1.2005759477615356, 0.5019180774688721, -0.17049986124038696, 0.12219381332397461, 0.24072661995887756, -0.08610515296459198, 0.048443447798490524, 0.31221941113471985, -0.2670588195323944, -0.21751061081886292, -0.21883025765419006, 0.24439316987991333, -0.19528815150260925, 0.08074362576007843, -0.23658360540866852, 0.3702956438064575, 0.3064612150192261, -0.22037845849990845], [0.30343347787857056, -0.07861238718032837, -0.2781752943992615, 1.3352807760238647, 0.5853645205497742, 0.9141108393669128, 0.08729712665081024, 0.8785437941551208, -0.7600175738334656, -0.23524317145347595, -0.23104166984558105, 0.27000340819358826, 0.3030182719230652, -0.4617486596107483, 0.6228187084197998, -0.6753560900688171, -0.073244608938694, -0.29107505083084106, 1.1169754266738892, -0.9655488133430481, 0.4957181513309479, -0.28118017315864563, -0.8834138512611389, -0.21416188776493073, 0.09339933097362518, 0.30571427941322327, -0.3598536252975464, 0.6716023087501526, 0.5717708468437195, -0.18897581100463867, -1.3026773929595947, -0.24729709327220917, -0.24387170374393463, 0.08120914548635483, 0.123345285654068, 0.05413791909813881, 0.19711734354496002, 0.01260287780314684, -0.2704313099384308, -0.10910816490650177, -0.15752558410167694, 0.10883228480815887, 0.1625911295413971, 0.3008742034435272, 0.18895050883293152, 0.1452559381723404, 0.1462956815958023, 0.264013409614563], [-0.749998927116394, 0.8737782835960388, -0.5529668927192688, 0.20768213272094727, -0.9017520546913147, 0.502729058265686, 0.07613787055015564, -0.5585010647773743, -0.4272761642932892, -1.5732464790344238, 0.5316252708435059, 0.025767231360077858, 0.6129863858222961, 0.632647693157196, -0.7758626341819763, 0.4398764967918396, -0.20231814682483673, 0.38451963663101196, 0.13978053629398346, -0.6133324503898621, 0.1447623074054718, 0.013021552003920078, 0.7255144119262695, 0.3598046898841858, 0.15437790751457214, -0.021188313141465187, -0.5182139277458191, 0.5561032891273499, 0.18760855495929718, 1.164507508277893, -0.4133477509021759, 0.14527952671051025, 0.013093804940581322, 0.33170732855796814, -0.21777507662773132, 0.007529598195105791, 0.10143443197011948, 0.1213274896144867, -0.2580752670764923, 0.345368355512619, -0.4213312268257141, 0.09727660566568375, -0.226961150765419, -0.16705946624279022, 0.0031305146403610706, -0.27669790387153625, -0.18224354088306427, -0.42306652665138245], [0.16015246510505676, 0.7543148994445801, 1.1466346979141235, -0.16715161502361298, -0.6354340314865112, -0.4469701647758484, -1.2976195812225342, 0.7363624572753906, -0.3427540957927704, 0.8977483510971069, 0.01532270759344101, -0.5022379159927368, -0.7713943123817444, 0.3117516040802002, -0.4895351231098175, 0.3537366986274719, 0.23096077144145966, -0.2541026473045349, 0.045599132776260376, -0.4746761620044708, 0.5800909399986267, 0.017175991088151932, 0.03465774282813072, 0.11084792017936707, 0.032117582857608795, 0.6550136208534241, -0.41593343019485474, -0.49918651580810547, 0.20027658343315125, -0.37476229667663574, -0.5590060353279114, 0.23380517959594727, -0.022414546459913254, -0.10150185227394104, 0.22378867864608765, -0.011643432080745697, -0.023239465430378914, 0.14265616238117218, 0.23283237218856812, 0.19903220236301422, -0.028767582029104233, -0.1372772604227066, -0.2188331037759781, -0.1993652731180191, 0.14403200149536133, 0.02885729819536209, 0.1515386700630188, 0.10261846333742142]], [[0.09737829118967056, -0.07286563515663147, 0.515139102935791, 0.14408618211746216, -0.07608267664909363, 0.12079405039548874, -0.275436133146286, -0.08638883382081985, 0.0350053533911705, -0.12061166763305664, -0.2618623673915863, -0.38739797472953796, -0.03826989606022835, 0.4956183135509491, 0.4853196144104004, -0.43785303831100464, 0.592850387096405, -0.024638544768095016, 0.1254517138004303, 0.4278125762939453, -0.1723126769065857, -0.26102423667907715, -0.2947658896446228, -0.07773913443088531, 0.30124497413635254, 0.6886975765228271, 0.5148946642875671, -0.0322643481194973, 0.4276447296142578, 0.013168121688067913, 0.5250537991523743, 0.44011351466178894, 0.14743180572986603, 0.06522959470748901, -0.24409323930740356, 0.08512409776449203, -0.025224434211850166, 0.19323821365833282, 0.2551555633544922, 0.1799103319644928, -0.4818304181098938, -0.02201874926686287, 0.13269157707691193, 0.16854538023471832, 0.16702944040298462, 0.3809223175048828, 0.0015501478919759393, 0.029744112864136696], [-0.12363684922456741, 0.06414794921875, -0.8273611664772034, 0.25290656089782715, -0.021087033674120903, -0.05959666892886162, 0.09197261184453964, -0.20142699778079987, 0.11982101202011108, -1.0948231220245361, -0.038988351821899414, 0.809942364692688, -0.3973848819732666, -0.595487654209137, -0.42499208450317383, -0.10864455997943878, -0.12179156392812729, -0.30469706654548645, -0.2069060057401657, -0.5721379518508911, -0.09053143858909607, 0.26608550548553467, 0.7329165935516357, 0.14265795052051544, -0.2419375479221344, -0.07981731742620468, -0.36218833923339844, 0.7159029245376587, 0.2746182382106781, 1.054738163948059, -0.222227543592453, 0.11881385743618011, 0.23206335306167603, 0.11522345244884491, 0.06804247200489044, -0.30500727891921997, 0.3241639733314514, -0.2902039587497711, 0.08905830979347229, -0.13145491480827332, 0.07520131021738052, 0.1173095628619194, -0.020283950492739677, 0.12338881939649582, -0.13574619591236115, -0.051322344690561295, -0.21746878325939178, -0.017714103683829308], [0.3883174955844879, 0.06186884269118309, 0.9975079894065857, -0.39276862144470215, -0.3979291319847107, 0.027188701555132866, -0.4076235294342041, -0.0802622139453888, 0.3330991566181183, 0.5344930291175842, 0.11804185807704926, -0.18715041875839233, -0.7156728506088257, 0.10958775877952576, -1.0568885803222656, 0.14659728109836578, -0.18440157175064087, -0.04626361280679703, -0.5812337398529053, 0.4529617428779602, 0.6372217535972595, -0.5240590572357178, 0.23758254945278168, 0.39341598749160767, -0.19937925040721893, -0.3048938810825348, -0.8966898918151855, -0.7087263464927673, 0.05173596739768982, -0.19118916988372803, -0.47594353556632996, 0.403942346572876, -0.02233518473803997, -0.10280481725931168, -0.02667836658656597, 0.3969145119190216, 0.30389517545700073, 0.08726298809051514, -0.16207993030548096, -0.16279733180999756, 0.4489814341068268, 0.049494657665491104, 0.17483431100845337, -0.17167748510837555, -0.2606353759765625, -0.23186233639717102, -0.1458253115415573, 0.0959780216217041], [0.8555346727371216, -0.2911137342453003, -0.15295185148715973, 0.10705171525478363, 0.4096548855304718, 0.8282486796379089, 0.3231508731842041, 0.887176513671875, -0.30380886793136597, 0.16990332305431366, 0.42020750045776367, 0.25705015659332275, -0.08009231835603714, -0.17840202152729034, 0.46077442169189453, 0.1461309939622879, -0.3255302608013153, -0.12713874876499176, -0.47428813576698303, -0.22093404829502106, -0.1642833799123764, 0.05379875749349594, -0.11147835850715637, 0.2566845715045929, -0.5790126323699951, -0.7121458053588867, 0.06315942853689194, -0.4609483480453491, -0.4250792860984802, -0.5129649043083191, -0.4253038763999939, -0.5754474997520447, -0.14199551939964294, -0.1345963180065155, 0.018663305789232254, 0.3637174367904663, -0.5315260887145996, -0.11907678097486496, 0.10999924689531326, -0.14099612832069397, 0.4751319885253906, 0.20352038741111755, -0.22763575613498688, -0.3860562741756439, 0.456863671541214, 0.2298697680234909, 0.5024715065956116, 0.3631969690322876], [0.4806351959705353, -0.08760219067335129, 0.2849884033203125, -0.49534809589385986, -0.17647482454776764, -0.57807457447052, 0.4868626892566681, 0.07328588515520096, -0.5923993587493896, -0.35244396328926086, 0.021283620968461037, 0.3634597063064575, -0.5108147263526917, -0.2323295921087265, -0.2752320468425751, 0.2326609343290329, -0.10851505398750305, -0.3792327344417572, 0.5144458413124084, 0.010571524500846863, 0.5170459151268005, -0.086431123316288, -0.006614131387323141, 0.34280458092689514, -0.004797941539436579, -0.5592330098152161, -0.8198351263999939, 0.12308576703071594, 0.19878734648227692, 0.36791762709617615, -0.6718030571937561, 0.4742608368396759, 0.05932774394750595, 0.04983996972441673, 0.3733629584312439, -0.4808526635169983, 0.17679013311862946, 0.011170065961778164, -0.8159144520759583, -0.3894135355949402, -0.13299646973609924, -0.2661432921886444, 0.050782520323991776, 0.15308909118175507, -0.5060201287269592, -0.12480655312538147, -0.3122844696044922, 0.10215509682893753], [-0.6421952247619629, 0.3746400773525238, -0.5162696242332458, -0.8033143877983093, -1.1794623136520386, -0.42214950919151306, -1.9853324890136719, -1.2733567953109741, 0.030742548406124115, -0.15408828854560852, 0.1565432995557785, -0.9837596416473389, -2.0197508335113525, 0.7716363668441772, -1.1300048828125, 0.38730430603027344, 0.5165377855300903, 0.18878218531608582, 0.17079082131385803, -0.12755155563354492, 0.03307771310210228, 0.2094157636165619, 0.1657278686761856, -0.005779618863016367, -0.6011596918106079, 0.4644729793071747, 0.23723742365837097, 0.08408653736114502, 0.3327619135379791, -0.4258092939853668, 0.29205816984176636, 1.429925799369812, -0.05782799422740936, 0.46612316370010376, 0.17830316722393036, 0.2053329050540924, -0.32739728689193726, 0.3759606182575226, 0.5776116251945496, 0.170646533370018, -0.07375688850879669, 0.2540806233882904, -0.1166170984506607, 0.18423032760620117, -0.2709049582481384, -0.21923501789569855, -0.022141950204968452, -0.14341872930526733], [-0.50641930103302, 0.067711241543293, -0.06617076694965363, -0.5676254034042358, -0.4827955961227417, -0.16895166039466858, -0.7964781522750854, -0.2916470468044281, 0.31561699509620667, 0.5891036987304688, 0.40221133828163147, 0.11413442343473434, -1.4222570657730103, -0.026002297177910805, 0.015504560433328152, -0.35396963357925415, -0.02857128530740738, -0.37655889987945557, 0.10579285025596619, -0.1524944305419922, -0.06981196254491806, -0.6252915859222412, -0.9569246768951416, -0.01759820058941841, -0.48349079489707947, 0.3384140133857727, 0.23397164046764374, -0.44241541624069214, 0.5016731023788452, -1.5629498958587646, -0.1840936690568924, 0.10350951552391052, -0.12649932503700256, 0.11954210698604584, -0.18662117421627045, 0.17590318620204926, -0.07607126235961914, 0.30328381061553955, -0.07548975944519043, -0.02527456171810627, -0.011266416870057583, 0.5045450925827026, -0.05307825282216072, 0.08793606609106064, -0.3797677457332611, -0.18761520087718964, 0.23689940571784973, -0.18654152750968933], [0.1792161613702774, 0.3053577244281769, 0.29964718222618103, -0.3956485390663147, -0.18252143263816833, -0.10036157071590424, -0.6929971575737, -0.03473355621099472, -0.18632224202156067, 0.6609691381454468, 0.02175629697740078, -0.10936471819877625, -0.5157535672187805, 0.21650369465351105, -0.5562663674354553, 0.12951458990573883, -0.49372196197509766, 0.22323542833328247, -0.4830823838710785, -0.06605716049671173, 0.5311434864997864, -0.30943530797958374, -0.6940862536430359, -0.25808149576187134, 0.228349968791008, 0.002959540579468012, -0.5090606212615967, -0.5245029926300049, 0.051990050822496414, -1.1924667358398438, -0.18846146762371063, -0.47293204069137573, -0.024188140407204628, 0.2927905023097992, -0.07107473909854889, 0.4662584960460663, -0.28973186016082764, 0.027773741632699966, -0.38638201355934143, -0.12051758170127869, -0.18766286969184875, 0.18866559863090515, -0.12221492826938629, -0.27591028809547424, 0.19360136985778809, -0.021256638690829277, 0.10629080981016159, 0.04119810834527016], [-0.2838802933692932, -0.2039739042520523, 0.5029112100601196, 0.1877366304397583, 0.07714616507291794, 0.4058982729911804, -0.28843560814857483, 0.35985422134399414, -0.12143811583518982, 0.39500176906585693, 0.4794512987136841, -1.1530678272247314, -0.4440383017063141, -0.22437018156051636, 0.12370104342699051, -0.2907359302043915, 0.09267008304595947, -0.5624679923057556, -0.014561531133949757, 0.1636815071105957, -0.16341301798820496, -0.7715770602226257, -0.5681405663490295, 0.1734420210123062, 0.1968301683664322, 0.12013967335224152, 0.5985113978385925, -0.2805463373661041, -0.21515029668807983, -1.000376582145691, 0.022053968161344528, 0.05709712952375412, -0.3624899685382843, 0.20487460494041443, -0.18036261200904846, 0.4961841106414795, -0.39166104793548584, 0.19937244057655334, 0.1615108698606491, 0.22779978811740875, -0.10925409197807312, 0.2514891028404236, -0.27767765522003174, 0.09871070832014084, 0.21886351704597473, -0.04324715584516525, 0.30946022272109985, -0.0685313493013382], [0.5053370594978333, 0.33996641635894775, -0.6575762629508972, -0.7023335099220276, 0.10166076570749283, 0.11083392798900604, -0.09313209354877472, -0.12820743024349213, 0.4936724603176117, -0.4471014142036438, 0.4329051971435547, -0.13491687178611755, 0.006308595649898052, -0.5191258192062378, -0.18201671540737152, 0.19467474520206451, -0.32522881031036377, 0.08993367105722427, 0.026440875604748726, -0.5180908441543579, -0.19825004041194916, 0.30644863843917847, 0.21527478098869324, -0.007763398811221123, -0.1254798173904419, -0.5708257555961609, -0.06944990903139114, 0.1583763062953949, 0.3817041516304016, 0.38545864820480347, -0.3406434655189514, -0.6200814247131348, -0.09292321652173996, 0.16772566735744476, -0.08772443979978561, 0.059569571167230606, 0.015491499565541744, 0.03336634859442711, 0.2715124785900116, -0.3133718967437744, 0.1288003772497177, -0.12860780954360962, -0.42487579584121704, -0.16749697923660278, -0.07024458050727844, -0.49019503593444824, 0.17702917754650116, 0.41617804765701294], [-0.5746868848800659, -0.6130498051643372, -1.6139127016067505, -0.04808986559510231, -0.04585353657603264, 0.598791241645813, 0.3468908369541168, -0.7649201154708862, -0.59208083152771, -1.3259800672531128, -0.3193221390247345, 0.29514938592910767, 1.348891019821167, -0.31622788310050964, 0.03870642930269241, -0.2813461124897003, 0.02673240937292576, 0.6967950463294983, 0.13109064102172852, 0.05347047746181488, -0.5942553877830505, 0.2638460099697113, 0.14471927285194397, 0.07937538623809814, 0.06760792434215546, 0.22032718360424042, 0.2518453001976013, 0.1937294751405716, 0.1242595762014389, -0.12631501257419586, -0.24776114523410797, 0.7727583646774292, 0.30422788858413696, -0.023069702088832855, -0.01966266892850399, 0.04917128384113312, -0.10570968687534332, 0.06221337243914604, 0.42029812932014465, 0.17051850259304047, -0.2984127998352051, -0.16001173853874207, 0.12386486679315567, 0.021277165040373802, -0.3783380389213562, 0.03809913620352745, -0.027659181505441666, 0.4768523573875427], [0.2963002026081085, 0.37052276730537415, -0.4032939374446869, 0.002171698957681656, 1.5079338550567627, -0.04270200803875923, 1.1827672719955444, 1.097055435180664, -0.0567537397146225, 0.08888068050146103, -0.570757269859314, -0.5034788250923157, 1.1399098634719849, -0.4312615394592285, 1.5912202596664429, -0.10377173125743866, 0.44645002484321594, 0.42370182275772095, 0.8545965552330017, 0.6213501691818237, 0.5627835392951965, -0.6497151851654053, -0.4877159297466278, -0.09242578595876694, 0.7963753938674927, 0.06413983553647995, 0.5720741748809814, 0.27690792083740234, 0.8636073470115662, 0.4556330442428589, 0.37906748056411743, -0.1481836438179016, 0.4368249475955963, -0.3917344808578491, -0.2696165442466736, 0.16941925883293152, 0.2930709719657898, -0.20952755212783813, -0.048646051436662674, 0.0037661059759557247, -0.3348122239112854, -0.42445802688598633, 0.19292671978473663, 0.5432284474372864, 0.008776715956628323, 0.031140021979808807, 0.08358307927846909, -0.11246832460165024], [0.7208114862442017, 0.12764519453048706, 0.9441695213317871, 0.960377037525177, 0.7657145857810974, 0.7702860236167908, 1.968112826347351, 1.3251922130584717, -0.00796719640493393, 0.8747910857200623, -0.23185396194458008, 1.0995874404907227, 0.8345341086387634, -0.14706525206565857, 1.2845956087112427, 0.29033055901527405, 0.5116744041442871, -1.131825566291809, 0.321574330329895, -0.790237307548523, -0.5546302199363708, -0.4429415464401245, -0.008608170785009861, -0.20037434995174408, 0.10915010422468185, 0.4587456285953522, 0.9597477316856384, -0.722886860370636, -0.2969612777233124, 0.13992753624916077, -0.33338242769241333, -0.5368325710296631, 0.018166201189160347, -0.05609259754419327, -0.10297288745641708, 0.20488016307353973, -0.13961592316627502, -0.37301111221313477, -0.46412622928619385, 0.31174078583717346, -0.40685009956359863, 0.2605382204055786, -0.1722998023033142, 0.12784595787525177, 0.4932558238506317, 0.36529189348220825, 0.26856541633605957, -0.1946873962879181], [0.12933824956417084, 0.9090373516082764, 0.45528504252433777, 0.7812588810920715, 0.7676382064819336, -0.013403945602476597, 0.7632865309715271, -0.16840045154094696, -0.23093783855438232, 0.19395937025547028, -0.0019815878476947546, -0.13658259809017181, 0.3613502085208893, -0.04558316245675087, 0.9985186457633972, 0.9424064755439758, -0.27544093132019043, 0.10423813760280609, 0.6189160346984863, -0.27063342928886414, 0.24577119946479797, -0.16133376955986023, -0.23133791983127594, -0.7630096673965454, 0.607551634311676, -0.006077291909605265, 0.49571073055267334, 0.7031162977218628, 0.22932222485542297, -0.0026295697316527367, 0.12459420412778854, -0.5259031057357788, 0.4477076828479767, -0.3894849121570587, -0.42708227038383484, -0.41845667362213135, -0.4514140188694, -0.008911777287721634, -0.08176525682210922, -0.11541617661714554, -0.027592668309807777, 0.10605088621377945, 0.03369792178273201, 0.06137138977646828, 0.3311750888824463, -0.38762086629867554, 0.018016275018453598, 0.2825664281845093], [0.8238422870635986, -0.5467376112937927, 0.12387973815202713, 0.13430142402648926, 0.9774037599563599, 0.8535240888595581, 0.39929506182670593, 0.9092196226119995, -0.23292945325374603, 0.4397170841693878, 0.010135971009731293, 0.43003249168395996, 0.3947855830192566, 0.17104414105415344, 0.5486283302307129, -0.012987153604626656, 0.0926520824432373, -0.18030810356140137, -0.04284881055355072, 0.10490008443593979, 0.15616846084594727, 0.5138182640075684, -0.16500332951545715, -0.254758358001709, -0.5878682136535645, -0.21012909710407257, 0.28291627764701843, 0.27149778604507446, 0.07496382296085358, -0.41553062200546265, 0.1301669031381607, -0.2835986912250519, -0.1581532210111618, 0.11258610337972641, -0.3804137706756592, 0.16668981313705444, -0.04282156005501747, -0.1432904750108719, 0.1231352686882019, -0.13919121026992798, 0.22777006030082703, -0.12882128357887268, -0.27132099866867065, -0.028782444074749947, 0.0249050073325634, -0.006096736993640661, 0.13258355855941772, 0.12222159653902054], [-0.4664080739021301, 0.15480200946331024, -0.28581559658050537, -0.49389857053756714, 0.16621600091457367, 0.4933786392211914, 0.4074479639530182, -0.2753206491470337, -0.1700296550989151, -0.5670831799507141, 0.15352454781532288, 0.24335575103759766, 0.38245490193367004, -0.16211248934268951, 0.3485179543495178, 0.2995034456253052, -0.06135597079992294, -0.21923403441905975, -0.059930574148893356, 0.246107280254364, -0.18387983739376068, 0.4219971299171448, -0.24025879800319672, -0.18471156060695648, -0.3401448428630829, -0.1741785854101181, 0.4640428423881531, 0.019206825643777847, -0.13061532378196716, -0.17289473116397858, 0.11222081631422043, -0.15896840393543243, 0.0741395354270935, 0.1736564040184021, -0.3705766499042511, 0.35454317927360535, -0.5525718331336975, -0.2481355518102646, -0.07982328534126282, -0.16950054466724396, -0.2824564278125763, 0.3209165036678314, 0.2928829789161682, -0.10798455029726028, -0.06944747269153595, 0.07329065352678299, 0.19027598202228546, 0.09213481843471527]], [[-0.06216161325573921, -0.2635045349597931, -0.613597571849823, -0.0016615163767710328, -0.2811613082885742, 0.19100473821163177, 0.6135466694831848, -0.6167654991149902, -0.08685079216957092, -0.3022584617137909, 0.20393668115139008, 0.7153804302215576, 0.6654894351959229, -0.40636056661605835, 0.12627960741519928, -0.27029386162757874, 0.09814465045928955, -0.3218541741371155, -0.14104650914669037, -0.4763774275779724, -0.43208980560302734, -0.041388507932424545, 0.3569867014884949, 0.04162394627928734, -0.11081743240356445, -0.05032189562916756, 0.1315373331308365, -0.07574358582496643, 0.07401833683252335, 0.20755140483379364, -0.36533117294311523, -0.074637770652771, -0.026179445907473564, 0.02774028666317463, -0.0002587025810498744, 0.07179643958806992, -0.19665390253067017, 0.027996759861707687, 0.054504502564668655, 0.03291160240769386, 0.07514543831348419, 0.025076039135456085, -0.011723748408257961, -0.017326081171631813, -0.02870713733136654, 0.009311613626778126, 0.07349942624568939, 0.0578266978263855], [-0.06216161325573921, -0.2635045349597931, -0.613597571849823, -0.0016615163767710328, -0.2811613082885742, 0.19100473821163177, 0.6135466694831848, -0.6167654991149902, -0.08685079216957092, -0.3022584617137909, 0.20393668115139008, 0.7153804302215576, 0.6654894351959229, -0.40636056661605835, 0.12627960741519928, -0.27029386162757874, 0.09814465045928955, -0.3218541741371155, -0.14104650914669037, -0.4763774275779724, -0.43208980560302734, -0.041388507932424545, 0.3569867014884949, 0.04162394627928734, -0.11081743240356445, -0.05032189562916756, 0.1315373331308365, -0.07574358582496643, 0.07401833683252335, 0.20755140483379364, -0.36533117294311523, -0.074637770652771, -0.03648637607693672, 0.03826335072517395, 0.040313538163900375, -0.013729821890592575, -0.020343158394098282, 0.002022916218265891, 0.06598775088787079, 0.04683637619018555, 0.1015997976064682, -0.016554949805140495, 0.004329531453549862, -0.020921818912029266, -0.03324391320347786, -0.0065789115615189075, -0.053763214498758316, 0.0678427442908287]]]}, {"type": "dense", "shape": [null, null, 1], "weights": [[[-0.6172058582305908], [-0.5343100428581238], [0.247356116771698], [0.510756254196167], [0.5438666343688965], [-0.3191893696784973], [-0.3538932502269745], [0.6125771999359131], [-0.5586580634117126], [0.6001343131065369], [0.5678207278251648], [-0.284259557723999], [-0.2685176730155945], [-0.32034391164779663], [0.5053893327713013], [-0.3761864900588989]], [0.03242664411664009]]}]}