{"in_shape": [null, null, 5], "layers": [{"type": "time-distributed-dense", "shape": [null, null, 8], "weights": [[[-0.36495262384414673, 0.38615337014198303, 0.26508641242980957, 0.56941157579422, -0.5661576390266418, -0.023159246891736984, 1.4533729553222656, 0.1572268158197403], [-0.32677286863327026, 0.3385840654373169, -0.22827591001987457, -0.33079779148101807, -0.10932961106300354, 1.3366477489471436, -0.053257912397384644, 0.8919571042060852], [-0.7649264335632324, -0.4639910161495209, 0.4114338755607605, 0.07116329669952393, -0.6116652488708496, 0.8442833423614502, 0.01714116893708706, 0.4639090597629547], [0.6268494725227356, -0.43411970138549805, -0.06122398376464844, 0.31783515214920044, -0.31317630410194397, 0.3927091956138611, 0.16880950331687927, -0.2441999614238739], [-0.02978701703250408, 0.7154159545898438, -0.3155447244644165, -0.1311737447977066, -0.2581050395965576, -0.2924393117427826, -0.023685820400714874, 0.38301071524620056]], [0.47030407190322876, -0.16714222729206085, 0.07497761398553848, -0.10615258663892746, -0.15586639940738678, -0.2894294857978821, 0.033367373049259186, -0.03383178263902664]]}, {"type": "gru", "shape": [null, null, 8], "weights": [[[-1.1155850887298584, -0.08138405531644821, 0.7482417225837708, 2.0117852687835693, -1.1839356422424316, 0.6628583073616028, -0.2927597165107727, 0.21112267673015594, -0.05229035019874573, -0.5997421145439148, 2.8258779048919678, -0.1643400341272354, -0.4317595064640045, 0.28999873995780945, 0.03094763681292534, -0.8365274667739868, -0.5502879023551941, 0.026895832270383835, -0.15730403363704681, 0.14076340198516846, -0.23029062151908875, 0.011911792680621147, 0.40272757411003113, 0.20114758610725403], [-0.5980654358863831, -0.5572571754455566, -1.8746083974838257, 1.6564992666244507, -0.01796170324087143, -0.8523834347724915, -1.8612945079803467, 0.7379317283630371, -0.6115633249282837, -0.15258297324180603, -0.8380177617073059, -0.3061043322086334, 0.14892618358135223, -1.122955083847046, 0.6522508263587952, -0.75703364610672, 0.08734171092510223, -0.29313308000564575, 0.17789186537265778, -0.4155071973800659, -0.2981072664260864, 0.08839397132396698, -0.6870673894882202, 0.2649933099746704], [1.6421704292297363, -0.846696674823761, 0.8616148233413696, 0.0964362770318985, -1.004390835762024, 1.8121469020843506, 1.702752709388733, 1.4020365476608276, -0.003840044839307666, 0.6303810477256775, -0.9281436204910278, 0.28420084714889526, 1.7643561363220215, -0.6568645238876343, -0.06954123079776764, 0.8552218675613403, 0.16273583471775055, 0.01787875033915043, 0.5573522448539734, -0.5260679125785828, 0.0921502485871315, -0.0422026701271534, -0.46287551522254944, -0.07688658684492111], [-0.1655193567276001, -0.5522657632827759, 0.6046072840690613, 0.986697256565094, -0.6647819876670837, 1.029180645942688, -0.4644337594509125, 1.32986581325531, -0.2506522238254547, 0.4894885718822479, -0.7483631372451782, 0.2887739837169647, 0.13717025518417358, -0.1283266693353653, 0.9738905429840088, -0.6227267384529114, -0.13092930614948273, -0.40218105912208557, -0.44075697660446167, 0.0017677088035270572, 0.4379138946533203, 0.060915350914001465, -0.12445846945047379, -0.05770299956202507], [0.09634523838758469, -0.28712424635887146, -1.5226738452911377, -0.09301578253507614, -0.2524774372577667, -1.2956011295318604, 0.8483944535255432, -0.5929487943649292, -0.282802015542984, -0.36013975739479065, 0.5007323622703552, -0.5204496383666992, -0.2853112816810608, 0.19082021713256836, 0.4333973228931427, -0.5841377973556519, 0.44920864701271057, 0.09155092388391495, -0.09640483558177948, -0.22225962579250336, 0.4176843464374542, -0.06549762934446335, -0.4190618395805359, 0.235654816031456], [-1.5566534996032715, 0.3769540786743164, 0.20553132891654968, 0.2783862054347992, 0.45221608877182007, -1.2394667863845825, -1.187412142753601, 0.978831946849823, 0.4364756643772125, -0.34174245595932007, -0.1691679060459137, -0.05225091800093651, -0.31405016779899597, 0.5166677236557007, 0.23423634469509125, -0.5455971956253052, 0.156200110912323, 0.23352162539958954, -0.3668844997882843, 0.2145368754863739, -0.46723055839538574, -0.05650729313492775, -0.2874651253223419, 0.46621423959732056], [-0.90835040807724, 0.16221816837787628, 0.9811980724334717, 0.008459150791168213, -1.7444478273391724, 1.367000699043274, -0.3794470727443695, 2.3315343856811523, -0.5637022256851196, 0.6243637204170227, -0.8812577724456787, 0.37539753317832947, 0.16602018475532532, -1.2565407752990723, 0.22261060774326324, -0.7513013482093811, -0.5635176301002502, -0.17515264451503754, 0.26795345544815063, -0.5185089111328125, 0.3204842805862427, 0.816165030002594, -0.5599350929260254, 0.28734394907951355], [-0.4792610704898834, 0.18110866844654083, 1.0462210178375244, -0.2579050064086914, -0.5720537900924683, 0.45660096406936646, 0.12563975155353546, 0.4483160674571991, -0.012818475253880024, 0.5902256369590759, -0.16518479585647583, -0.449225515127182, -0.10670728981494904, -0.02785695157945156, 0.18305999040603638, 0.44561994075775146, -0.1997385025024414, -0.0377504788339138, -0.0627746433019638, 0.3296726644039154, 0.19551898539066315, -0.11099701374769211, 0.029342787340283394, 0.4682515561580658]], [[-0.32080546021461487, -0.8742364048957825, -0.7008341550827026, -0.21450696885585785, -0.9603258967399597, -2.1511027812957764, -0.20999900996685028, 1.37347412109375, 0.13924215734004974, -0.3725334703922272, -0.6024084687232971, -0.39657434821128845, -0.010987924411892891, 0.09597258269786835, 0.021314702928066254, -0.4945451617240906, 0.43293359875679016, 0.015280124731361866, 0.2781667411327362, 0.026349032297730446, -0.16815634071826935, -0.4201561212539673, 0.1965501606464386, -0.4270729720592499], [-0.08012127131223679, 1.314182996749878, -0.8893008232116699, 1.132989525794983, -1.2127184867858887, 2.34094500541687, 0.020823292434215546, -0.436714231967926, -0.552204966545105, -0.8009323477745056, 0.28186890482902527, 0.7849500775337219, 0.12998858094215393, -1.1614689826965332, 0.12522190809249878, -0.15088911354541779, -0.28507015109062195, 0.9215220808982849, 0.5100888013839722, 0.4212368428707123, -0.3922157287597656, -0.11161331832408905, -0.292621910572052, -0.38045573234558105], [0.8826959133148193, 0.273042231798172, -1.854972004890442, -0.924830973148346, -0.7660998702049255, -1.0359781980514526, -0.8978725671768188, -1.534703254699707, -0.007175772916525602, -0.12353953719139099, -0.29321616888046265, -0.3616458773612976, 0.40593820810317993, -1.1315466165542603, 0.10621513426303864, 0.37342092394828796, 0.10989224910736084, 0.475895494222641, 0.16957619786262512, -0.43364694714546204, 0.06043543294072151, -0.06704659014940262, -0.038090694695711136, 0.17457833886146545], [-0.9629582166671753, 0.3298676609992981, -0.15658257901668549, 0.09119927138090134, -1.0665111541748047, 1.3128780126571655, -0.4937775433063507, 0.13871490955352783, 0.42328140139579773, -0.009748031385242939, -0.3371189832687378, 1.1117300987243652, 0.14917783439159393, 1.0426242351531982, 0.02940736897289753, -0.030326779931783676, 0.02164016105234623, -0.5984154939651489, -0.40632736682891846, -0.050230611115694046, -0.19542649388313293, -0.33027005195617676, -0.3156892955303192, -0.18756860494613647], [-0.1411256194114685, -0.6703015565872192, 0.9525894522666931, 0.28789812326431274, -0.06491455435752869, 0.007531449664384127, 0.8834129571914673, 0.6759520173072815, 0.01531471312046051, 0.687117874622345, 0.3203335106372833, 0.2554593086242676, 0.050282251089811325, -0.39403173327445984, -0.0713939368724823, 0.4613593816757202, -0.06340396404266357, -0.06150003522634506, 0.09650542587041855, -0.05788637697696686, 0.15549099445343018, -0.17592936754226685, 0.014965016394853592, -0.2980997860431671], [0.36865779757499695, 1.0525414943695068, 0.10771883279085159, 0.8738134503364563, 1.3975040912628174, -0.6207860708236694, -0.3129473328590393, -1.681226134300232, -0.07883042842149734, 0.3359077572822571, -0.5188701748847961, -0.17689508199691772, -0.4309139549732208, -0.05865338072180748, -0.932396411895752, 0.6504982709884644, -0.15969495475292206, 0.08675989508628845, -0.34191086888313293, -0.4880976974964142, 0.4135856032371521, 0.3020082414150238, 0.36402443051338196, 0.5203214287757874], [-1.0695246458053589, 1.55025315284729, 0.48194369673728943, -0.7897014617919922, 1.1606369018554688, 1.0913162231445312, 0.5901468992233276, 0.23935171961784363, -0.19282639026641846, -0.4667564630508423, 0.5224602818489075, 0.08335629105567932, 0.34870705008506775, 0.4007706344127655, -0.09518541395664215, 0.3524838387966156, -0.16702856123447418, 0.01971285417675972, 0.23245519399642944, -0.14271490275859833, -0.40798312425613403, 0.40230315923690796, 0.4114970266819, -0.3030169606208801], [-0.48931482434272766, 0.683066725730896, -1.429368019104004, 0.4745635390281677, -0.5297478437423706, -1.026737093925476, -0.2596321702003479, 0.9803819060325623, -0.40386104583740234, 0.0582381971180439, -0.17312747240066528, -0.1266692876815796, -0.44374385476112366, -0.19756212830543518, -0.07927609980106354, -0.5278505086898804, 0.1386515498161316, -0.4381770193576813, 0.07890516519546509, 0.30785977840423584, -0.20714177191257477, -0.5539664030075073, 0.021697189658880234, 0.4427734911441803]], [[0.7017515897750854, 0.08731210231781006, -1.058826208114624, 0.10907811671495438, -1.085700511932373, -0.2806611955165863, -0.13101612031459808, -1.3267028331756592, -0.0077400607988238335, 0.00759696401655674, 0.13898149132728577, 0.13087303936481476, 0.08754827827215195, -0.03513496369123459, 0.04124383628368378, -0.11100282520055771, -0.03959166258573532, 0.0901964083313942, 0.13546064496040344, -0.14842164516448975, -0.03963693603873253, 0.15183691680431366, 0.15878814458847046, 0.024182021617889404], [0.7017515897750854, 0.08731210231781006, -1.058826208114624, 0.10907811671495438, -1.085700511932373, -0.2806611955165863, -0.13101612031459808, -1.3267028331756592, -0.0077400607988238335, 0.00759696401655674, 0.13898149132728577, 0.13087303936481476, 0.08754827827215195, -0.03513496369123459, 0.04124383628368378, -0.11100282520055771, -0.0009159292094409466, 0.07351192086935043, 0.15631532669067383, -0.1516515463590622, -0.037041980773210526, 0.12295934557914734, 0.14095038175582886, 0.018198935315012932]]]}, {"type": "dense", "shape": [null, null, 1], "weights": [[[-0.5854308605194092], [-0.7509701251983643], [0.5160285234451294], [0.07091168314218521], [-0.9195629954338074], [0.6483087539672852], [-0.9784227609634399], [-0.6249365210533142]], [0.012755806557834148]]}]}