{"in_shape": [null, null, 2], "layers": [{"type": "time-distributed-dense", "shape": [null, null, 8], "weights": [[[0.2979961335659027, 0.29256850481033325, -0.2504000961780548, 0.6002006530761719, -0.005310520995408297, 0.6326484084129333, -0.2705816924571991, -0.16239109635353088], [-0.07217831909656525, 0.016605492681264877, -0.39789772033691406, -0.026345526799559593, 0.38219407200813293, -0.5582717061042786, 0.14101962745189667, -0.6005723476409912]], [-0.024311505258083344, -0.025846010074019432, 0.01722140610218048, -0.05542841926217079, 0.04320235922932625, 0.0041559538803994656, -0.03440091386437416, -0.05929892137646675]]}, {"type": "gru", "shape": [null, null, 16], "weights": [[[-0.22813370823860168, -0.14710141718387604, -0.02009904384613037, -0.1604021042585373, -0.2764628529548645, -0.19126588106155396, -0.16926729679107666, -0.04667862877249718, -0.3010910451412201, 0.0801328793168068, -0.020785972476005554, 0.26032117009162903, -0.2557896673679352, 0.2520439922809601, -0.16634385287761688, -0.0706251859664917, -0.12335871905088425, -0.10712078958749771, -0.1998213678598404, -0.1279245764017105, 0.04478820785880089, 0.012977619655430317, 0.09782842546701431, 0.25132909417152405, 0.10381949692964554, -0.0875512883067131, 0.14008542895317078, -0.18142949044704437, -0.1247061938047409, 0.08083871752023697, 0.07197153568267822, -0.3102598190307617, 0.11833831667900085, -0.16478680074214935, -0.3766654431819916, 0.34091177582740784, -0.05061155930161476, -0.18594302237033844, -0.1532759964466095, -0.05078240483999252, 0.22699953615665436, 0.1605217605829239, -0.027564505115151405, -0.28146612644195557, -0.18916696310043335, -0.11431638896465302, 0.04347509145736694, -0.2320607453584671], [-0.15882043540477753, 0.3399581015110016, -0.19126486778259277, -0.21230259537696838, 0.3717595636844635, 0.13445734977722168, -0.09897924214601517, -0.33235660195350647, -0.21615804731845856, -0.15910083055496216, 0.26726943254470825, 0.051073621958494186, -0.06979088485240936, 0.11641031503677368, -0.31620466709136963, 0.11999484896659851, 0.016320401802659035, -0.2895469069480896, -0.19976806640625, -0.21961769461631775, -0.2309664636850357, -0.20105327665805817, -0.28809210658073425, 0.0867919996380806, -0.09592174738645554, -0.32700270414352417, 0.36082276701927185, -0.04911525547504425, -0.33967748284339905, 0.15205255150794983, -0.06138573959469795, -0.20153628289699554, 0.0379919558763504, -0.07983589172363281, -0.3143668472766876, 0.10509512573480606, -0.23869259655475616, -0.204497292637825, 0.20352666079998016, 0.032462701201438904, -0.018442073836922646, 0.0140868304297328, 0.005701322574168444, -0.24671265482902527, 0.05454889312386513, 0.1637168824672699, 0.17196743190288544, 0.1726309061050415], [-0.09370029717683792, -0.13954134285449982, -0.019205737859010696, -0.20424795150756836, 0.13262522220611572, 0.10781777650117874, -0.2953183054924011, 0.2395758181810379, 0.07018005847930908, 0.09509801864624023, -0.06891272962093353, 0.28347545862197876, 0.12787404656410217, 0.3069857060909271, 0.05563478171825409, -0.2564435601234436, 0.013650921173393726, -0.15658427774906158, -0.1772984266281128, -0.19389289617538452, 0.10086371004581451, -0.22667266428470612, -0.13309504091739655, 0.3857741057872772, -0.064522884786129, -0.24700433015823364, -0.08188267797231674, 0.011673045344650745, -0.07364708930253983, -0.1684984266757965, 0.2374195009469986, 0.2769504487514496, -0.14364078640937805, -0.16080312430858612, 0.3221016526222229, 0.20759369432926178, -0.01915012300014496, -0.05796824395656586, -0.02156977169215679, -0.2796218693256378, -0.093133844435215, 0.23219990730285645, -0.19135844707489014, 0.15000680088996887, 0.13122007250785828, -0.1702261120080948, -0.10912808030843735, 0.05259803310036659], [-0.07739388197660446, 0.18944889307022095, 0.26419833302497864, -0.23664124310016632, 0.058944765478372574, -0.037260591983795166, -0.1541810929775238, 0.1505032181739807, 0.11478189378976822, -0.062049541622400284, 0.030879218131303787, -0.05823519453406334, 0.029025426134467125, -0.155851811170578, -0.06018446013331413, -0.007323044817894697, 0.2622685432434082, -0.1486165076494217, -0.36764729022979736, 0.09277711063623428, -0.1216367557644844, 0.25469228625297546, -0.32934513688087463, 0.1960175782442093, -0.1290784329175949, 0.03637424111366272, 0.39563652873039246, -0.010868197306990623, -0.2751082181930542, -0.011298200115561485, -0.13094255328178406, 0.1812801957130432, 0.25180527567863464, -0.1358291208744049, 0.04825839027762413, 0.18364013731479645, -0.2741178274154663, -0.24718165397644043, 0.04836919158697128, -0.14716902375221252, -0.34085813164711, -0.12202918529510498, -0.3313807249069214, -0.16011092066764832, -0.10198583453893661, 0.2615129053592682, -0.056272245943546295, -0.1201222687959671], [0.028843410313129425, 0.200033500790596, -0.23732367157936096, 0.12076947093009949, 0.055182430893182755, -0.20557841658592224, 0.17857955396175385, 0.12123403698205948, -0.08396702259778976, 0.3764660656452179, -0.2790927588939667, 0.2541864514350891, 0.27763086557388306, -0.015296384692192078, 0.13501618802547455, 0.07745398581027985, 0.14845800399780273, -0.3086497187614441, 0.04720550402998924, 0.17091941833496094, -0.21932663023471832, 0.33894839882850647, 0.2863357663154602, 0.14744026958942413, 0.08716049045324326, 0.18543709814548492, 0.06032709777355194, 0.06685875356197357, -0.035070013254880905, -0.2339331954717636, 0.3193410336971283, 0.210274800658226, -0.2974550426006317, 0.026974156498908997, -0.20752999186515808, -0.14511434733867645, -0.2549667954444885, 0.0966196209192276, -0.08427713066339493, 0.04171225056052208, 0.21030882000923157, -0.16610129177570343, -0.03691636770963669, 0.03649590164422989, 0.15671506524085999, -0.02084195427596569, -0.1926245391368866, 0.2978040277957916], [-0.2606090009212494, -0.2418171465396881, 0.004544501192867756, 0.18087154626846313, 0.05763888359069824, 0.13739687204360962, -0.1910216361284256, 0.22634728252887726, 0.29971393942832947, -0.048375580459833145, 0.16919991374015808, -0.0786437839269638, 0.15530385076999664, 0.07906563580036163, -0.006421322003006935, 0.22244015336036682, 0.37472203373908997, 0.27803340554237366, -0.11195608228445053, -0.3659455180168152, -0.22395452857017517, -0.2922428250312805, 0.017269400879740715, -0.038178570568561554, -0.2218438684940338, 0.010447759181261063, 0.07830734550952911, 0.16271381080150604, -0.21851342916488647, 0.14560995995998383, 0.20086023211479187, -0.179242342710495, -0.11053471267223358, -0.3094627857208252, -0.3283669948577881, -0.1306958645582199, 0.11386830359697342, 0.0992765948176384, -0.10716172307729721, 0.15668192505836487, 0.21799658238887787, -0.23054146766662598, -0.29250776767730713, 0.2492867112159729, 0.068150594830513, 0.03210582956671715, 0.13060572743415833, -0.010186098515987396], [0.27803659439086914, -0.0009968066588044167, 0.2819678783416748, 0.13659389317035675, -0.21452318131923676, 0.2431042343378067, -0.12889470160007477, -0.15441399812698364, -0.0479239746928215, -0.10558410733938217, 0.3854837417602539, 0.29135844111442566, 0.24754418432712555, -0.06568574905395508, -0.24470731616020203, 0.1940479576587677, -0.26788508892059326, -0.0161458607763052, 0.12755373120307922, 0.1517881453037262, 0.28077471256256104, 0.13303744792938232, 0.33389997482299805, 0.19869107007980347, 0.2660762369632721, 0.1643388569355011, 0.23583029210567474, 0.23115602135658264, 0.08291143923997879, -0.27503702044487, -0.29977405071258545, 0.3387558162212372, 0.145071342587471, -0.13929708302021027, -0.17463934421539307, 0.2677951455116272, -0.1847909390926361, -0.07474323362112045, -0.04913878068327904, -0.12426751852035522, -0.2675262987613678, 0.15310974419116974, -0.17730712890625, 0.3454452157020569, -0.15394501388072968, -0.01450458075851202, -0.015855256468057632, 0.16559943556785583], [0.10028186440467834, -0.17071625590324402, 0.11488358676433563, 0.11212778836488724, -0.2388673573732376, -0.22254633903503418, 0.08378656208515167, 0.01744474656879902, -0.1782473772764206, -0.12012360990047455, 0.26555582880973816, -0.002791599603369832, -0.08276069909334183, -0.08518315106630325, 0.3402429223060608, 0.2558636963367462, -0.24884313344955444, 0.0780152902007103, 0.2807745337486267, 0.28084731101989746, 0.23259618878364563, 0.2878444492816925, 0.33407655358314514, -0.15866082906723022, -0.34461262822151184, -0.04278672859072685, 0.1939777135848999, 0.1706182062625885, -0.06904365122318268, 0.08416406810283661, -0.18194256722927094, 0.10479950904846191, 0.2236253023147583, -0.31708160042762756, 0.2319844514131546, -0.27761298418045044, -0.24514402449131012, 0.10495707392692566, -0.2853984534740448, -0.2539754807949066, -0.18694761395454407, 0.014374345541000366, 0.30734965205192566, 0.0911124125123024, -0.10329241305589676, -0.11087938398122787, -0.3764208257198334, -0.12567222118377686]], [[-0.14082320034503937, -0.20486368238925934, -0.13462631404399872, -0.03283971548080444, 0.07165481895208359, -0.26464733481407166, 0.0006653460441157222, 0.2757555842399597, -0.07847169786691666, 0.004151291213929653, -0.04512132704257965, 0.2058369666337967, -0.04452876001596451, 0.05553387105464935, 0.1066378578543663, 0.1887759268283844, 0.1638554483652115, -0.27766793966293335, -0.09294574707746506, 0.16771681606769562, -0.08984826505184174, 0.023614032194018364, -0.20408113300800323, -0.2982802391052246, -0.04922899976372719, 0.08175920695066452, 0.044068217277526855, -0.093039870262146, 0.08789750933647156, 0.04228665307164192, -0.13174277544021606, -0.10177960991859436, -0.17592501640319824, 0.15710926055908203, -0.16834983229637146, 0.17887534201145172, -0.3274897038936615, 0.23733524978160858, -0.007568321190774441, 0.2585080862045288, -0.17808130383491516, 0.23061779141426086, 0.24216508865356445, -0.1611768752336502, -0.09541793912649155, 0.04417211189866066, 0.20530198514461517, 0.12535406649112701], [0.1267596334218979, -0.11992911994457245, -0.1718924641609192, -0.04958396404981613, -0.29969272017478943, 0.23371432721614838, 0.12674608826637268, 0.0916326493024826, 0.041372258216142654, -0.07076206803321838, -0.08404231071472168, -0.1570960283279419, 0.24119114875793457, 0.11158572137355804, -0.009092727676033974, -0.30607324838638306, -0.11675746738910675, -0.03654906153678894, 0.14955437183380127, 0.1243077889084816, 0.2821149528026581, -0.098520427942276, -0.08265352249145508, 0.3345116674900055, 0.19584046304225922, 0.18090249598026276, 0.1302226036787033, 0.016222363337874413, -0.07363992929458618, 0.005237838719040155, -0.23354005813598633, 0.15318265557289124, 0.12138865143060684, -0.01704101264476776, -0.005529704503715038, 0.07714556902647018, 0.3780538737773895, -0.14645013213157654, 0.13398195803165436, -0.10656774789094925, 0.09224224835634232, 0.07091226428747177, 0.1673872172832489, 0.005475301295518875, -0.28812623023986816, 0.18476618826389313, 0.08360224217176437, 0.24439065158367157], [0.03868015110492706, 0.1152673289179802, 0.04063385725021362, 0.04874492436647415, -0.023572592064738274, -0.24769987165927887, 0.1318589746952057, 0.09967591613531113, -0.18852652609348297, 0.006082180887460709, -0.13496249914169312, -0.09922675043344498, 0.04178106412291527, 0.11508064717054367, 0.15310479700565338, -0.3929399251937866, -0.04843270406126976, 0.22595752775669098, 0.06134708598256111, 0.07560703158378601, 0.07095468044281006, 0.014142979867756367, 0.09504807740449905, 0.30653470754623413, 0.4041999876499176, 0.15582159161567688, -0.23856022953987122, -0.10802669078111649, 0.14905983209609985, -0.10628261417150497, 0.20687828958034515, 0.007502803113311529, -0.10449665039777756, 0.24868707358837128, -0.1038423404097557, 0.004872780293226242, 0.1212216466665268, 0.07126902788877487, -0.06637410074472427, -0.01860540732741356, 0.04779110476374626, -0.0727255567908287, 0.06897924095392227, 0.38204506039619446, -0.1474808156490326, -0.043171510100364685, -0.10057946294546127, -0.05249105766415596], [-0.14992663264274597, -0.010521257296204567, 0.2980892062187195, -0.19330434501171112, -0.36705881357192993, 0.13996565341949463, -0.14726482331752777, 0.2673555612564087, -0.16184388101100922, 0.18401837348937988, 0.2649238109588623, -0.10288558900356293, -0.07036319375038147, 0.05195516347885132, 0.03639994189143181, 0.1678602248430252, 0.1034509465098381, -0.018908780068159103, -0.06421094387769699, 0.07462949305772781, -0.09091285616159439, 0.07960114628076553, -0.10050243139266968, -0.03433486074209213, -0.035507991909980774, -0.07138533890247345, 0.24372920393943787, 0.07619228214025497, -0.1753261685371399, -0.08224518597126007, -0.057103581726551056, -0.4135265052318573, 0.056996963918209076, 0.03684131056070328, -0.011760846711695194, 0.006595884915441275, -0.02821492590010166, 0.04784004017710686, -0.12892425060272217, 0.14507590234279633, 0.088312067091465, 0.08768362551927567, 0.08145512640476227, 0.20360974967479706, 0.11212144047021866, -0.03304971754550934, -0.08257149159908295, -0.13439185917377472], [0.09110931307077408, 0.20656076073646545, -0.20669306814670563, -0.07692371308803558, -0.17219476401805878, -0.08543083071708679, 0.09015759080648422, -0.18231931328773499, 0.030670596286654472, 0.12195466458797455, -0.16812586784362793, 0.03206215798854828, 0.1292252242565155, -0.0175174493342638, -0.14361342787742615, 0.14572282135486603, -0.07253839820623398, 0.07633949816226959, 0.14461416006088257, 0.3446289300918579, 0.21253381669521332, 0.09886226803064346, -0.036216966807842255, 0.15465721487998962, 0.19025056064128876, 0.019262291491031647, -0.01064120139926672, 0.36116307973861694, -0.038191430270671844, -0.024718027561903, 0.09685394167900085, 0.14843715727329254, -0.38085079193115234, 0.1132718026638031, 0.11896990239620209, -0.4083787202835083, 0.2677457332611084, 0.1888994723558426, -0.10617262870073318, -0.36647775769233704, -0.03114169090986252, -0.09539053589105606, -0.05157480388879776, 0.15604744851589203, -0.05875149741768837, 0.21230432391166687, -0.012270304374396801, 0.11465618759393692], [-0.008975435048341751, -0.02795436605811119, -0.046007923781871796, 0.2532556354999542, -0.09684357047080994, -0.3886922299861908, -0.07546365261077881, -0.3084663152694702, 0.0732545480132103, 0.03211132436990738, 0.2205958515405655, 0.16902180016040802, -0.08860975503921509, -0.13490960001945496, 0.13901345431804657, 0.16716673970222473, -0.1689654439687729, 0.09832591563463211, 0.023332849144935608, 0.05519445240497589, 0.13818269968032837, 0.1820656657218933, 0.1556430459022522, 0.21730506420135498, -0.12450332939624786, 0.13395139575004578, 0.312406986951828, -0.2489718794822693, -0.07454105466604233, -0.19498790800571442, 0.0014829478459432721, -0.042097415775060654, 0.12601983547210693, -0.029907938092947006, -0.22126631438732147, -0.13881926238536835, -0.07814944535493851, -0.15105211734771729, 0.08692514151334763, 0.14064763486385345, -0.013690556399524212, -0.018783152103424072, 0.17627133429050446, 0.10909517109394073, -0.0017675944836810231, 0.018245045095682144, 0.04060463607311249, 0.1442084163427353], [0.12777039408683777, -0.21902528405189514, 0.12946361303329468, 0.3491857945919037, -0.0446728952229023, -0.058694105595350266, 0.19790828227996826, -0.09641887992620468, 0.061483971774578094, -0.2199985384941101, 0.2869412899017334, -0.07887092977762222, 0.059638652950525284, -0.14637210965156555, -0.06734080612659454, -0.06108034402132034, -0.02848059870302677, 0.014614947140216827, 0.20495833456516266, 0.19524121284484863, 0.005669635254889727, -0.09542728215456009, 0.0796767994761467, -0.36548149585723877, -0.20667779445648193, -0.1272794008255005, -0.1857970952987671, 0.120023213326931, 0.03501220792531967, -0.01743677817285061, -0.00607382133603096, -0.11178669333457947, 0.13707517087459564, 0.1643078476190567, -0.09075068682432175, -0.12982764840126038, 0.11096376180648804, 0.03138190880417824, -0.04509183019399643, 0.009186302311718464, -0.10975934565067291, 0.009080441668629646, 0.23440667986869812, 0.10477001219987869, -0.26108482480049133, 0.06734956800937653, -0.3285014033317566, 0.0028913787100464106], [0.07889443635940552, 0.1676795333623886, -0.02695467695593834, 0.13853903114795685, 0.014268671162426472, 0.3324800133705139, -0.06557861715555191, -0.17979773879051208, -0.10841686278581619, 0.3197547495365143, -0.19442309439182281, -0.14694160223007202, 0.3985690176486969, -0.019336385652422905, 0.005473356693983078, 0.1741671860218048, 0.09161648154258728, -0.13000495731830597, -0.2010968178510666, -0.00918758288025856, 0.11124417185783386, 0.04649008810520172, -0.04007985070347786, -0.2157970368862152, 0.19399699568748474, -0.2319420427083969, 0.1233937218785286, -0.12044819444417953, -0.056929055601358414, 0.05940864980220795, 0.20220033824443817, -0.03777099400758743, 0.15924414992332458, 0.0659504383802414, -0.20853100717067719, 0.2793588638305664, 0.004342545755207539, 0.19578775763511658, 0.10285634547472, 0.015876419842243195, -0.2697623670101166, -0.10144376754760742, -0.2598573863506317, -0.014229622669517994, -0.18515625596046448, -0.09390361607074738, 0.1829281449317932, -0.03315512835979462], [-0.06085920333862305, 0.20124651491641998, -0.17027758061885834, 0.2506222426891327, 0.2600066065788269, 0.07014158368110657, -0.12775765359401703, 0.06783836334943771, -0.09524046629667282, 0.005295754410326481, -0.21722076833248138, -0.4128769040107727, -0.11050813645124435, 0.39394912123680115, -0.017606498673558235, -0.03256905823945999, -0.01749984733760357, 0.11273074150085449, 0.17757701873779297, -0.20784354209899902, 0.1878029853105545, 0.011389635503292084, 0.017117571085691452, 0.0009047008352354169, 0.053495150059461594, -0.11686114966869354, 0.2427995651960373, 0.28815749287605286, -0.09210340678691864, 0.23780220746994019, -0.01487016398459673, -0.17716000974178314, -0.07297888398170471, 0.014702669344842434, 0.07481079548597336, -0.11431681364774704, 0.0526898056268692, 0.06596838682889938, 0.02999104931950569, 0.13842463493347168, -0.13825185596942902, -0.06466600298881531, 0.15903756022453308, -0.02703176438808441, 0.0812678188085556, -0.06951060146093369, 0.23688746988773346, 0.12022681534290314], [0.06419458985328674, -0.020571470260620117, 0.06851010024547577, -0.08345013856887817, -0.016561171039938927, -0.09529773890972137, 0.24797698855400085, 0.10372103750705719, -0.17916326224803925, -0.20655736327171326, -0.15969406068325043, -0.3220985531806946, 0.06475114077329636, -0.24215127527713776, 0.0662967786192894, 0.1774810254573822, -0.08242199569940567, 0.005453694611787796, -0.1818016916513443, 0.3725644052028656, 0.19160382449626923, -0.12019401043653488, 0.17544274032115936, 0.012540778145194054, -0.20229081809520721, 0.04870910197496414, -0.13601404428482056, -0.11611244827508926, -0.019453097134828568, -0.20724359154701233, -0.0072210500948131084, 0.10093987733125687, 0.007968064397573471, 0.09123338013887405, 0.18055236339569092, -0.19411811232566833, -0.1020379364490509, -0.1634543389081955, 0.23536716401576996, 0.2203785628080368, 0.09729722142219543, 0.12361940741539001, 0.004013578407466412, 0.07584840804338455, 0.21819375455379486, -0.04984136298298836, -0.007747759111225605, 0.03895113989710808], [-0.09216409176588058, 0.12708958983421326, 0.05626595392823219, 0.1479475200176239, 0.08887173980474472, -0.31953173875808716, 0.031056977808475494, 0.08772661536931992, -0.10630208253860474, 0.09960253536701202, 0.11285135895013809, -0.11698920279741287, 0.21021564304828644, -0.07239454239606857, 0.13393647968769073, -0.05715164542198181, 0.043105192482471466, -0.0764600932598114, 0.012803898192942142, 0.029104845598340034, -0.09517592936754227, -0.15996377170085907, -0.06838971376419067, -0.13498911261558533, -0.14340585470199585, 0.1817406862974167, 0.1395307034254074, 0.1159418597817421, 0.15631523728370667, -0.24855902791023254, 0.232225239276886, 0.03841816261410713, 0.006947498768568039, -0.13777506351470947, 0.020530279725790024, 0.16727782785892487, 0.2577158808708191, -0.1584571748971939, -0.042683105915784836, -0.22200234234333038, 0.26244601607322693, -0.0458625927567482, 0.09746219962835312, -0.16647222638130188, 0.0974765345454216, 0.31038209795951843, -0.07168105989694595, 0.0634947195649147], [-0.14256593585014343, -0.4469848573207855, 0.06030358374118805, -0.008450930006802082, -0.05748143419623375, -0.20206399261951447, -0.3284080922603607, -0.052421536296606064, -0.2091204971075058, -0.1285358965396881, 0.09462811797857285, 0.06218020245432854, -0.03518078848719597, -0.14455080032348633, 0.03313254937529564, -0.2245558500289917, -0.3313869535923004, -0.04081963747739792, 0.002437140326946974, 0.12712638080120087, 0.39247649908065796, 0.07906235754489899, -0.18691934645175934, -0.0632350742816925, -0.10321594029664993, -0.007462415844202042, -0.11803828924894333, 0.10867978632450104, 0.1726759821176529, -0.03819393739104271, -0.092213474214077, -0.02696770243346691, 0.05463175103068352, -0.03235708177089691, 0.07509703934192657, 0.03807736560702324, 0.04879269003868103, 0.05217018723487854, 0.034316301345825195, -0.20233304798603058, 0.09694540500640869, -0.14099423587322235, -0.19866178929805756, 0.2137390822172165, 0.17398658394813538, -0.07394306361675262, -0.05971766263246536, 0.2198808491230011], [0.22884920239448547, 0.02857760712504387, -0.14896292984485626, 0.04211219772696495, -0.0712207481265068, -0.08587222546339035, 0.1241961419582367, -0.004635615739971399, -0.09836959838867188, 0.21706418693065643, -0.10807443410158157, -0.005545748397707939, 0.0321158766746521, 0.19053290784358978, 0.06453439593315125, 0.13245230913162231, -0.028693625703454018, -0.032692715525627136, 0.2572258412837982, 0.08197246491909027, 0.2019433230161667, -0.1333417445421219, 0.034482214599847794, -0.07841219007968903, 0.19500763714313507, 0.1835913062095642, -0.19877445697784424, -0.012055113911628723, 0.09662840515375137, -0.13090313971042633, -0.24247995018959045, -0.18036231398582458, 0.18700477480888367, -0.16698776185512543, -0.2024811953306198, -0.25433844327926636, -0.022222738713026047, -0.14596223831176758, -0.2082422375679016, -0.17446231842041016, 0.3230413794517517, 0.09481146931648254, -0.19215016067028046, -0.04252675920724869, -0.05541514232754707, -0.28919097781181335, -0.08050374686717987, 0.05753927305340767], [-0.10056547820568085, -0.33780714869499207, 0.03414730727672577, 0.09701158106327057, 0.20533892512321472, 0.0035971365869045258, -0.18586404621601105, 0.32761842012405396, 0.2966419756412506, 0.1421099305152893, -0.056951574981212616, -0.09886826574802399, -0.034148041158914566, -0.05451657623052597, 0.05471442639827728, 0.014586654491722584, -0.0564383789896965, -0.011505266651511192, 0.09384112805128098, 0.136943981051445, -0.14966994524002075, 0.11508950591087341, 0.2966344654560089, 0.05036570876836777, -0.1627190113067627, -0.029543180018663406, 0.07702364027500153, -0.060640107840299606, 0.06875152885913849, 0.05522935092449188, 0.13119907677173615, -0.00039276841562241316, 0.0443023219704628, 0.09507910907268524, -0.23091226816177368, -0.04507362097501755, 0.19517870247364044, 0.24135121703147888, 0.012691435404121876, -0.036817025393247604, 0.02105795033276081, 0.18001846969127655, -0.1175568476319313, -0.2052099108695984, 0.16767634451389313, -0.08632683008909225, 0.21573901176452637, -0.2783854901790619], [-0.024775411933660507, 0.3320716619491577, -0.31078290939331055, 0.07343943417072296, -0.2474365383386612, 0.15695756673812866, -0.010688073001801968, 0.06352727115154266, 0.1143946647644043, 0.05972329527139664, -0.03313137963414192, -0.21118120849132538, -0.07796115428209305, 0.04102650284767151, 0.03744864463806152, -0.18226031959056854, 0.288295716047287, 0.033742692321538925, -0.04050937294960022, -0.03535235673189163, -0.1543535441160202, 0.05255434662103653, 0.003936103545129299, 0.0917782261967659, -0.2753294110298157, -0.10995782166719437, 0.022711364552378654, 0.14192543923854828, -0.10199405997991562, 0.23037980496883392, 0.07727868854999542, 0.12889723479747772, -0.17304901778697968, 0.02239549346268177, -0.37004226446151733, 0.22472481429576874, -0.14897356927394867, 0.06724131107330322, -0.06102524325251579, 0.02215668186545372, -0.059986013919115067, 0.10484134405851364, -0.3648540675640106, -0.0012388038448989391, 0.055566538125276566, -0.17680169641971588, -0.05659535154700279, 0.3318614065647125], [0.17396095395088196, 0.0010054537560790777, 0.014829328283667564, 0.0027174935676157475, -0.013877492398023605, -0.15645498037338257, 0.2144857943058014, 0.0052068354561924934, 0.20082782208919525, 0.3369319438934326, 0.057299669831991196, -0.2515222132205963, -0.03511880710721016, 0.08645108342170715, 0.022065484896302223, 0.05681927874684334, -0.09939838200807571, 0.06386857479810715, 0.2293962687253952, -0.002401979174464941, 0.34309110045433044, 0.13780608773231506, -0.2689514756202698, 0.15776242315769196, 0.004456495866179466, 0.13293960690498352, -0.03315607085824013, 0.0486445389688015, 0.056866202503442764, 0.28166788816452026, -0.036742016673088074, 0.12364782392978668, -0.09874492883682251, 0.3394269645214081, 0.20743386447429657, 0.10545467585325241, 0.059685103595256805, -0.32729023694992065, 0.020296921953558922, -0.08323065936565399, -0.10978306829929352, -0.12821437418460846, -0.23810410499572754, -0.06067787483334541, -0.07036318629980087, 0.16204461455345154, -0.16407786309719086, -0.15945221483707428]], [[0.03932054340839386, 0.044613663107156754, -0.055072568356990814, -0.002709516789764166, -0.022244160994887352, 0.0433211550116539, 0.013391130603849888, -0.05696815624833107, 0.041887056082487106, 0.04165513440966606, -0.05553526058793068, -0.06081896275281906, 0.03502465784549713, 0.04459806904196739, -0.04893681779503822, -0.06293942779302597, 0.0026543315034359694, 0.06446031481027603, 0.06629931926727295, 0.05720673128962517, 0.07473137974739075, 0.03889605402946472, -0.028404155746102333, 0.041396018117666245, 0.05003495514392853, 0.05444319173693657, 0.03182949870824814, 0.06356756389141083, -0.057262662798166275, 0.052692096680402756, 0.060924094170331955, 0.05876343324780464, -0.04134666547179222, 0.0654144436120987, -0.006464750971645117, 0.006903860718011856, 0.04146136716008186, -0.03755771368741989, -0.011205640621483326, 0.03527028113603592, 0.012026151642203331, 0.004160111304372549, -0.01138679962605238, -0.027947356924414635, 0.03878418728709221, -0.02226870320737362, 0.053258929401636124, 0.01045952271670103], [0.03932054340839386, 0.044613663107156754, -0.055072568356990814, -0.002709516789764166, -0.022244160994887352, 0.0433211550116539, 0.013391130603849888, -0.05696815624833107, 0.041887056082487106, 0.04165513440966606, -0.05553526058793068, -0.06081896275281906, 0.03502465784549713, 0.04459806904196739, -0.04893681779503822, -0.06293942779302597, 0.0026543315034359694, 0.06446031481027603, 0.06629931926727295, 0.05720673128962517, 0.07473137974739075, 0.03889605402946472, -0.028404155746102333, 0.041396018117666245, 0.05003495514392853, 0.05444319173693657, 0.03182949870824814, 0.06356756389141083, -0.057262662798166275, 0.052692096680402756, 0.060924094170331955, 0.05876343324780464, -0.054759860038757324, 0.0666172057390213, 0.04834473133087158, -0.04453480243682861, 0.054318979382514954, -0.024318084120750427, -0.03984132036566734, 0.03446803614497185, 0.04308391734957695, -0.003110499121248722, -0.05501553416252136, -0.026585908606648445, -0.035675372928380966, -0.051205068826675415, 0.0459735207259655, 0.048817239701747894]]]}, {"type": "dense", "shape": [null, null, 1], "weights": [[[-0.48527243733406067], [0.15795496106147766], [-0.3926721513271332], [0.237199068069458], [-0.3016364574432373], [0.14339342713356018], [0.31899282336235046], [0.07635103911161423], [-0.3471948802471161], [0.2914052903652191], [-0.3325517773628235], [-0.21563269197940826], [0.538345992565155], [-0.5350200533866882], [0.025303330272436142], [-0.3953782320022583]], [0.022728292271494865]]}]}